function testEllipse(x_tgt, x_upo, y_upo, x_dwno, y_dwno, b, n)
{
	h = x_tgt / 2;
	a = h;
	
	test = 0;
	
	test1 = Math.pow(Math.abs((x_upo - h) / a) ,n) + Math.pow(Math.abs(y_upo / b),n);
	
	test2 = Math.pow(Math.abs((x_dwno - h) / a) ,n) + Math.pow(Math.abs(y_dwno / b),n);
	
	if(isNaN(test))
	{
		console.log(test);
	}
	
	if(test1 > test2) return test1;
	return test2;	
}

function evaluateArc(x_tgt,b,n)
{
	var old_y = 0;
	var arc = 0;
	for (var j=1; j<=100;j++)
	{
		x = j - 50;
		y = b * Math.pow((1 - Math.pow(Math.abs(x/(x_tgt/2)),n)),(1/n));
		if(j == 1)
		{
			arc = arc + Math.sqrt(y*y + 1) 
		}
		else
		{
			arc = arc + Math.sqrt((y - old_y)*(y - old_y) + 1) 
		}
		old_y = y;
	}	
	return arc;
}

function ellipseParams(x_tgt, x_upo, y_upo, x_dwno, y_dwno)
{
	var best_b = -1;
	var best_n = -1;
	var best_arc = 1000000;
 	var n = 10;
	
    while(true)
        {
            n = n - 0.1;
			if(n < 1)
			{
				break;				
			}
			var b = Math.max(y_upo, y_dwno) + 20;
            
            while(true)
			{
				b = b - 0.1;
				if(b < Math.max(y_upo, y_dwno))
				{
					b = Math.max(y_upo, y_dwno) + 0.5;
					break;					
				}
				test = testEllipse(x_tgt, x_upo, y_upo, x_dwno, y_dwno, b, n);
				if(test >= 1)
				{
					b = b + 0.1;
					break;
				}
				else
				{
					var arc = evaluateArc(x_tgt,b,n);
						if(arc < best_arc)
						{
							best_arc = arc;
							best_b = b;
							best_n = n;							
						}
					
				}
			}
			
			
        }

        
	return [best_b,best_n];
}

function generateEllipsePoints(x_tgt,b,n)
{
	x = [];
	y = [];
	for (var j=0; j<101; j++){
		// abs( y / b ) ^ 3 = 1 - abs( x / a ) ^ 3
		x[j] = j - 50;
		y[j] = b * Math.pow((1 - Math.pow(Math.abs(x[j]/(x_tgt/2)),n)),(1/n));   
		x[j] = j;
	} 
	
	return {x: x, y: y};
}

function timeout(ms) {
    return new Promise(resolve => setTimeout(resolve, ms));
}
var jnn = '{"sizes":[4,32,32,32,16,2],"layers":[{"0":{},"1":{},"2":{},"3":{}},{"0":{"bias":-0.5732295513153076,"weights":{"0":-0.664447546005249,"1":0.4828890562057495,"2":-0.4915536344051361,"3":1.6923317909240723}},"1":{"bias":-0.056196391582489014,"weights":{"0":-0.07532314956188202,"1":-0.7470616698265076,"2":-0.261369526386261,"3":-1.6179258823394775}},"2":{"bias":-0.001406015595421195,"weights":{"0":0.1276153177022934,"1":-0.7329018712043762,"2":-0.11643055081367493,"3":-1.695432186126709}},"3":{"bias":-0.38146480917930603,"weights":{"0":0.12857040762901306,"1":-0.3882330060005188,"2":-0.5509223341941833,"3":0.5241188406944275}},"4":{"bias":0.022992461919784546,"weights":{"0":-0.14798840880393982,"1":-0.5424018502235413,"2":-0.12308373302221298,"3":-1.306976079940796}},"5":{"bias":-0.16788838803768158,"weights":{"0":-0.2724513113498688,"1":-0.9791373014450073,"2":-0.3256363868713379,"3":-1.6651335954666138}},"6":{"bias":-0.3710326552391052,"weights":{"0":-0.20471781492233276,"1":0.5361126065254211,"2":-0.07288544625043869,"3":0.4120731055736542}},"7":{"bias":-0.12201493233442307,"weights":{"0":0.00440430361777544,"1":-0.4407539367675781,"2":-0.17814572155475616,"3":-1.1913206577301025}},"8":{"bias":0.3233097195625305,"weights":{"0":0.14138250052928925,"1":-0.4493712782859802,"2":-0.22567903995513916,"3":-1.3535680770874023}},"9":{"bias":-0.5244801640510559,"weights":{"0":-0.3738984167575836,"1":0.12469599395990372,"2":0.0025909238029271364,"3":0.7494280934333801}},"10":{"bias":-0.12355052679777145,"weights":{"0":-0.12607310712337494,"1":-0.13292603194713593,"2":-0.42028799653053284,"3":-0.8230246305465698}},"11":{"bias":0.3391854465007782,"weights":{"0":0.0010498196352273226,"1":-0.5261709094047546,"2":-0.2514572739601135,"3":-1.4887688159942627}},"12":{"bias":-0.8059901595115662,"weights":{"0":-0.8275375366210938,"1":-0.01932036131620407,"2":-0.3077852129936218,"3":1.8792216777801514}},"13":{"bias":-0.9230077266693115,"weights":{"0":-0.25456446409225464,"1":0.19551919400691986,"2":-0.09079598635435104,"3":1.5710190534591675}},"14":{"bias":-0.6889241933822632,"weights":{"0":-1.3077446222305298,"1":-1.82255220413208,"2":-0.3444826602935791,"3":-2.3410634994506836}},"15":{"bias":-0.7441722750663757,"weights":{"0":-0.17628014087677002,"1":0.4572272002696991,"2":-0.24366989731788635,"3":1.5291805267333984}},"16":{"bias":0.18257273733615875,"weights":{"0":0.16998068988323212,"1":-0.4786180555820465,"2":-0.1372680962085724,"3":-1.464840292930603}},"17":{"bias":-0.35592222213745117,"weights":{"0":-0.11596745252609253,"1":0.530547022819519,"2":-0.21395675837993622,"3":1.1827512979507446}},"18":{"bias":-1.626471757888794,"weights":{"0":0.07180958241224289,"1":5.970231533050537,"2":-0.2517388164997101,"3":-6.021242618560791}},"19":{"bias":0.09907972067594528,"weights":{"0":0.6493806838989258,"1":1.3545013666152954,"2":-0.044229477643966675,"3":1.7966301441192627}},"20":{"bias":0.12695752084255219,"weights":{"0":-0.017361275851726532,"1":-0.7130606770515442,"2":-0.2500801384449005,"3":-1.6167616844177246}},"21":{"bias":-0.5140511989593506,"weights":{"0":-0.4105372726917267,"1":0.5589611530303955,"2":-0.2335282415151596,"3":1.3931456804275513}},"22":{"bias":-0.2460237592458725,"weights":{"0":0.06540172547101974,"1":0.9731634855270386,"2":-0.10481826215982437,"3":1.4065428972244263}},"23":{"bias":-0.5070945620536804,"weights":{"0":-0.37683647871017456,"1":0.36791419982910156,"2":-0.3025018870830536,"3":0.9120087623596191}},"24":{"bias":-0.5588001608848572,"weights":{"0":0.29010042548179626,"1":-2.2200193405151367,"2":-0.018237750977277756,"3":2.105790615081787}},"25":{"bias":0.15463334321975708,"weights":{"0":-0.055140357464551926,"1":-0.47994229197502136,"2":-0.36686503887176514,"3":-1.2483444213867188}},"26":{"bias":-0.0652521625161171,"weights":{"0":-0.39440396428108215,"1":-0.13165658712387085,"2":-0.20248693227767944,"3":-0.5585458874702454}},"27":{"bias":-0.1503831446170807,"weights":{"0":0.36392632126808167,"1":0.8579767346382141,"2":0.025946253910660744,"3":1.4558210372924805}},"28":{"bias":-0.14108125865459442,"weights":{"0":-0.20273582637310028,"1":0.18941180408000946,"2":-0.35267186164855957,"3":-0.45926493406295776}},"29":{"bias":-0.6587653756141663,"weights":{"0":0.2827906012535095,"1":-2.2513740062713623,"2":0.005118105094879866,"3":2.5688893795013428}},"30":{"bias":0.08732515573501587,"weights":{"0":-0.6039731502532959,"1":-0.67168790102005,"2":-0.20022867619991302,"3":-1.4027650356292725}},"31":{"bias":0.15420733392238617,"weights":{"0":-0.13162271678447723,"1":-0.30816319584846497,"2":-0.24560010433197021,"3":-1.065375566482544}}},{"0":{"bias":-0.25277337431907654,"weights":{"0":-0.4136720299720764,"1":0.09999216347932816,"2":0.2549963593482971,"3":-0.07221075147390366,"4":-0.025389520451426506,"5":0.12527814507484436,"6":-0.05805695801973343,"7":-0.09510236978530884,"8":0.010648855939507484,"9":-0.34757938981056213,"10":0.20257951319217682,"11":-0.02662685327231884,"12":-0.17656821012496948,"13":-0.20316550135612488,"14":0.1990126371383667,"15":-0.09411029517650604,"16":0.2539318799972534,"17":-0.09397098422050476,"18":-0.5458060503005981,"19":-0.3790227174758911,"20":0.296505331993103,"21":-0.28098466992378235,"22":-0.37601396441459656,"23":-0.17862917482852936,"24":-0.09356188774108887,"25":-0.138056680560112,"26":0.008206265978515148,"27":-0.14666152000427246,"28":-0.1552347093820572,"29":-0.34020912647247314,"30":-0.04937395825982094,"31":0.03410564363002777}},"1":{"bias":-0.0867191031575203,"weights":{"0":-0.18182061612606049,"1":0.18388569355010986,"2":0.09157948940992355,"3":-0.3181951642036438,"4":0.04195385426282883,"5":0.06758762151002884,"6":-0.28334563970565796,"7":-0.1603645235300064,"8":0.15007264912128448,"9":0.03002507984638214,"10":-0.03130321577191353,"11":0.05369390919804573,"12":-0.4168808162212372,"13":-0.13496345281600952,"14":0.024988418444991112,"15":0.014459682628512383,"16":0.1960906684398651,"17":-0.32009902596473694,"18":-0.6729380488395691,"19":0.04629070684313774,"20":0.14215409755706787,"21":-0.3167080581188202,"22":0.0019548784475773573,"23":-0.041691526770591736,"24":-0.32537248730659485,"25":0.18961961567401886,"26":-0.07301440089941025,"27":0.002805746393278241,"28":-0.020736603066325188,"29":-0.4805888235569,"30":0.18399395048618317,"31":0.18481579422950745}},"2":{"bias":-0.2585269510746002,"weights":{"0":0.24086393415927887,"1":-0.2716921269893646,"2":-0.39228859543800354,"3":-0.12361538410186768,"4":-0.3013169467449188,"5":-0.2625430226325989,"6":-0.14593276381492615,"7":-0.15710942447185516,"8":-0.4695598781108856,"9":0.03156444430351257,"10":-0.39822104573249817,"11":-0.1548972725868225,"12":0.5091519355773926,"13":0.2733485996723175,"14":-0.2506481409072876,"15":0.03781340271234512,"16":-0.32661277055740356,"17":-0.14529000222682953,"18":2.46335506439209,"19":-0.44636473059654236,"20":-0.15433846414089203,"21":0.20687122642993927,"22":-0.1229449212551117,"23":-0.14241625368595123,"24":1.050392746925354,"25":-0.48082998394966125,"26":-0.26813995838165283,"27":-0.4021461606025696,"28":-0.23523525893688202,"29":1.0389719009399414,"30":-0.16781818866729736,"31":-0.24015498161315918}},"3":{"bias":-0.45632901787757874,"weights":{"0":-0.8880659937858582,"1":0.6215246319770813,"2":0.6500071883201599,"3":-0.35447946190834045,"4":0.613055944442749,"5":0.6709471940994263,"6":-0.37054961919784546,"7":0.09917117655277252,"8":0.39971473813056946,"9":-0.38286644220352173,"10":-0.046406131237745285,"11":0.33426231145858765,"12":-0.6273189187049866,"13":-0.8004304766654968,"14":1.0795074701309204,"15":-0.8362855911254883,"16":0.3702116012573242,"17":-0.8395007848739624,"18":-0.8195938467979431,"19":-1.0702276229858398,"20":0.7226407527923584,"21":-0.489326149225235,"22":-0.8453042507171631,"23":-0.5522698760032654,"24":-0.3050490617752075,"25":0.49552392959594727,"26":-0.19094175100326538,"27":-0.9168797135353088,"28":-0.24159038066864014,"29":-0.4919724464416504,"30":0.5291417837142944,"31":0.18498341739177704}},"4":{"bias":-0.09090215712785721,"weights":{"0":-0.15287351608276367,"1":-0.044815316796302795,"2":0.20907460153102875,"3":-0.2385350614786148,"4":0.18740195035934448,"5":0.005048675462603569,"6":-0.028020324185490608,"7":0.11380050331354141,"8":-0.07038009166717529,"9":-0.08515136688947678,"10":0.1240246519446373,"11":-0.04968167468905449,"12":-0.33416566252708435,"13":-0.23780250549316406,"14":0.05793091282248497,"15":-0.2645813822746277,"16":-0.020158573985099792,"17":-0.30670419335365295,"18":-0.6505113840103149,"19":0.05112205818295479,"20":0.289867103099823,"21":-0.08905798196792603,"22":-0.24299557507038116,"23":-0.05651696398854256,"24":-0.11605650931596756,"25":0.13937750458717346,"26":-0.2086382508277893,"27":-0.23411831259727478,"28":-0.19113881886005402,"29":-0.39266133308410645,"30":0.11271326243877411,"31":0.06018650904297829}},"5":{"bias":-0.10892592370510101,"weights":{"0":-0.26159894466400146,"1":-0.23304764926433563,"2":-0.17728598415851593,"3":0.08817097544670105,"4":-0.21628637611865997,"5":-0.2306060940027237,"6":0.04378918930888176,"7":0.02341875620186329,"8":-0.270568311214447,"9":-0.055637188255786896,"10":-0.1519155353307724,"11":0.05282970145344734,"12":-0.1075868159532547,"13":-0.20119859278202057,"14":-0.094262033700943,"15":-0.24594897031784058,"16":-0.22210898995399475,"17":-0.022044479846954346,"18":0.30759397149086,"19":-0.26802384853363037,"20":-0.26962870359420776,"21":0.04823564365506172,"22":-0.13391628861427307,"23":-0.030785782262682915,"24":0.12808437645435333,"25":-0.10404601693153381,"26":-0.26551568508148193,"27":-0.14252087473869324,"28":-0.3003215491771698,"29":0.10769882053136826,"30":0.0412076897919178,"31":0.010159040801227093}},"6":{"bias":-0.10126402229070663,"weights":{"0":-0.3554389178752899,"1":-0.03652443364262581,"2":0.1673116534948349,"3":-0.08479106426239014,"4":-0.1171576976776123,"5":0.1785033792257309,"6":-0.31337541341781616,"7":0.013695242814719677,"8":-0.21892893314361572,"9":-0.11123444885015488,"10":-0.21079649031162262,"11":0.014852974563837051,"12":-0.10197891294956207,"13":-0.22385038435459137,"14":0.198085755109787,"15":-0.31404802203178406,"16":0.017436306923627853,"17":-0.1350201666355133,"18":-0.3892346918582916,"19":-0.08313743025064468,"20":-0.17509643733501434,"21":-0.10079602897167206,"22":0.023891393095254898,"23":-0.05913713946938515,"24":-0.0525185652077198,"25":-0.13172079622745514,"26":-0.17475135624408722,"27":-0.12236813455820084,"28":-0.02806233800947666,"29":-0.14272095263004303,"30":0.0493805967271328,"31":-0.04929870739579201}},"7":{"bias":-0.31702715158462524,"weights":{"0":-0.4061240255832672,"1":0.4679313600063324,"2":0.38683053851127625,"3":-0.41087910532951355,"4":0.17969025671482086,"5":0.5061261057853699,"6":-0.4078640341758728,"7":0.2589862048625946,"8":0.26435592770576477,"9":-0.3104804754257202,"10":0.1973666250705719,"11":0.30000898241996765,"12":-0.46849361062049866,"13":-0.24356545507907867,"14":0.5224740505218506,"15":-0.5394225716590881,"16":0.1276395320892334,"17":-0.25785911083221436,"18":-1.059841513633728,"19":-0.7529107928276062,"20":0.18004827201366425,"21":-0.4819256365299225,"22":-0.5644633173942566,"23":-0.4159720540046692,"24":-0.36387622356414795,"25":-0.02888689562678337,"26":0.0027352324686944485,"27":-0.5787960886955261,"28":-0.27140167355537415,"29":-0.6185671091079712,"30":0.1848115622997284,"31":0.13964813947677612}},"8":{"bias":-0.10392054915428162,"weights":{"0":0.15468014776706696,"1":-0.07644297927618027,"2":-0.19407561421394348,"3":-0.0036286364775151014,"4":-0.33045899868011475,"5":-0.3113173544406891,"6":-0.08080106973648071,"7":-0.3386242091655731,"8":-0.25831595063209534,"9":-0.07690232247114182,"10":-0.11614333093166351,"11":-0.24529577791690826,"12":0.10910536348819733,"13":-0.10083868354558945,"14":-0.03773500770330429,"15":0.1276273876428604,"16":-0.31469154357910156,"17":-0.05977365002036095,"18":0.8212888836860657,"19":-0.17697523534297943,"20":-0.40646636486053467,"21":0.18293814361095428,"22":-0.15806515514850616,"23":-0.11584705859422684,"24":0.06952664256095886,"25":-0.28186362981796265,"26":-0.2690383195877075,"27":-0.17885640263557434,"28":-0.3157612085342407,"29":0.4182605743408203,"30":-0.00763850100338459,"31":-0.19377537071704865}},"9":{"bias":-0.5039889812469482,"weights":{"0":-0.026725327596068382,"1":-0.3108108937740326,"2":-0.4471011459827423,"3":0.09841722249984741,"4":-0.5634327530860901,"5":-0.33040374517440796,"6":-0.23332135379314423,"7":-0.39837443828582764,"8":-0.7828012108802795,"9":0.061070606112480164,"10":-0.4176882207393646,"11":-0.699823260307312,"12":0.4314015507698059,"13":0.10918066650629044,"14":-0.1540125161409378,"15":0.29896214604377747,"16":-0.7380107641220093,"17":0.20190051198005676,"18":1.9670922756195068,"19":-0.11534363031387329,"20":-0.6066578030586243,"21":0.17908555269241333,"22":0.04131544008851051,"23":-0.06976877152919769,"24":0.44728201627731323,"25":-0.35760319232940674,"26":-0.3186345100402832,"27":-0.16908925771713257,"28":-0.510577917098999,"29":0.42316892743110657,"30":-0.2877243459224701,"31":-0.5566331148147583}},"10":{"bias":-0.026048652827739716,"weights":{"0":-0.20451682806015015,"1":-0.04011375829577446,"2":-0.11142050474882126,"3":-0.16629505157470703,"4":-0.07684801518917084,"5":0.03761224076151848,"6":-0.00652580289170146,"7":-0.22416749596595764,"8":0.08584263175725937,"9":-0.19110341370105743,"10":-0.2348703294992447,"11":-0.0646141916513443,"12":-0.18711991608142853,"13":-0.32932016253471375,"14":-0.21202129125595093,"15":-0.26403817534446716,"16":-0.03297107294201851,"17":-0.26987385749816895,"18":-0.13500969111919403,"19":-0.04374571144580841,"20":-0.17205220460891724,"21":-0.33964216709136963,"22":0.05071522295475006,"23":0.06895920634269714,"24":-0.12017560005187988,"25":0.069638192653656,"26":-0.06746774166822433,"27":-0.29552948474884033,"28":-0.02994578704237938,"29":-0.2467319369316101,"30":0.08795405179262161,"31":-0.18445754051208496}},"11":{"bias":-0.11497307568788528,"weights":{"0":0.1482982635498047,"1":-0.2230881303548813,"2":-0.11101781576871872,"3":0.4037199020385742,"4":-0.13548633456230164,"5":-0.019624141976237297,"6":-0.13869209587574005,"7":0.0009715433698147535,"8":-0.17607799172401428,"9":0.21215485036373138,"10":-0.08096421509981155,"11":0.11924546957015991,"12":0.41884851455688477,"13":0.27627161145210266,"14":-0.3718383312225342,"15":0.05937455967068672,"16":-0.14454132318496704,"17":0.004637562669813633,"18":1.839966058731079,"19":-0.12906168401241302,"20":-0.057156916707754135,"21":-0.06490516662597656,"22":-0.28378379344940186,"23":0.14380356669425964,"24":0.78606116771698,"25":-0.016078289598226547,"26":0.08233711868524551,"27":0.009891444817185402,"28":-0.1900036334991455,"29":0.8660069108009338,"30":-0.19089767336845398,"31":0.018216080963611603}},"12":{"bias":-0.053260184824466705,"weights":{"0":-0.2671738266944885,"1":-0.19506612420082092,"2":0.11374235898256302,"3":-0.0678526982665062,"4":-0.13848374783992767,"5":-0.17745591700077057,"6":-0.3388483226299286,"7":0.14508195221424103,"8":-0.18015511333942413,"9":-0.12896616756916046,"10":0.10959816724061966,"11":-0.1567675769329071,"12":-0.07189259678125381,"13":-0.0690578818321228,"14":0.19084365665912628,"15":-0.14050105214118958,"16":0.12712375819683075,"17":-0.283593088388443,"18":-0.28467729687690735,"19":-0.11577770859003067,"20":0.15131407976150513,"21":-0.2585947513580322,"22":-0.21309538185596466,"23":-0.31285107135772705,"24":-0.15964022278785706,"25":0.134462371468544,"26":0.021378718316555023,"27":-0.36729198694229126,"28":-0.009861010126769543,"29":-0.05305620655417442,"30":0.014905312098562717,"31":-0.027609458193182945}},"13":{"bias":-0.13765555620193481,"weights":{"0":-0.5902175903320312,"1":0.12076307833194733,"2":0.03791920095682144,"3":-0.0989583432674408,"4":0.07538552582263947,"5":0.12548136711120605,"6":-0.3467092514038086,"7":0.21472375094890594,"8":0.21694329380989075,"9":-0.21156474947929382,"10":0.09263645857572556,"11":0.2607797682285309,"12":-0.31439030170440674,"13":-0.5334425568580627,"14":0.5788134336471558,"15":-0.5448952317237854,"16":0.2847449481487274,"17":-0.5455531477928162,"18":-0.6609243154525757,"19":-0.6729023456573486,"20":0.3376888930797577,"21":-0.3676677942276001,"22":-0.48200032114982605,"23":-0.2783081531524658,"24":-0.42631635069847107,"25":0.2894864082336426,"26":-0.08742190152406693,"27":-0.5173033475875854,"28":-0.18856017291545868,"29":-0.39059334993362427,"30":0.06128806620836258,"31":-0.02538389153778553}},"14":{"bias":-0.23417708277702332,"weights":{"0":-0.2913298010826111,"1":0.3147523105144501,"2":0.3011757433414459,"3":-0.1989413946866989,"4":0.08333287388086319,"5":0.2811182141304016,"6":-0.18875816464424133,"7":0.04081699997186661,"8":-0.1251256763935089,"9":-0.23569734394550323,"10":0.19037462770938873,"11":0.2544713318347931,"12":-0.23129858076572418,"13":-0.07029152661561966,"14":0.4313378632068634,"15":-0.30770808458328247,"16":-0.07598482072353363,"17":-0.15183039009571075,"18":-1.0897053480148315,"19":0.056117963045835495,"20":0.16754180192947388,"21":-0.26482856273651123,"22":-0.08957953006029129,"23":-0.2767316401004791,"24":-0.5697068572044373,"25":0.10200562328100204,"26":0.09239462018013,"27":-0.28239530324935913,"28":0.023442434147000313,"29":-0.5398041605949402,"30":0.21572262048721313,"31":0.18594437837600708}},"15":{"bias":-0.0781760960817337,"weights":{"0":0.03152821958065033,"1":-0.19915671646595,"2":-0.09621226042509079,"3":-0.24684815108776093,"4":0.15198057889938354,"5":0.11427173018455505,"6":-0.30700474977493286,"7":0.07928460091352463,"8":-0.10961873829364777,"9":-0.23378810286521912,"10":0.1451401710510254,"11":0.15253576636314392,"12":-0.20970186591148376,"13":-0.2936606705188751,"14":0.165472611784935,"15":-0.19298744201660156,"16":-0.1927432268857956,"17":-0.23443180322647095,"18":-0.14483486115932465,"19":-0.27120646834373474,"20":-0.013220390304923058,"21":-0.056452199816703796,"22":-0.1886848509311676,"23":0.042602311819791794,"24":-0.27864986658096313,"25":-0.03775759041309357,"26":-0.2174869179725647,"27":-0.29522964358329773,"28":-0.2127869427204132,"29":-0.19870327413082123,"30":-0.034891948103904724,"31":-0.021384796127676964}},"16":{"bias":-0.1917750984430313,"weights":{"0":0.1262352615594864,"1":0.027155093848705292,"2":-0.05512573942542076,"3":0.26872578263282776,"4":0.12105653434991837,"5":0.16330650448799133,"6":-0.3278908431529999,"7":-0.17808222770690918,"8":0.16064083576202393,"9":0.09614692628383636,"10":-0.12557895481586456,"11":-0.1808272749185562,"12":0.2668052315711975,"13":0.24342197179794312,"14":-0.1982397884130478,"15":0.0913921594619751,"16":-0.08935320377349854,"17":0.027936747297644615,"18":2.5705530643463135,"19":-0.17640180885791779,"20":-0.0643836259841919,"21":-0.22738192975521088,"22":-0.29763737320899963,"23":0.049347084015607834,"24":1.2662943601608276,"25":0.015399712137877941,"26":-0.08114783465862274,"27":-0.02810213901102543,"28":-0.27665138244628906,"29":1.4283052682876587,"30":-0.05400979146361351,"31":-0.049166642129421234}},"17":{"bias":-0.47653433680534363,"weights":{"0":0.4241466820240021,"1":-0.9720640182495117,"2":-1.159294843673706,"3":0.011316806077957153,"4":-0.9782790541648865,"5":-0.7399775385856628,"6":0.014173142611980438,"7":-0.9445462226867676,"8":-0.8946685194969177,"9":0.11807157099246979,"10":-0.6392650008201599,"11":-1.1871176958084106,"12":0.43020713329315186,"13":0.5813431739807129,"14":-0.7381832599639893,"15":0.6353322267532349,"16":-0.9468367099761963,"17":0.3850322663784027,"18":0.4369780421257019,"19":-0.04289888218045235,"20":-1.155365228652954,"21":0.4614202082157135,"22":0.3285906910896301,"23":0.16735638678073883,"24":0.4311918616294861,"25":-0.8572500348091125,"26":-0.5503070950508118,"27":0.1497967541217804,"28":-0.43604201078414917,"29":0.6005353927612305,"30":-0.9881299138069153,"31":-0.6976933479309082}},"18":{"bias":-0.0601782388985157,"weights":{"0":-0.1682545691728592,"1":0.11811996251344681,"2":0.14566625654697418,"3":-0.012304811738431454,"4":0.2353156954050064,"5":0.2527197301387787,"6":-0.1296808123588562,"7":0.04677379131317139,"8":0.010478046722710133,"9":0.0016134589677676558,"10":0.1936931312084198,"11":-0.10012559592723846,"12":-0.21758431196212769,"13":-0.26627838611602783,"14":0.07571900635957718,"15":-0.25582537055015564,"16":0.2214905023574829,"17":-0.05079967528581619,"18":-0.5399118661880493,"19":-0.3062916398048401,"20":0.18696555495262146,"21":-0.3235105872154236,"22":-0.17615067958831787,"23":-0.3578522801399231,"24":-0.4386275112628937,"25":-0.061514951288700104,"26":0.06067543476819992,"27":-0.30575844645500183,"28":-0.10270428657531738,"29":-0.36729928851127625,"30":-0.07547342777252197,"31":0.04422282427549362}},"19":{"bias":-0.29056668281555176,"weights":{"0":-0.2284555733203888,"1":0.19341419637203217,"2":-0.10943952947854996,"3":-0.20076140761375427,"4":-0.11213256418704987,"5":0.136671781539917,"6":-0.12288453429937363,"7":-0.04790905490517616,"8":0.12930220365524292,"9":-0.019126536324620247,"10":0.10825369507074356,"11":-0.07438275963068008,"12":-0.09653715789318085,"13":-0.3078960180282593,"14":0.24992579221725464,"15":-0.08550532907247543,"16":0.06975691020488739,"17":-0.22647912800312042,"18":-0.33019933104515076,"19":-0.2853940427303314,"20":0.18614107370376587,"21":-0.3204572796821594,"22":-0.17660833895206451,"23":-0.023636866360902786,"24":-0.007054049056023359,"25":0.1482056975364685,"26":-0.10860641300678253,"27":-0.3983180820941925,"28":-0.25050798058509827,"29":-0.3039238154888153,"30":0.016528822481632233,"31":-0.024719994515180588}},"20":{"bias":0.017944656312465668,"weights":{"0":-0.25294095277786255,"1":0.13670630753040314,"2":-0.020116904750466347,"3":-0.08132075518369675,"4":0.08205806463956833,"5":0.0848429948091507,"6":0.039693575352430344,"7":0.11411680281162262,"8":-0.015254233032464981,"9":-0.30608153343200684,"10":0.16278068721294403,"11":-0.05567336082458496,"12":-0.2836703658103943,"13":-0.24701644480228424,"14":0.13442730903625488,"15":-0.06958495825529099,"16":-0.024874933063983917,"17":0.03484703600406647,"18":-0.46179771423339844,"19":-0.3384556174278259,"20":0.030893463641405106,"21":-0.28017255663871765,"22":-0.25852087140083313,"23":-0.11053241789340973,"24":-0.2663441598415375,"25":-0.17405003309249878,"26":-0.02849818393588066,"27":-0.34018412232398987,"28":-0.02204670011997223,"29":-0.13475389778614044,"30":-0.10487950593233109,"31":-0.1448884755373001}},"21":{"bias":-0.5447154641151428,"weights":{"0":-0.7813434600830078,"1":0.5506816506385803,"2":0.5985305905342102,"3":-0.4665369391441345,"4":0.2612302899360657,"5":0.4384705424308777,"6":-0.511957585811615,"7":0.3582978844642639,"8":0.23129801452159882,"9":-0.22738642990589142,"10":-0.1040196493268013,"11":0.5527848601341248,"12":-0.6177384257316589,"13":-0.5248438119888306,"14":0.8108494877815247,"15":-0.5034283995628357,"16":0.4700561761856079,"17":-0.7223268747329712,"18":-0.9182286858558655,"19":-0.9080023765563965,"20":0.3739471137523651,"21":-0.6384992003440857,"22":-0.7680107951164246,"23":-0.6172298192977905,"24":-0.36364278197288513,"25":0.3905077278614044,"26":0.09072801470756531,"27":-0.900848388671875,"28":-0.18742379546165466,"29":-0.25669094920158386,"30":0.5389876961708069,"31":-0.0008573013474233449}},"22":{"bias":-0.19230230152606964,"weights":{"0":-0.06990135461091995,"1":-0.28098902106285095,"2":-0.2030317634344101,"3":-0.16097500920295715,"4":-0.08130244165658951,"5":-0.1759086549282074,"6":0.03271554782986641,"7":-0.2528747618198395,"8":-0.3490728437900543,"9":0.024035563692450523,"10":-0.01448202133178711,"11":-0.14264962077140808,"12":-0.13167066872119904,"13":0.1911374032497406,"14":-0.26125773787498474,"15":0.09660349786281586,"16":-0.1813502013683319,"17":-0.12470211833715439,"18":1.114489197731018,"19":-0.10050603002309799,"20":0.033334605395793915,"21":-0.13450103998184204,"22":-0.04507629573345184,"23":0.040882859379053116,"24":0.3985276222229004,"25":-0.15290549397468567,"26":-0.021977612748742104,"27":-0.14696869254112244,"28":-0.08216685056686401,"29":0.25971412658691406,"30":-0.005423117894679308,"31":-0.3649548888206482}},"23":{"bias":0.6227676272392273,"weights":{"0":0.9800347685813904,"1":-0.563766598701477,"2":-0.702121913433075,"3":0.42590031027793884,"4":-0.2907559871673584,"5":-0.8060303330421448,"6":0.36832723021507263,"7":-0.3780204951763153,"8":-0.31139880418777466,"9":0.4749874472618103,"10":-0.11367515474557877,"11":-0.5051912069320679,"12":0.5309895873069763,"13":0.8332267999649048,"14":-1.2158658504486084,"15":0.9002861380577087,"16":-0.2950195074081421,"17":0.5436309576034546,"18":1.003401756286621,"19":1.2853248119354248,"20":-0.7134459018707275,"21":0.8534088134765625,"22":0.9943987727165222,"23":0.4518232047557831,"24":0.1979738473892212,"25":-0.4329446852207184,"26":-0.009413587860763073,"27":0.7917079329490662,"28":0.055400848388671875,"29":0.35406002402305603,"30":-0.7952786087989807,"31":-0.26171383261680603}},"24":{"bias":-0.10454676300287247,"weights":{"0":-0.1965983361005783,"1":0.2431843876838684,"2":0.16935642063617706,"3":-0.010817114263772964,"4":-0.08759096264839172,"5":0.11355604231357574,"6":-0.05243725702166557,"7":0.02137746475636959,"8":0.0530468113720417,"9":0.02696232683956623,"10":0.12317202240228653,"11":0.11825287342071533,"12":-0.3510444760322571,"13":-0.32289594411849976,"14":0.14058548212051392,"15":-0.11142154783010483,"16":0.18669649958610535,"17":-0.19207800924777985,"18":-0.6744186878204346,"19":-0.1023135632276535,"20":0.07191910594701767,"21":-0.11859919875860214,"22":-0.26363658905029297,"23":-0.30191516876220703,"24":-0.33985576033592224,"25":0.12751667201519012,"26":-0.1909787803888321,"27":-0.20907175540924072,"28":0.03783894702792168,"29":-0.31685298681259155,"30":-0.07062987238168716,"31":-0.026586655527353287}},"25":{"bias":-0.4730593264102936,"weights":{"0":-0.6331899166107178,"1":0.38387373089790344,"2":0.1405135542154312,"3":-0.3743564188480377,"4":0.34572139382362366,"5":0.546988844871521,"6":-0.49087387323379517,"7":0.2955814003944397,"8":0.16022850573062897,"9":-0.3432007133960724,"10":-0.04718222841620445,"11":0.42076054215431213,"12":-0.4507915675640106,"13":-0.5738164782524109,"14":0.6545056700706482,"15":-0.555229902267456,"16":0.3133079409599304,"17":-0.48514989018440247,"18":-1.037548542022705,"19":-0.6391243934631348,"20":0.3525829613208771,"21":-0.6563335061073303,"22":-0.7073860168457031,"23":-0.31136277318000793,"24":-0.38824814558029175,"25":0.3343879282474518,"26":0.014290760271251202,"27":-0.6420788764953613,"28":-0.17741262912750244,"29":-0.3498600125312805,"30":0.24955396354198456,"31":0.11751287430524826}},"26":{"bias":-0.058719851076602936,"weights":{"0":-0.24848732352256775,"1":0.02267410233616829,"2":-0.02726055681705475,"3":-0.05919115990400314,"4":0.11727173626422882,"5":0.16899579763412476,"6":-0.1360214352607727,"7":0.0466020405292511,"8":-0.15810848772525787,"9":-0.32033488154411316,"10":-0.09796462953090668,"11":0.18868662416934967,"12":-0.18762187659740448,"13":-0.3673018515110016,"14":0.12361934036016464,"15":-0.0641850009560585,"16":0.008044282905757427,"17":-0.08738607168197632,"18":-0.5019959807395935,"19":-0.17999042570590973,"20":0.14931803941726685,"21":-0.19524918496608734,"22":-0.046806689351797104,"23":-0.15998739004135132,"24":-0.09111132472753525,"25":0.10794661939144135,"26":-0.27953532338142395,"27":-0.20305806398391724,"28":-0.25132977962493896,"29":-0.11846404522657394,"30":-0.04466153681278229,"31":-0.0825992003083229}},"27":{"bias":-0.06859126687049866,"weights":{"0":-0.15887001156806946,"1":0.03195507079362869,"2":-0.05506925657391548,"3":0.06071288138628006,"4":-0.14423933625221252,"5":0.04670426622033119,"6":-0.21256786584854126,"7":-0.1069071888923645,"8":-0.19061070680618286,"9":-0.018950559198856354,"10":-0.20533378422260284,"11":-0.15571177005767822,"12":0.020083129405975342,"13":-0.12222136557102203,"14":-0.010509497486054897,"15":-0.2728540897369385,"16":-0.22542448341846466,"17":-0.30238011479377747,"18":0.1720980405807495,"19":-0.2701182961463928,"20":0.042400654405355453,"21":0.029439713805913925,"22":-0.3344661593437195,"23":0.013581208884716034,"24":-0.13268062472343445,"25":-0.07718117535114288,"26":0.04831283167004585,"27":-0.10894310474395752,"28":-0.3007545471191406,"29":-0.2911794185638428,"30":-0.06866442412137985,"31":0.06934132426977158}},"28":{"bias":-0.38021960854530334,"weights":{"0":0.16559407114982605,"1":-0.447884202003479,"2":-0.40088915824890137,"3":-0.12175823003053665,"4":-0.5501405000686646,"5":-0.4937276244163513,"6":-0.06189865618944168,"7":-0.35755500197410583,"8":-0.529032289981842,"9":-0.0017555273370817304,"10":-0.5155721306800842,"11":-0.44774311780929565,"12":0.39641273021698,"13":0.15660707652568817,"14":-0.19748318195343018,"15":0.11933596432209015,"16":-0.3967185914516449,"17":-0.02226475439965725,"18":1.8174009323120117,"19":-0.06290007382631302,"20":-0.4404131770133972,"21":-0.07119610905647278,"22":-0.2089393585920334,"23":0.0016124689718708396,"24":0.47151198983192444,"25":-0.712853729724884,"26":-0.42905429005622864,"27":0.07989013940095901,"28":-0.3931322991847992,"29":0.40063610672950745,"30":-0.6114687919616699,"31":-0.6437134742736816}},"29":{"bias":-0.11797013878822327,"weights":{"0":-0.2933063209056854,"1":0.061825819313526154,"2":0.20982567965984344,"3":-0.3273911774158478,"4":0.21097661554813385,"5":0.1465907245874405,"6":-0.17470864951610565,"7":0.12582209706306458,"8":0.18394741415977478,"9":-0.18494050204753876,"10":0.12303507328033447,"11":0.3121030032634735,"12":-0.14587974548339844,"13":-0.45389673113822937,"14":0.31720149517059326,"15":-0.1959811896085739,"16":0.16500961780548096,"17":-0.33375880122184753,"18":-1.1289258003234863,"19":-0.4278365671634674,"20":0.20849257707595825,"21":-0.39186081290245056,"22":-0.34198299050331116,"23":-0.2960495948791504,"24":-0.4880458414554596,"25":0.04579085111618042,"26":0.009982244111597538,"27":-0.41044819355010986,"28":-0.09194022417068481,"29":-0.6379469633102417,"30":0.28750595450401306,"31":0.19200348854064941}},"30":{"bias":0.11406049132347107,"weights":{"0":-0.16805966198444366,"1":0.32232150435447693,"2":-0.043545350432395935,"3":0.09092003852128983,"4":0.2643941044807434,"5":-0.04927359148859978,"6":0.0756455659866333,"7":-0.017902225255966187,"8":0.23265232145786285,"9":0.1616603136062622,"10":-0.04913214594125748,"11":0.3594024181365967,"12":-0.3151240944862366,"13":-0.30926987528800964,"14":0.19143392145633698,"15":-0.26889315247535706,"16":0.13386766612529755,"17":0.10479085147380829,"18":-1.128466010093689,"19":0.21200603246688843,"20":0.11892619729042053,"21":-0.2286815047264099,"22":-0.029118482023477554,"23":-0.1323614865541458,"24":-0.5914298295974731,"25":-0.0781673863530159,"26":-0.020012550055980682,"27":0.08831743150949478,"28":-0.05636931583285332,"29":-0.6233505010604858,"30":0.15191860496997833,"31":0.22101835906505585}},"31":{"bias":-0.09454376250505447,"weights":{"0":-0.258818656206131,"1":0.034722279757261276,"2":0.10189507156610489,"3":-0.1347144991159439,"4":0.08639126271009445,"5":0.1093076691031456,"6":-0.22042715549468994,"7":0.11930405348539352,"8":0.04341097176074982,"9":-0.29862871766090393,"10":0.12953348457813263,"11":0.07080565392971039,"12":-0.3631405234336853,"13":-0.04630575701594353,"14":-0.012947335839271545,"15":-0.06095143035054207,"16":-0.14886419475078583,"17":-0.16948845982551575,"18":-0.39298829436302185,"19":-0.2199735939502716,"20":0.1718616932630539,"21":-0.2109299749135971,"22":-0.23802010715007782,"23":-0.009722696617245674,"24":-0.2455574870109558,"25":0.16980524361133575,"26":-0.22527126967906952,"27":-0.20776936411857605,"28":0.057142507284879684,"29":-0.3796636760234833,"30":-0.04098688066005707,"31":0.052306465804576874}}},{"0":{"bias":-0.4348180294036865,"weights":{"0":-0.11159644275903702,"1":0.026949621737003326,"2":-0.2650400996208191,"3":0.21308238804340363,"4":0.2635936141014099,"5":0.12653031945228577,"6":-0.04626761004328728,"7":0.2036307156085968,"8":-0.29245230555534363,"9":-0.29988935589790344,"10":-0.12055432051420212,"11":-0.4680309593677521,"12":-0.027130428701639175,"13":0.30076515674591064,"14":0.05720646306872368,"15":0.1906832456588745,"16":-0.4063059389591217,"17":-0.5194242000579834,"18":-0.08685293048620224,"19":0.03375156596302986,"20":-0.09250759333372116,"21":0.2965894043445587,"22":-0.27657628059387207,"23":-0.5565793514251709,"24":-0.05678507685661316,"25":0.2904704213142395,"26":-0.11787115037441254,"27":-0.18360866606235504,"28":-0.5093960165977478,"29":0.3436133861541748,"30":0.3639698922634125,"31":0.17210182547569275}},"1":{"bias":-0.2684148848056793,"weights":{"0":0.11716268211603165,"1":0.1943369209766388,"2":-0.44951796531677246,"3":0.6018760800361633,"4":-0.010921655222773552,"5":-0.18747711181640625,"6":0.16649989783763885,"7":0.2794744372367859,"8":-0.27866894006729126,"9":-0.2655276954174042,"10":0.04410075023770332,"11":-0.6314476728439331,"12":0.01646411046385765,"13":0.35210564732551575,"14":0.32960963249206543,"15":0.15490107238292694,"16":-0.8722671866416931,"17":-0.5000734329223633,"18":0.2601650655269623,"19":0.18665456771850586,"20":-0.05261849984526634,"21":0.36718836426734924,"22":-0.29934388399124146,"23":-0.618476390838623,"24":0.24774909019470215,"25":0.32788729667663574,"26":-0.1506022810935974,"27":-0.01920788362622261,"28":-0.37886008620262146,"29":0.09625528752803802,"30":0.21125614643096924,"31":0.12527795135974884}},"2":{"bias":-0.4994184970855713,"weights":{"0":-0.046228401362895966,"1":0.0146095659583807,"2":-0.38909444212913513,"3":0.05886368453502655,"4":-0.040272776037454605,"5":0.05065222457051277,"6":-0.07435134053230286,"7":-0.06739974766969681,"8":-0.1568613052368164,"9":-0.22128310799598694,"10":0.17142754793167114,"11":-0.4815593361854553,"12":0.18017713725566864,"13":0.09586125612258911,"14":0.04853207990527153,"15":0.07490982860326767,"16":-0.3978043794631958,"17":-0.5405285358428955,"18":0.14531303942203522,"19":0.14028781652450562,"20":0.1767655462026596,"21":0.1957966834306717,"22":-0.22595779597759247,"23":-0.44267845153808594,"24":-0.031549014151096344,"25":0.29634615778923035,"26":0.04475720226764679,"27":-0.12611007690429688,"28":-0.49723684787750244,"29":0.29815149307250977,"30":0.040918610990047455,"31":-0.019108397886157036}},"3":{"bias":-0.20942553877830505,"weights":{"0":0.10444850474596024,"1":0.0035060846712440252,"2":-0.5524128079414368,"3":0.37738534808158875,"4":0.03375754505395889,"5":-0.03821529820561409,"6":0.18743734061717987,"7":0.4125966727733612,"8":-0.30600643157958984,"9":-0.3421582877635956,"10":0.1395995169878006,"11":-0.6042995452880859,"12":-0.10959798842668533,"13":0.017433298751711845,"14":0.369014173746109,"15":-0.11221615225076675,"16":-0.6697997450828552,"17":-0.27191394567489624,"18":0.14882859587669373,"19":-0.09907984733581543,"20":0.1298513561487198,"21":0.2716514766216278,"22":-0.2309819608926773,"23":-0.6041804552078247,"24":0.12764263153076172,"25":0.3693155348300934,"26":0.06822273135185242,"27":0.15026292204856873,"28":-0.32426828145980835,"29":0.26403939723968506,"30":0.09765231609344482,"31":0.12566109001636505}},"4":{"bias":-0.19264797866344452,"weights":{"0":0.20375098288059235,"1":0.31197527050971985,"2":-0.30129197239875793,"3":0.47950226068496704,"4":0.046694159507751465,"5":-0.11835010349750519,"6":-0.0009149041725322604,"7":0.15947440266609192,"8":-0.05193216726183891,"9":-0.497820109128952,"10":-0.00657404400408268,"11":-0.48199766874313354,"12":0.22470912337303162,"13":0.29613396525382996,"14":0.32830527424812317,"15":-0.05926578491926193,"16":-0.8176690936088562,"17":-0.5251153111457825,"18":-0.0716608464717865,"19":0.11816113442182541,"20":-0.010472068563103676,"21":0.49593934416770935,"22":-0.0031273295171558857,"23":-0.7802572846412659,"24":0.15216293931007385,"25":0.0977369099855423,"26":0.08343786746263504,"27":-0.08686073124408722,"28":-0.3639490306377411,"29":0.14224830269813538,"30":0.20602566003799438,"31":0.14035876095294952}},"5":{"bias":-0.36767229437828064,"weights":{"0":-0.04628318175673485,"1":-0.041505198925733566,"2":-0.5684050917625427,"3":0.2523396909236908,"4":0.2444029003381729,"5":-0.08208861202001572,"6":0.049385763704776764,"7":0.36576518416404724,"8":-0.07690493017435074,"9":-0.3617118299007416,"10":0.04113958030939102,"11":-0.3789677321910858,"12":0.13079817593097687,"13":0.10086774080991745,"14":0.09384335577487946,"15":-0.14302729070186615,"16":-0.47875240445137024,"17":-0.5043054819107056,"18":0.2948094606399536,"19":0.0965283140540123,"20":0.17531682550907135,"21":0.11703462153673172,"22":-0.32503512501716614,"23":-0.6261600852012634,"24":0.25946640968322754,"25":0.09438978135585785,"26":0.007995679043233395,"27":0.08497370034456253,"28":-0.24590717256069183,"29":0.33186402916908264,"30":0.11535629630088806,"31":-0.04343254491686821}},"6":{"bias":-0.2696302533149719,"weights":{"0":0.2918945252895355,"1":0.342483788728714,"2":-0.5345460176467896,"3":0.4007454514503479,"4":0.013009550981223583,"5":-0.07603630423545837,"6":0.03836211934685707,"7":0.3526952564716339,"8":-0.17760130763053894,"9":-0.35223376750946045,"10":0.08500606566667557,"11":-0.5708214640617371,"12":0.18730755150318146,"13":0.2271520495414734,"14":0.290398508310318,"15":0.009673915803432465,"16":-0.5250126719474792,"17":-0.42522966861724854,"18":0.03145693987607956,"19":0.056738633662462234,"20":0.2899535894393921,"21":0.3570481240749359,"22":-0.3121801018714905,"23":-0.660942554473877,"24":-0.06264272332191467,"25":0.1047782301902771,"26":-0.0982699915766716,"27":0.08267972618341446,"28":-0.39007362723350525,"29":0.2058943659067154,"30":0.10565468668937683,"31":0.074877068400383}},"7":{"bias":-0.3030950129032135,"weights":{"0":0.1635618954896927,"1":0.08792392909526825,"2":-0.5426040291786194,"3":0.4675803482532501,"4":0.06827909499406815,"5":-0.24826747179031372,"6":0.0772605612874031,"7":0.2477511465549469,"8":-0.02117554284632206,"9":-0.2677960991859436,"10":-0.1621265411376953,"11":-0.7551318407058716,"12":0.0117546571418643,"13":0.23422007262706757,"14":0.2835630178451538,"15":0.08598370850086212,"16":-0.704879105091095,"17":-0.3176879286766052,"18":0.2539060413837433,"19":-0.024423470720648766,"20":0.15878267586231232,"21":0.27392202615737915,"22":-0.16674770414829254,"23":-0.9058941006660461,"24":0.20521771907806396,"25":0.48349061608314514,"26":0.06456205248832703,"27":-0.04224627837538719,"28":-0.41863423585891724,"29":0.41531214118003845,"30":0.3971233665943146,"31":0.023650743067264557}},"8":{"bias":-0.2139032483100891,"weights":{"0":0.019312677904963493,"1":-0.028285950422286987,"2":-0.6595882177352905,"3":0.2973427176475525,"4":0.2869797348976135,"5":-0.19265007972717285,"6":0.030642271041870117,"7":0.31147125363349915,"8":0.019762622192502022,"9":-0.2800460159778595,"10":0.09363548457622528,"11":-0.5493472218513489,"12":0.23404748737812042,"13":-0.010100366547703743,"14":0.13516490161418915,"15":-0.061163946986198425,"16":-0.679451584815979,"17":-0.35777249932289124,"18":0.23342616856098175,"19":0.15682710707187653,"20":-0.04473431035876274,"21":0.3575471043586731,"22":-0.31483760476112366,"23":-0.4501098096370697,"24":0.06298347562551498,"25":0.2969016432762146,"26":-0.1002885177731514,"27":-0.17053474485874176,"28":-0.3072226047515869,"29":0.005591153167188168,"30":0.2107631266117096,"31":0.1510016769170761}},"9":{"bias":-0.2420302778482437,"weights":{"0":0.09839493036270142,"1":-0.03772379830479622,"2":-0.43028348684310913,"3":0.3882063925266266,"4":0.17716084420681,"5":-0.15750613808631897,"6":0.1860843151807785,"7":0.425166517496109,"8":-0.1066044494509697,"9":-0.32606956362724304,"10":0.007513222750276327,"11":-0.7522366642951965,"12":-0.01474736724048853,"13":0.24095775187015533,"14":0.2880507707595825,"15":0.1626773476600647,"16":-0.6079553961753845,"17":-0.6380509734153748,"18":0.24212469160556793,"19":-0.05895480886101723,"20":-0.044250305742025375,"21":0.5378917455673218,"22":-0.10217771679162979,"23":-0.7965593338012695,"24":0.06536023318767548,"25":0.4200313985347748,"26":0.1538390815258026,"27":0.02428182028234005,"28":-0.3044615685939789,"29":0.12983451783657074,"30":0.16792307794094086,"31":-0.033692263066768646}},"10":{"bias":-0.42081430554389954,"weights":{"0":-0.05832793936133385,"1":0.08490630239248276,"2":-0.4891076683998108,"3":0.36362171173095703,"4":0.0656745657324791,"5":-0.050893403589725494,"6":-0.08723633736371994,"7":0.04006284847855568,"8":-0.13707076013088226,"9":-0.22162052989006042,"10":0.2078414112329483,"11":-0.4839216470718384,"12":-0.08298570662736893,"13":-0.03004438616335392,"14":0.16209359467029572,"15":0.11246991902589798,"16":-0.4750126302242279,"17":-0.649736762046814,"18":0.15131449699401855,"19":0.23693624138832092,"20":-0.027638601139187813,"21":0.1578829139471054,"22":-0.05253799632191658,"23":-0.4785422384738922,"24":0.2977074384689331,"25":0.31200864911079407,"26":0.06690476834774017,"27":-0.19756896793842316,"28":-0.3836672008037567,"29":0.07913470268249512,"30":0.06973039358854294,"31":0.17988388240337372}},"11":{"bias":-0.42059770226478577,"weights":{"0":0.22995765507221222,"1":0.010400279425084591,"2":-0.31341153383255005,"3":0.2624662518501282,"4":0.08731038123369217,"5":-0.07306370139122009,"6":0.03275439888238907,"7":0.06296215206384659,"8":-0.04605935141444206,"9":-0.42599016427993774,"10":-0.0026400787755846977,"11":-0.5381219387054443,"12":0.1479571908712387,"13":-0.06945960968732834,"14":0.01750512234866619,"15":-0.10386887937784195,"16":-0.5647186636924744,"17":-0.40879759192466736,"18":-0.06769856065511703,"19":-0.10910266637802124,"20":-0.1065366268157959,"21":0.13567885756492615,"22":-0.3710497319698334,"23":-0.2851049602031708,"24":0.0344366617500782,"25":0.08304474502801895,"26":-0.04449314624071121,"27":-0.12985293567180634,"28":-0.25861042737960815,"29":0.23278535902500153,"30":0.04520845785737038,"31":0.004403459839522839}},"12":{"bias":-0.4987529218196869,"weights":{"0":0.03297235816717148,"1":-0.24487286806106567,"2":-0.32500895857810974,"3":-0.14086171984672546,"4":-0.2127646803855896,"5":-0.032780297100543976,"6":-0.1465153694152832,"7":-0.17534762620925903,"8":-0.1048542931675911,"9":-0.30568262934684753,"10":-0.09078100323677063,"11":-0.2765294909477234,"12":-0.2663302421569824,"13":-0.046769797801971436,"14":-0.21111242473125458,"15":-0.04746319726109505,"16":-0.5020922422409058,"17":-0.32522496581077576,"18":-0.1473759412765503,"19":-0.2458115518093109,"20":-0.21915626525878906,"21":0.0687330961227417,"22":-0.33151713013648987,"23":-0.1502462476491928,"24":-0.140702486038208,"25":-0.008303618058562279,"26":-0.11717555671930313,"27":-0.23226603865623474,"28":-0.3141167461872101,"29":-0.16378775238990784,"30":0.09406772255897522,"31":-0.13130731880664825}},"13":{"bias":-0.36952152848243713,"weights":{"0":-0.014791217632591724,"1":-0.1492522656917572,"2":-0.2424953281879425,"3":-0.03669014200568199,"4":-0.027928447350859642,"5":-0.10746484994888306,"6":-0.29465603828430176,"7":-0.08313124626874924,"8":-0.15848222374916077,"9":-0.15267781913280487,"10":0.029399478808045387,"11":-0.25982144474983215,"12":-0.28414565324783325,"13":-0.17679791152477264,"14":-0.27522537112236023,"15":-0.0898289605975151,"16":-0.3168974816799164,"17":-0.44946053624153137,"18":-0.312128484249115,"19":-0.2921774685382843,"20":-0.11086267232894897,"21":-0.23328091204166412,"22":-0.30122432112693787,"23":-0.37351498007774353,"24":-0.2552392780780792,"25":-0.07265427708625793,"26":-0.32884207367897034,"27":-0.15395011007785797,"28":-0.5063835382461548,"29":-0.10324256867170334,"30":-0.30118364095687866,"31":0.037445321679115295}},"14":{"bias":-0.29519200325012207,"weights":{"0":0.17523247003555298,"1":0.005385380703955889,"2":-0.2582617402076721,"3":0.6038461327552795,"4":0.11447759717702866,"5":-0.20703238248825073,"6":-0.14877252280712128,"7":0.2726856768131256,"8":0.005103775765746832,"9":-0.37478509545326233,"10":0.02946675941348076,"11":-0.6125411987304688,"12":0.19149531424045563,"13":0.18587595224380493,"14":0.3452090322971344,"15":0.11335135251283646,"16":-0.7473793029785156,"17":-0.5320647358894348,"18":0.250204473733902,"19":0.22196735441684723,"20":0.15174971520900726,"21":0.37949472665786743,"22":-0.035267431288957596,"23":-0.8662101030349731,"24":0.24378398060798645,"25":0.09855570644140244,"26":0.05980188027024269,"27":-0.014721779152750969,"28":-0.4843408763408661,"29":0.10284265875816345,"30":0.21337509155273438,"31":0.19930897653102875}},"15":{"bias":-0.47781839966773987,"weights":{"0":0.12369894981384277,"1":0.20762178301811218,"2":-0.33766674995422363,"3":0.3802788257598877,"4":0.2413463592529297,"5":0.01609295792877674,"6":0.12692029774188995,"7":0.1587330549955368,"8":-0.21449528634548187,"9":-0.48980095982551575,"10":0.06514104455709457,"11":-0.3923013210296631,"12":-0.08261414617300034,"13":0.247982919216156,"14":0.13298220932483673,"15":0.10732486844062805,"16":-0.36565762758255005,"17":-0.6471828818321228,"18":0.24180056154727936,"19":0.1712087243795395,"20":-0.012631823308765888,"21":0.23065611720085144,"22":-0.09774787724018097,"23":-0.6758713126182556,"24":0.22176261246204376,"25":0.36435744166374207,"26":-0.052186597138643265,"27":-0.04169511795043945,"28":-0.4150426387786865,"29":0.0004399726167321205,"30":0.010724807158112526,"31":0.1518149971961975}},"16":{"bias":-0.47592446208000183,"weights":{"0":0.1945619434118271,"1":0.16592572629451752,"2":-0.34097611904144287,"3":0.5126712322235107,"4":0.16079838573932648,"5":-0.273322731256485,"6":-0.11021628230810165,"7":0.44704368710517883,"8":-0.2952258586883545,"9":-0.3726448714733124,"10":-0.05092368647456169,"11":-0.6594362258911133,"12":-0.03874777629971504,"13":0.38506320118904114,"14":0.10550772398710251,"15":0.06631206721067429,"16":-0.5642095804214478,"17":-0.6030581593513489,"18":0.11068946868181229,"19":0.041720885783433914,"20":0.18147163093090057,"21":0.44368693232536316,"22":-0.06317731738090515,"23":-1.0192139148712158,"24":-0.012975514866411686,"25":0.558914065361023,"26":0.20021505653858185,"27":0.05616258829832077,"28":-0.2763529121875763,"29":0.47423455119132996,"30":0.18374678492546082,"31":-0.05829586833715439}},"17":{"bias":-0.4115462005138397,"weights":{"0":0.14672373235225677,"1":0.17349766194820404,"2":-0.3661864697933197,"3":0.377379447221756,"4":0.04893498495221138,"5":-0.13115954399108887,"6":-0.0598926916718483,"7":0.11209125816822052,"8":-0.06346551328897476,"9":-0.568881094455719,"10":-0.11989059299230576,"11":-0.4129866361618042,"12":-0.06799179315567017,"13":0.23886585235595703,"14":0.3532198369503021,"15":-0.021135808899998665,"16":-0.5677411556243896,"17":-0.4850490987300873,"18":0.015503131784498692,"19":-0.12753723561763763,"20":0.22457033395767212,"21":0.21593144536018372,"22":-0.021701782941818237,"23":-0.7377119660377502,"24":0.28930097818374634,"25":0.40351638197898865,"26":0.0179099403321743,"27":-0.16533170640468597,"28":-0.1728609949350357,"29":0.3580050766468048,"30":0.32854989171028137,"31":0.039805684238672256}},"18":{"bias":-0.34861892461776733,"weights":{"0":-0.07239073514938354,"1":0.22089290618896484,"2":-0.5408594608306885,"3":0.37550756335258484,"4":0.24310393631458282,"5":-0.18665048480033875,"6":0.07534310221672058,"7":0.25448063015937805,"8":-0.22040267288684845,"9":-0.46486225724220276,"10":0.008468148298561573,"11":-0.3780289888381958,"12":0.25520777702331543,"13":0.23221324384212494,"14":0.3295747637748718,"15":-0.09395530819892883,"16":-0.594916045665741,"17":-0.5642827153205872,"18":0.07563537359237671,"19":-0.009475362487137318,"20":0.3108069896697998,"21":0.5062543749809265,"22":-0.15017999708652496,"23":-0.6555671095848083,"24":-0.013024121522903442,"25":0.3851985037326813,"26":-0.06666187196969986,"27":-0.060243118554353714,"28":-0.231211319565773,"29":0.09767623245716095,"30":0.38951924443244934,"31":0.02776888571679592}},"19":{"bias":-0.23326142132282257,"weights":{"0":0.19914908707141876,"1":-0.028700819239020348,"2":-0.38782578706741333,"3":0.705312967300415,"4":0.15352962911128998,"5":0.02258470095694065,"6":0.17968565225601196,"7":0.2869672477245331,"8":-0.056492846459150314,"9":-0.4788995087146759,"10":0.16258303821086884,"11":-0.780789315700531,"12":-0.02852807752788067,"13":0.2923045754432678,"14":0.397063672542572,"15":0.10915439575910568,"16":-0.7318389415740967,"17":-0.562606155872345,"18":0.06450814753770828,"19":-0.047020915895700455,"20":0.10466643422842026,"21":0.5297858715057373,"22":-0.19975310564041138,"23":-0.9681589603424072,"24":0.05652095749974251,"25":0.18608851730823517,"26":0.16923768818378448,"27":-0.0029840506613254547,"28":-0.3406594395637512,"29":0.32287538051605225,"30":0.28476208448410034,"31":-0.0022256660740822554}},"20":{"bias":-0.2711663544178009,"weights":{"0":0.26188966631889343,"1":0.23711860179901123,"2":-0.5847916007041931,"3":0.6738993525505066,"4":0.23282848298549652,"5":-0.1144871637225151,"6":0.08571162074804306,"7":0.3256567418575287,"8":-0.2247302234172821,"9":-0.28809037804603577,"10":-0.030175209045410156,"11":-0.6377254724502563,"12":0.16000507771968842,"13":0.0753643661737442,"14":0.1495266705751419,"15":-0.0430280975997448,"16":-0.7824122905731201,"17":-0.46856382489204407,"18":-0.08762611448764801,"19":0.1255437731742859,"20":0.19311653077602386,"21":0.40462827682495117,"22":-0.15653133392333984,"23":-0.8648927807807922,"24":0.20316457748413086,"25":0.5610511302947998,"26":0.16835933923721313,"27":-0.06946281343698502,"28":-0.34208768606185913,"29":0.36825641989707947,"30":0.15055960416793823,"31":-0.0948849618434906}},"21":{"bias":-0.30906543135643005,"weights":{"0":-0.02006366290152073,"1":0.2516891062259674,"2":-0.6058667898178101,"3":0.6484194993972778,"4":0.13821154832839966,"5":-0.1867600977420807,"6":0.09500641375780106,"7":0.43772104382514954,"8":-0.15694236755371094,"9":-0.33082127571105957,"10":0.048608411103487015,"11":-0.68572998046875,"12":-0.032500263303518295,"13":0.2595160901546478,"14":0.15303288400173187,"15":-0.13835409283638,"16":-0.6572374701499939,"17":-0.5499033331871033,"18":-0.05016084015369415,"19":0.021173132583498955,"20":0.16394825279712677,"21":0.6711127161979675,"22":-0.021067311987280846,"23":-1.0340685844421387,"24":-0.03280296176671982,"25":0.5630024671554565,"26":0.20156720280647278,"27":0.08609626442193985,"28":-0.4086951017379761,"29":0.18454022705554962,"30":0.4005827009677887,"31":0.11034243553876877}},"22":{"bias":-0.3907283842563629,"weights":{"0":-0.015507202595472336,"1":0.3220321238040924,"2":-0.37198206782341003,"3":0.214480921626091,"4":0.29859235882759094,"5":-0.0874796137213707,"6":0.24154990911483765,"7":0.23039811849594116,"8":0.03362453356385231,"9":-0.5679223537445068,"10":-0.11066175997257233,"11":-0.5619242191314697,"12":0.09854072332382202,"13":0.05183970555663109,"14":0.27757835388183594,"15":0.22477832436561584,"16":-0.5109630227088928,"17":-0.6018268465995789,"18":0.17775462567806244,"19":0.19068169593811035,"20":-0.060236018151044846,"21":0.12200836092233658,"22":-0.04446732625365257,"23":-0.3081679344177246,"24":0.2069145292043686,"25":0.2751302123069763,"26":0.23572246730327606,"27":-0.07559346407651901,"28":-0.514476478099823,"29":0.16867898404598236,"30":0.25259166955947876,"31":0.20386706292629242}},"23":{"bias":-0.23386986553668976,"weights":{"0":0.12924516201019287,"1":0.24586831033229828,"2":-0.6363769769668579,"3":-0.08172863721847534,"4":0.2374538630247116,"5":0.034770507365465164,"6":-0.1061345711350441,"7":0.22828513383865356,"8":-0.10445304214954376,"9":-0.6122967600822449,"10":0.1159006804227829,"11":-0.44282323122024536,"12":-0.11141717433929443,"13":0.047700922936201096,"14":0.16408111155033112,"15":0.04839088022708893,"16":-0.4503534436225891,"17":-0.35788580775260925,"18":0.12060597538948059,"19":-0.143156498670578,"20":0.1880102902650833,"21":-0.1230190247297287,"22":-0.20011936128139496,"23":-0.21292024850845337,"24":0.07250555604696274,"25":0.07877205312252045,"26":0.1415095329284668,"27":0.1071476861834526,"28":-0.5638551712036133,"29":0.08277950435876846,"30":0.19797281920909882,"31":0.10740705579519272}},"24":{"bias":-0.21102064847946167,"weights":{"0":0.1173228845000267,"1":-0.059675879776477814,"2":-0.38073235750198364,"3":-0.1295134723186493,"4":-0.10601168870925903,"5":-0.10745783150196075,"6":0.15143737196922302,"7":0.16584274172782898,"8":-0.25155743956565857,"9":-0.3535487651824951,"10":-0.08667811751365662,"11":-0.42227184772491455,"12":0.06725306063890457,"13":-0.15806537866592407,"14":0.19607403874397278,"15":0.1599176675081253,"16":-0.6245006322860718,"17":-0.38239938020706177,"18":0.16718211770057678,"19":0.023558054119348526,"20":-0.1287342607975006,"21":-0.0640183538198471,"22":-0.3800254464149475,"23":-0.4003881514072418,"24":0.10390513390302658,"25":0.0642000213265419,"26":-0.13919797539710999,"27":-0.21155866980552673,"28":-0.25632497668266296,"29":-0.1304650604724884,"30":0.16489696502685547,"31":-0.0345243476331234}},"25":{"bias":-0.4095055162906647,"weights":{"0":0.0036520534195005894,"1":-0.04160964861512184,"2":-0.5213927030563354,"3":-0.05305277183651924,"4":0.20692014694213867,"5":0.0640997663140297,"6":-0.16545610129833221,"7":0.0626273974776268,"8":-0.025825653225183487,"9":-0.28123095631599426,"10":0.17546667158603668,"11":-0.33154571056365967,"12":0.1546560376882553,"13":-0.06854940205812454,"14":0.14447788894176483,"15":-0.005882158875465393,"16":-0.6794784069061279,"17":-0.5072658061981201,"18":-0.032775554805994034,"19":0.1475643813610077,"20":0.07426514476537704,"21":0.10082434862852097,"22":-0.21724338829517365,"23":-0.3534011244773865,"24":-0.021614819765090942,"25":-0.0580095611512661,"26":0.06265220791101456,"27":-0.014636529609560966,"28":-0.2661029100418091,"29":0.16603058576583862,"30":0.14483410120010376,"31":-0.09370234608650208}},"26":{"bias":-0.28566494584083557,"weights":{"0":0.2399570196866989,"1":0.1922292858362198,"2":-0.43966197967529297,"3":0.3180805444717407,"4":-0.01545920129865408,"5":0.14676028490066528,"6":-0.0210743248462677,"7":0.22482502460479736,"8":-0.30670052766799927,"9":-0.2772041857242584,"10":0.10838477313518524,"11":-0.4890459477901459,"12":0.24604131281375885,"13":0.2736224830150604,"14":0.05320759490132332,"15":-0.055516112595796585,"16":-0.5764448046684265,"17":-0.3769725561141968,"18":0.15431572496891022,"19":0.21039682626724243,"20":0.0223227571696043,"21":0.4130016267299652,"22":-0.21035324037075043,"23":-0.8028037548065186,"24":0.19409728050231934,"25":0.1463540494441986,"26":0.1825735718011856,"27":-0.20783908665180206,"28":-0.516097903251648,"29":0.3068113625049591,"30":0.10972245037555695,"31":0.1695287674665451}},"27":{"bias":-0.525029718875885,"weights":{"0":0.029311716556549072,"1":0.06671261787414551,"2":-0.5160483121871948,"3":0.6268360018730164,"4":0.10817945748567581,"5":-0.03633039444684982,"6":0.05684219300746918,"7":0.4957176446914673,"8":-0.28239166736602783,"9":-0.4594159424304962,"10":0.03831222280859947,"11":-0.6207321286201477,"12":0.024043364450335503,"13":0.02802206203341484,"14":0.34658509492874146,"15":0.0034762932918965816,"16":-0.7768628597259521,"17":-0.3109157979488373,"18":0.05095125362277031,"19":0.10317657887935638,"20":0.15425722301006317,"21":0.575829803943634,"22":-0.3302413821220398,"23":-0.6299974322319031,"24":0.2366485893726349,"25":0.2995093762874603,"26":0.13695308566093445,"27":0.12138819694519043,"28":-0.094465471804142,"29":0.3263344466686249,"30":0.36243581771850586,"31":-0.023824403062462807}},"28":{"bias":-0.2626795172691345,"weights":{"0":0.14218996465206146,"1":0.10224272310733795,"2":-0.508004903793335,"3":0.33059200644493103,"4":0.12303996831178665,"5":0.08363893628120422,"6":0.21518740057945251,"7":0.10198288410902023,"8":-0.1315772831439972,"9":-0.45061153173446655,"10":0.1643797755241394,"11":-0.5131826400756836,"12":-0.09434261918067932,"13":0.20343630015850067,"14":0.02683207206428051,"15":-0.14170168340206146,"16":-0.48932158946990967,"17":-0.5394238233566284,"18":0.05192268639802933,"19":-0.0069085294380784035,"20":0.0016640903195366263,"21":0.026673998683691025,"22":-0.10193181782960892,"23":-0.5037170648574829,"24":0.20014062523841858,"25":-0.058857690542936325,"26":0.23976056277751923,"27":0.052980996668338776,"28":-0.41878679394721985,"29":0.31356850266456604,"30":0.2594577372074127,"31":0.21036489307880402}},"29":{"bias":-0.34684088826179504,"weights":{"0":-0.03820376470685005,"1":0.30149152874946594,"2":-0.5529995560646057,"3":0.3768976330757141,"4":0.04186625778675079,"5":0.13589422404766083,"6":0.09477759897708893,"7":0.24395817518234253,"8":-0.13522669672966003,"9":-0.5304097533226013,"10":0.1911173015832901,"11":-0.37047722935676575,"12":-0.14677397906780243,"13":0.20597083866596222,"14":0.12159222364425659,"15":0.24501609802246094,"16":-0.5615518093109131,"17":-0.49786481261253357,"18":-0.08624989539384842,"19":-0.086164191365242,"20":-0.018057024106383324,"21":0.5168042182922363,"22":-0.1869114339351654,"23":-0.7854174375534058,"24":0.20371055603027344,"25":0.3818400800228119,"26":0.2543237805366516,"27":0.16591042280197144,"28":-0.25794440507888794,"29":0.16722120344638824,"30":0.4250800907611847,"31":0.05624992772936821}},"30":{"bias":-0.3741646409034729,"weights":{"0":-0.09964519739151001,"1":0.15600545704364777,"2":-0.3865334093570709,"3":0.3558136522769928,"4":-0.0406787134706974,"5":-0.022701554000377655,"6":-0.020658651366829872,"7":0.21328453719615936,"8":-0.2637978494167328,"9":-0.25575748085975647,"10":-0.09804252535104752,"11":-0.5824374556541443,"12":-0.1194276437163353,"13":0.004348680377006531,"14":0.09541361778974533,"15":0.14618033170700073,"16":-0.5720171928405762,"17":-0.6635124683380127,"18":0.0012473881943151355,"19":0.17912030220031738,"20":0.08766243606805801,"21":0.3425087630748749,"22":-0.2080962359905243,"23":-0.4279434084892273,"24":-0.009527912363409996,"25":0.28769269585609436,"26":-0.01207283977419138,"27":0.10664799064397812,"28":-0.1949613094329834,"29":0.2535895109176636,"30":0.2633320987224579,"31":0.11585620790719986}},"31":{"bias":-0.3294491767883301,"weights":{"0":0.2809954583644867,"1":0.26814717054367065,"2":-0.8477575778961182,"3":1.1496769189834595,"4":0.11112109571695328,"5":0.021643364802002907,"6":0.18869295716285706,"7":0.8061431646347046,"8":-0.27405208349227905,"9":-0.475551962852478,"10":-0.14799588918685913,"11":-1.0995393991470337,"12":-0.1607397049665451,"13":0.632140576839447,"14":0.3600655496120453,"15":-0.02932952158153057,"16":-0.996331512928009,"17":-0.45039230585098267,"18":0.30995023250579834,"19":-0.07995413988828659,"20":-0.02482822723686695,"21":1.0450823307037354,"22":-0.17796683311462402,"23":-1.4827649593353271,"24":0.25944894552230835,"25":0.892214834690094,"26":0.10203684121370316,"27":-0.003950378857553005,"28":-0.40998029708862305,"29":0.6162554621696472,"30":0.5049703121185303,"31":0.225505992770195}}},{"0":{"bias":-0.6350308656692505,"weights":{"0":-0.3514074385166168,"1":-0.3537162244319916,"2":-0.09759972989559174,"3":-0.03752850741147995,"4":-0.4164947271347046,"5":-0.13720659911632538,"6":-0.299121230840683,"7":-0.32485345005989075,"8":-0.21937575936317444,"9":-0.40893232822418213,"10":-0.035714976489543915,"11":-0.34350213408470154,"12":-0.19588296115398407,"13":0.05994745343923569,"14":-0.15559378266334534,"15":-0.4099872410297394,"16":-0.3240712285041809,"17":-0.2255535125732422,"18":-0.05796079710125923,"19":-0.31298935413360596,"20":-0.38140785694122314,"21":-0.2638348639011383,"22":-0.44282689690589905,"23":-0.4619629383087158,"24":-0.14642733335494995,"25":-0.25195345282554626,"26":-0.19690625369548798,"27":-0.17872323095798492,"28":-0.4006798565387726,"29":-0.29494228959083557,"30":-0.311235636472702,"31":-0.5252099633216858}},"1":{"bias":-0.42549198865890503,"weights":{"0":-0.020173316821455956,"1":-0.22038479149341583,"2":-0.1647198647260666,"3":-0.4365585148334503,"4":-0.2748704254627228,"5":-0.2976613938808441,"6":-0.32138684391975403,"7":-0.40054625272750854,"8":-0.34523192048072815,"9":-0.4651806652545929,"10":-0.4278966784477234,"11":-0.07872737944126129,"12":0.016141431406140327,"13":-0.17454375326633453,"14":-0.4435451626777649,"15":-0.18485674262046814,"16":-0.3116089701652527,"17":-0.20956121385097504,"18":-0.3799389600753784,"19":-0.39636969566345215,"20":-0.40122494101524353,"21":-0.3591713011264801,"22":-0.45781204104423523,"23":-0.16739290952682495,"24":-0.3136120140552521,"25":-0.23999421298503876,"26":-0.11502017825841904,"27":-0.4979187548160553,"28":-0.32839342951774597,"29":-0.3861544132232666,"30":-0.022220661863684654,"31":-0.5103285312652588}},"2":{"bias":-0.7161992788314819,"weights":{"0":-0.22343942523002625,"1":-0.12778764963150024,"2":-0.11038368940353394,"3":-0.15192903578281403,"4":-0.13796521723270416,"5":-0.2266695350408554,"6":-0.048909999430179596,"7":-0.42682549357414246,"8":-0.07752817124128342,"9":-0.3413826525211334,"10":-0.08238020539283752,"11":-0.27612781524658203,"12":-0.09471416473388672,"13":0.12232548743486404,"14":-0.35688018798828125,"15":-0.22357583045959473,"16":-0.5024324655532837,"17":-0.3320760130882263,"18":-0.39475196599960327,"19":-0.5143176317214966,"20":-0.4410880208015442,"21":-0.4582602083683014,"22":-0.22661498188972473,"23":-0.05690541863441467,"24":-0.1222834438085556,"25":-0.18086200952529907,"26":-0.14462019503116608,"27":-0.31821209192276,"28":-0.2357425093650818,"29":-0.33462288975715637,"30":-0.04186854138970375,"31":-0.7827928066253662}},"3":{"bias":-0.8225985169410706,"weights":{"0":-0.19089765846729279,"1":-0.45445212721824646,"2":-0.3085569441318512,"3":-0.059762969613075256,"4":-0.21853294968605042,"5":-0.3884241282939911,"6":-0.1144694909453392,"7":-0.3594353199005127,"8":-0.41916805505752563,"9":-0.24702440202236176,"10":-0.42349663376808167,"11":-0.23836062848567963,"12":-0.2663261890411377,"13":-0.17228679358959198,"14":-0.10783408582210541,"15":-0.07232324033975601,"16":-0.1433301419019699,"17":-0.08669216185808182,"18":-0.11342877894639969,"19":-0.4128601849079132,"20":-0.15067735314369202,"21":-0.4597490727901459,"22":-0.09568656980991364,"23":-0.18486888706684113,"24":-0.08727846294641495,"25":-0.12841396033763885,"26":-0.09039168804883957,"27":-0.4847799241542816,"28":-0.3501703143119812,"29":-0.18506620824337006,"30":-0.3036958873271942,"31":-0.5773293972015381}},"4":{"bias":-0.7047544717788696,"weights":{"0":-0.04604579135775566,"1":-0.28120157122612,"2":-0.18093633651733398,"3":-0.42194515466690063,"4":-0.30091482400894165,"5":-0.15037089586257935,"6":-0.2435053288936615,"7":-0.3688816726207733,"8":-0.06479783356189728,"9":-0.3472144305706024,"10":-0.19438140094280243,"11":-0.0014106582384556532,"12":0.10274016112089157,"13":0.10760224610567093,"14":-0.22072094678878784,"15":-0.3703024387359619,"16":-0.5286073684692383,"17":-0.16234344244003296,"18":-0.4315134286880493,"19":-0.30592384934425354,"20":-0.3520667254924774,"21":-0.534696102142334,"22":-0.29185599088668823,"23":-0.42930319905281067,"24":-0.11590676754713058,"25":-0.18540719151496887,"26":-0.3915122449398041,"27":-0.3379797339439392,"28":-0.09946180135011673,"29":-0.1563725620508194,"30":-0.09374380856752396,"31":-0.6144192814826965}},"5":{"bias":-0.728413999080658,"weights":{"0":-0.19438834488391876,"1":-0.3630782663822174,"2":-0.04605535790324211,"3":-0.1812983602285385,"4":-0.4393155574798584,"5":-0.3214537799358368,"6":-0.27723556756973267,"7":-0.3256075084209442,"8":-0.08686511218547821,"9":-0.21573734283447266,"10":-0.3602253496646881,"11":-0.1509607434272766,"12":0.10031770914793015,"13":-0.16443811357021332,"14":-0.3340584635734558,"15":-0.2802460789680481,"16":-0.1761215478181839,"17":-0.1422898769378662,"18":-0.27358368039131165,"19":-0.46980422735214233,"20":-0.3282875120639801,"21":-0.5093232989311218,"22":-0.22952938079833984,"23":-0.4386764168739319,"24":-0.11944569647312164,"25":-0.11796420812606812,"26":-0.19240252673625946,"27":-0.2083626091480255,"28":-0.041987329721450806,"29":-0.11258324235677719,"30":-0.1580956131219864,"31":-0.7535237669944763}},"6":{"bias":-0.8417153358459473,"weights":{"0":-0.18109391629695892,"1":-0.2811310589313507,"2":-0.11553992331027985,"3":-0.13366179168224335,"4":-0.2863636314868927,"5":-0.2896217405796051,"6":-0.21156439185142517,"7":-0.2473398894071579,"8":-0.3602021038532257,"9":-0.09664301574230194,"10":-0.3538927733898163,"11":-0.3259769082069397,"12":-0.16756168007850647,"13":-0.31639447808265686,"14":-0.2935536503791809,"15":-0.24165430665016174,"16":-0.19545026123523712,"17":-0.05449512600898743,"18":-0.22517335414886475,"19":-0.3724207282066345,"20":-0.32080382108688354,"21":-0.3580145835876465,"22":-0.060055796056985855,"23":-0.30460625886917114,"24":-0.23992395401000977,"25":-0.07468608021736145,"26":-0.06525518000125885,"27":-0.079337939620018,"28":-0.34332364797592163,"29":-0.3882564902305603,"30":-0.26976215839385986,"31":-0.618572473526001}},"7":{"bias":-0.6657593846321106,"weights":{"0":-0.40154150128364563,"1":-0.21197225153446198,"2":-0.29627060890197754,"3":-0.12205915153026581,"4":-0.3416525423526764,"5":-0.25742194056510925,"6":-0.18208329379558563,"7":-0.28848403692245483,"8":-0.2843359410762787,"9":-0.35208866000175476,"10":-0.39503300189971924,"11":-0.388667494058609,"12":-0.057332951575517654,"13":-0.030312487855553627,"14":-0.16692450642585754,"15":-0.13578028976917267,"16":-0.3041333556175232,"17":-0.42468905448913574,"18":-0.4185655415058136,"19":-0.1405566930770874,"20":-0.1646011918783188,"21":-0.3670612573623657,"22":-0.2933605909347534,"23":-0.18688839673995972,"24":-0.16795660555362701,"25":-0.0703452005982399,"26":-0.22403496503829956,"27":-0.4367079734802246,"28":-0.248851478099823,"29":-0.35636648535728455,"30":-0.30897319316864014,"31":-0.4789629578590393}},"8":{"bias":-0.6704002022743225,"weights":{"0":-0.24970169365406036,"1":-0.40289315581321716,"2":-0.061544302850961685,"3":-0.11410343647003174,"4":-0.05302092060446739,"5":-0.19692303240299225,"6":-0.3692764639854431,"7":-0.4261529743671417,"8":-0.32131996750831604,"9":-0.3408749997615814,"10":0.008053362369537354,"11":-0.15552479028701782,"12":0.1061011552810669,"13":-0.028278207406401634,"14":-0.3994907736778259,"15":-0.3569389581680298,"16":-0.517107367515564,"17":-0.16181205213069916,"18":-0.2350713461637497,"19":-0.5439965128898621,"20":-0.21873125433921814,"21":-0.3252067565917969,"22":-0.08120539039373398,"23":-0.09108828008174896,"24":-0.1497286558151245,"25":-0.04826151207089424,"26":-0.30071982741355896,"27":-0.48432227969169617,"28":-0.1280210018157959,"29":-0.2334202229976654,"30":-0.29020246863365173,"31":-0.8261663317680359}},"9":{"bias":-0.5353825688362122,"weights":{"0":-0.0834994837641716,"1":-0.38430097699165344,"2":-0.17278790473937988,"3":-0.2978263795375824,"4":-0.0791177824139595,"5":-0.20439429581165314,"6":-0.43302929401397705,"7":-0.20942826569080353,"8":-0.41370493173599243,"9":-0.3484887182712555,"10":-0.05984228104352951,"11":-0.17906510829925537,"12":-0.17442315816879272,"13":-0.09231194108724594,"14":-0.2192702442407608,"15":-0.3244298994541168,"16":-0.4147467017173767,"17":-0.1580316573381424,"18":-0.31622084975242615,"19":-0.4199073612689972,"20":-0.374112069606781,"21":-0.45971375703811646,"22":-0.3808349072933197,"23":-0.11754266172647476,"24":-0.26659995317459106,"25":-0.2844162881374359,"26":-0.3857758045196533,"27":-0.1086742952466011,"28":-0.38287439942359924,"29":-0.4191345274448395,"30":-0.2910153567790985,"31":-0.4671606719493866}},"10":{"bias":-0.5599698424339294,"weights":{"0":-0.35675156116485596,"1":-0.33381152153015137,"2":-0.23882032930850983,"3":-0.18460369110107422,"4":-0.4292837381362915,"5":-0.1152738481760025,"6":-0.06828293204307556,"7":-0.13188406825065613,"8":-0.13796795904636383,"9":-0.3637893497943878,"10":-0.38781270384788513,"11":-0.27549171447753906,"12":-0.16285200417041779,"13":-0.2788286805152893,"14":-0.2650478780269623,"15":-0.18833892047405243,"16":-0.2562660574913025,"17":-0.27197593450546265,"18":-0.11190932244062424,"19":-0.12636451423168182,"20":-0.36621174216270447,"21":-0.38617345690727234,"22":-0.4218287467956543,"23":-0.4057743549346924,"24":-0.3829042613506317,"25":-0.2957219183444977,"26":-0.41887301206588745,"27":-0.1647147387266159,"28":-0.2986701726913452,"29":-0.4244140386581421,"30":-0.4283676743507385,"31":-0.3535601794719696}},"11":{"bias":-0.7895996570587158,"weights":{"0":-0.1085965484380722,"1":-0.10115116089582443,"2":-0.31600475311279297,"3":-0.2173805832862854,"4":-0.28272318840026855,"5":-0.20458924770355225,"6":-0.18882060050964355,"7":-0.41549500823020935,"8":-0.24232769012451172,"9":-0.33994680643081665,"10":-0.22320733964443207,"11":-0.19427578151226044,"12":-0.22131869196891785,"13":-0.23110154271125793,"14":-0.38549238443374634,"15":-0.13494515419006348,"16":-0.43595290184020996,"17":-0.09159422665834427,"18":-0.36468759179115295,"19":-0.19677524268627167,"20":-0.4568616449832916,"21":-0.36200830340385437,"22":-0.13643836975097656,"23":-0.2748352587223053,"24":-0.28933387994766235,"25":-0.2510601282119751,"26":-0.31709572672843933,"27":-0.33250555396080017,"28":-0.2463047206401825,"29":-0.19297391176223755,"30":-0.042224571108818054,"31":-0.3510616421699524}},"12":{"bias":-0.5682774186134338,"weights":{"0":-0.23476512730121613,"1":-0.4610348045825958,"2":-0.19762274622917175,"3":-0.4029676914215088,"4":-0.38593682646751404,"5":-0.313311904668808,"6":-0.09841671586036682,"7":-0.3851139545440674,"8":-0.0007369859958998859,"9":-0.20482446253299713,"10":-0.1026819571852684,"11":-0.14537465572357178,"12":-0.11395801603794098,"13":0.060893308371305466,"14":-0.31234148144721985,"15":-0.09472938627004623,"16":-0.480913370847702,"17":-0.3983096480369568,"18":-0.2710857689380646,"19":-0.28396981954574585,"20":-0.5242172479629517,"21":-0.43655094504356384,"22":-0.2923083007335663,"23":-0.24526157975196838,"24":-0.05037993937730789,"25":-0.19234620034694672,"26":-0.16009636223316193,"27":-0.3725684881210327,"28":-0.14786851406097412,"29":-0.2281751036643982,"30":-0.28055357933044434,"31":-0.7439311742782593}},"13":{"bias":-0.8477929830551147,"weights":{"0":-0.3242672085762024,"1":-0.4120025932788849,"2":-0.08335549384355545,"3":-0.20472192764282227,"4":-0.14966385066509247,"5":-0.2413777858018875,"6":-0.3707113265991211,"7":-0.15168577432632446,"8":-0.3652788996696472,"9":-0.3459738790988922,"10":-0.19629952311515808,"11":-0.17738625407218933,"12":-0.20597808063030243,"13":-0.2856316864490509,"14":-0.04117731377482414,"15":-0.15060831606388092,"16":-0.17876549065113068,"17":-0.09949692338705063,"18":-0.1857699751853943,"19":-0.35346677899360657,"20":-0.23513250052928925,"21":-0.36270853877067566,"22":-0.06433804333209991,"23":-0.08280599862337112,"24":-0.4182022213935852,"25":-0.39486202597618103,"26":-0.3975941240787506,"27":-0.2865526080131531,"28":-0.4627886116504669,"29":-0.19495528936386108,"30":-0.23098306357860565,"31":-0.36289286613464355}},"14":{"bias":-0.7633682489395142,"weights":{"0":-0.13071492314338684,"1":-0.45882827043533325,"2":-0.25674280524253845,"3":-0.4417017102241516,"4":-0.3615453243255615,"5":0.017376944422721863,"6":-0.2927355468273163,"7":-0.5108309984207153,"8":0.03637760877609253,"9":-0.1124446913599968,"10":-0.0855303555727005,"11":0.10530878603458405,"12":-0.04861333966255188,"13":0.29526376724243164,"14":-0.33009210228919983,"15":-0.0324418731033802,"16":-0.3386973440647125,"17":-0.290363073348999,"18":-0.2185400426387787,"19":-0.5538159012794495,"20":-0.6294241547584534,"21":-0.48950761556625366,"22":-0.03403942659497261,"23":0.036189619451761246,"24":0.08375708013772964,"25":-0.06022174656391144,"26":-0.17486369609832764,"27":-0.49773791432380676,"28":0.24484319984912872,"29":-0.2448125034570694,"30":-0.0009329016902484,"31":-1.1347113847732544}},"15":{"bias":-0.7492876052856445,"weights":{"0":-0.1688847541809082,"1":-0.3845338821411133,"2":-0.3490530252456665,"3":-0.20764729380607605,"4":-0.06278899312019348,"5":-0.1578139215707779,"6":-0.381283164024353,"7":-0.10681169480085373,"8":-0.4570262134075165,"9":-0.1430833488702774,"10":-0.09336742758750916,"11":-0.10427611321210861,"12":-0.02902897633612156,"13":-0.19702357053756714,"14":-0.4431893825531006,"15":-0.29052427411079407,"16":-0.1338413655757904,"17":-0.41298213601112366,"18":-0.25571173429489136,"19":-0.40636029839515686,"20":-0.08472613990306854,"21":-0.25938671827316284,"22":-0.40138891339302063,"23":-0.3065624237060547,"24":-0.16462059319019318,"25":-0.31490254402160645,"26":-0.3272778391838074,"27":-0.15479250252246857,"28":-0.4733257293701172,"29":-0.1771109402179718,"30":-0.44075772166252136,"31":-0.42547860741615295}}},{"0":{"bias":-3.52789306640625,"weights":{"0":1.592728614807129,"1":1.624162197113037,"2":1.5788593292236328,"3":1.5337210893630981,"4":1.5938684940338135,"5":1.5878126621246338,"6":1.5351738929748535,"7":1.5910048484802246,"8":1.5695903301239014,"9":1.5988309383392334,"10":1.5704227685928345,"11":1.5381228923797607,"12":1.6022943258285522,"13":1.501092791557312,"14":1.564507246017456,"15":1.5811865329742432}},"1":{"bias":-5.128588676452637,"weights":{"0":0.32540038228034973,"1":0.859177827835083,"2":0.45286840200424194,"3":0.057918768376111984,"4":0.5213460922241211,"5":0.5099835395812988,"6":-0.1973206102848053,"7":0.15873563289642334,"8":0.9416515827178955,"9":0.6092145442962646,"10":0.2720380127429962,"11":0.09445544332265854,"12":0.755679190158844,"13":-0.263181209564209,"14":0.9402298331260681,"15":-0.2855019271373749}}}],"outputLookup":true,"inputLookup":true,"activation":"sigmoid","trainOpts":{"iterations":10000,"errorThresh":0.0004,"log":true,"logPeriod":100,"learningRate":0.3,"momentum":0.1,"callbackPeriod":10,"beta1":0.9,"beta2":0.999,"epsilon":1e-8}}';
//var jnn = '{"sizes":[4,32,32,32,16,2],"layers":[{"0":{},"1":{},"2":{},"3":{}},{"0":{"bias":-0.3665132224559784,"weights":{"0":0.18691404163837433,"1":0.5653303861618042,"2":-0.129250168800354,"3":1.0294638872146606}},"1":{"bias":-0.7555716633796692,"weights":{"0":-0.1767875999212265,"1":2.9035253524780273,"2":-0.21325263381004333,"3":-2.5598695278167725}},"2":{"bias":0.27227166295051575,"weights":{"0":0.009943176060914993,"1":0.9106228947639465,"2":-0.06889185309410095,"3":-1.5059305429458618}},"3":{"bias":0.37222492694854736,"weights":{"0":-0.19946981966495514,"1":-0.013795631937682629,"2":-0.32836055755615234,"3":-1.2626020908355713}},"4":{"bias":-0.69525545835495,"weights":{"0":0.037642668932676315,"1":0.2730407416820526,"2":-0.15369459986686707,"3":1.4828089475631714}},"5":{"bias":-0.19367913901805878,"weights":{"0":0.04391244426369667,"1":0.04112838953733444,"2":-0.2849694788455963,"3":-0.37569189071655273}},"6":{"bias":-1.007483720779419,"weights":{"0":-0.01721259206533432,"1":4.532543182373047,"2":-0.2156417816877365,"3":-3.429896593093872}},"7":{"bias":0.004235236439853907,"weights":{"0":-0.44782695174217224,"1":-1.1977123022079468,"2":-0.626319944858551,"3":-2.7336761951446533}},"8":{"bias":-0.6802417039871216,"weights":{"0":-0.5343384146690369,"1":0.13213220238685608,"2":-0.3771848976612091,"3":1.9961079359054565}},"9":{"bias":-0.12706060707569122,"weights":{"0":-0.3987691402435303,"1":-1.402635097503662,"2":-0.687704861164093,"3":-2.980443239212036}},"10":{"bias":-1.2641515731811523,"weights":{"0":-0.41613131761550903,"1":1.275146245956421,"2":-0.5876005291938782,"3":0.9994949698448181}},"11":{"bias":-0.09460239857435226,"weights":{"0":-0.19169394671916962,"1":1.0032380819320679,"2":-0.009788860566914082,"3":-1.1557904481887817}},"12":{"bias":0.156358540058136,"weights":{"0":-0.15441711246967316,"1":0.2706730365753174,"2":-0.20358838140964508,"3":-1.0283578634262085}},"13":{"bias":0.24342356622219086,"weights":{"0":0.05963076278567314,"1":0.6157541275024414,"2":0.050807539373636246,"3":-1.6584454774856567}},"14":{"bias":-0.16553495824337006,"weights":{"0":0.001353275845758617,"1":0.8165271282196045,"2":-0.20869231224060059,"3":-1.0249691009521484}},"15":{"bias":-0.047933969646692276,"weights":{"0":-0.2938495874404907,"1":0.5023208260536194,"2":-0.06569407880306244,"3":-0.9987826347351074}},"16":{"bias":-0.8416042327880859,"weights":{"0":-0.04795616492629051,"1":4.0350341796875,"2":-0.26547253131866455,"3":-3.279836654663086}},"17":{"bias":-0.9209133386611938,"weights":{"0":-0.8445484638214111,"1":0.4084920883178711,"2":-0.37618112564086914,"3":2.7671990394592285}},"18":{"bias":-0.748252809047699,"weights":{"0":-0.02407301589846611,"1":0.5327634811401367,"2":0.2701709568500519,"3":2.4244041442871094}},"19":{"bias":0.3293655216693878,"weights":{"0":-0.16104047000408173,"1":0.029160376638174057,"2":-0.1962263584136963,"3":-1.2224314212799072}},"20":{"bias":0.06269370019435883,"weights":{"0":-0.14659975469112396,"1":1.5106604099273682,"2":-0.013334390707314014,"3":-1.2455509901046753}},"21":{"bias":0.16451868414878845,"weights":{"0":-0.3110317289829254,"1":-0.2712678909301758,"2":-0.005803936161100864,"3":-1.3534125089645386}},"22":{"bias":-0.6420221328735352,"weights":{"0":-0.4829893112182617,"1":0.07909027487039566,"2":-0.11549486219882965,"3":2.1070785522460938}},"23":{"bias":0.15185870230197906,"weights":{"0":-0.10191904753446579,"1":0.2845093905925751,"2":-0.09107737988233566,"3":-0.7913459539413452}},"24":{"bias":0.438333123922348,"weights":{"0":-0.16981278359889984,"1":-0.06993924826383591,"2":-0.13975298404693604,"3":-1.4457494020462036}},"25":{"bias":0.26857584714889526,"weights":{"0":-0.0764722228050232,"1":-0.18962974846363068,"2":-0.11515723913908005,"3":-1.339071273803711}},"26":{"bias":-0.19021117687225342,"weights":{"0":-0.34589627385139465,"1":0.7383904457092285,"2":-0.2620677649974823,"3":-0.5142571330070496}},"27":{"bias":0.05061481520533562,"weights":{"0":-0.3110460937023163,"1":1.2492132186889648,"2":-0.06708139181137085,"3":-1.2552790641784668}},"28":{"bias":0.15549872815608978,"weights":{"0":-0.08567925542593002,"1":0.15866325795650482,"2":-0.18762266635894775,"3":-1.3892031908035278}},"29":{"bias":0.052635420113801956,"weights":{"0":-0.2945269048213959,"1":0.0458916537463665,"2":-0.002817247761413455,"3":-1.067785620689392}},"30":{"bias":0.3014606535434723,"weights":{"0":0.08841347694396973,"1":0.15764790773391724,"2":-0.013490301556885242,"3":-1.6120829582214355}},"31":{"bias":-0.6580260992050171,"weights":{"0":0.036591943353414536,"1":0.6568061113357544,"2":-0.12570308148860931,"3":0.4225689470767975}}},{"0":{"bias":0.2237107753753662,"weights":{"0":0.18885406851768494,"1":-1.2766821384429932,"2":-0.6231270432472229,"3":-0.41049811244010925,"4":0.3397006392478943,"5":0.13665220141410828,"6":-0.8605597615242004,"7":-0.5648695826530457,"8":0.7135909199714661,"9":-0.474543958902359,"10":0.21857213973999023,"11":-0.7234336733818054,"12":-0.14950774610042572,"13":-0.5556750893592834,"14":-0.3398810923099518,"15":-0.3738427460193634,"16":-1.0095840692520142,"17":0.7763350009918213,"18":0.6793848872184753,"19":-0.4042849540710449,"20":-0.9022973775863647,"21":-0.38713234663009644,"22":0.7488561272621155,"23":-0.21023863554000854,"24":-0.3780880868434906,"25":-0.20074406266212463,"26":-0.4252641797065735,"27":-0.4751397669315338,"28":-0.47417813539505005,"29":-0.17445430159568787,"30":-0.5150877237319946,"31":-0.09893997013568878}},"1":{"bias":0.437980055809021,"weights":{"0":0.12432549893856049,"1":-0.8352946639060974,"2":0.3960331976413727,"3":0.3056938350200653,"4":-0.15137159824371338,"5":0.34234458208084106,"6":-1.3687224388122559,"7":0.5590654015541077,"8":-0.22393065690994263,"9":0.37832048535346985,"10":-0.13506068289279938,"11":0.25081199407577515,"12":0.10088545829057693,"13":0.4333319664001465,"14":0.05000421032309532,"15":0.3798777163028717,"16":-1.3247959613800049,"17":-0.22632929682731628,"18":-0.17272472381591797,"19":0.18595753610134125,"20":0.20522688329219818,"21":0.4576040208339691,"22":-0.07290858775377274,"23":0.420058012008667,"24":0.1645173281431198,"25":0.425826758146286,"26":0.3525652289390564,"27":0.3871038556098938,"28":0.45741966366767883,"29":0.21290980279445648,"30":0.17075751721858978,"31":0.030049383640289307}},"2":{"bias":-0.27074384689331055,"weights":{"0":-0.15081574022769928,"1":-0.13680525124073029,"2":0.0493948794901371,"3":0.10524434596300125,"4":-0.17538711428642273,"5":-0.049938421696424484,"6":-0.10110040009021759,"7":-0.30179426074028015,"8":-0.10679086297750473,"9":0.006859822664409876,"10":-0.2231840342283249,"11":0.0785764753818512,"12":0.02802676148712635,"13":-0.15444347262382507,"14":0.09703972935676575,"15":-0.032347504049539566,"16":-0.265125572681427,"17":-0.07377792149782181,"18":0.15667474269866943,"19":-0.2911621630191803,"20":-0.21444171667099,"21":0.03215368837118149,"22":0.03384395316243172,"23":-0.01589818485081196,"24":0.05090807005763054,"25":-0.19093620777130127,"26":-0.2471235990524292,"27":0.08568408340215683,"28":-0.09504009038209915,"29":-0.25973841547966003,"30":-0.18602295219898224,"31":-0.16525031626224518}},"3":{"bias":-0.19577611982822418,"weights":{"0":-0.21235521137714386,"1":-0.2947842478752136,"2":-0.151144340634346,"3":0.05481379106640816,"4":-0.10376229882240295,"5":-0.03673136979341507,"6":-0.23459230363368988,"7":-0.030132345855236053,"8":0.02813658118247986,"9":-0.1366710364818573,"10":0.13406991958618164,"11":-0.10103562474250793,"12":0.0090887900441885,"13":0.08098793774843216,"14":-0.058854926377534866,"15":0.1478903591632843,"16":-0.4198792278766632,"17":0.04353862255811691,"18":-0.09469207376241684,"19":-0.1011495292186737,"20":-0.061920154839754105,"21":-0.07149343937635422,"22":0.1353757679462433,"23":-0.20186173915863037,"24":-0.041905999183654785,"25":-0.007993156090378761,"26":-0.07790928333997726,"27":-0.10481522977352142,"28":-0.21590924263000488,"29":0.02323285862803459,"30":0.12864872813224792,"31":-0.014918062835931778}},"4":{"bias":-0.4784815013408661,"weights":{"0":0.04046422988176346,"1":-0.20885032415390015,"2":-0.35483333468437195,"3":-0.4745785892009735,"4":0.07059572637081146,"5":-0.08346638083457947,"6":-0.43162938952445984,"7":-0.7327055335044861,"8":0.20626801252365112,"9":-0.6775941848754883,"10":0.002598808379843831,"11":-0.24571257829666138,"12":-0.47423458099365234,"13":-0.4113009572029114,"14":-0.2701979875564575,"15":-0.43699777126312256,"16":-0.43367668986320496,"17":0.4308377802371979,"18":-0.021069684997200966,"19":-0.5941365957260132,"20":-0.5143395662307739,"21":-0.5040447115898132,"22":0.19327788054943085,"23":-0.44584494829177856,"24":-0.38331592082977295,"25":-0.3790940046310425,"26":-0.0635150596499443,"27":-0.45045197010040283,"28":-0.5776464939117432,"29":-0.3636941909790039,"30":-0.42447608709335327,"31":0.047125205397605896}},"5":{"bias":-0.3439390957355499,"weights":{"0":-0.017283696681261063,"1":-0.6577928066253662,"2":-0.6435269117355347,"3":-0.44053173065185547,"4":0.20369842648506165,"5":-0.08527127653360367,"6":-0.24319976568222046,"7":-0.5852146148681641,"8":0.28203698992729187,"9":-0.6448580622673035,"10":-0.06471089273691177,"11":-0.47327038645744324,"12":-0.41400593519210815,"13":-0.43326321244239807,"14":-0.5778930187225342,"15":-0.46575599908828735,"16":-0.44714751839637756,"17":0.4584446847438812,"18":0.3801209628582001,"19":-0.2814152240753174,"20":-0.5945945978164673,"21":-0.34182384610176086,"22":0.27951064705848694,"23":-0.5262133479118347,"24":-0.6546450257301331,"25":-0.5296850204467773,"26":-0.12027355283498764,"27":-0.5451695919036865,"28":-0.3786355257034302,"29":-0.27556607127189636,"30":-0.3740469515323639,"31":0.061387740075588226}},"6":{"bias":-0.13889794051647186,"weights":{"0":-0.19302354753017426,"1":-0.06687942892313004,"2":0.011402158997952938,"3":-0.22166867554187775,"4":0.08771686255931854,"5":0.03799194470047951,"6":-0.11074095219373703,"7":-0.3568587601184845,"8":-0.069929338991642,"9":-0.192047119140625,"10":0.010165647603571415,"11":-0.018775777891278267,"12":0.029156506061553955,"13":-0.24378255009651184,"14":-0.2656470835208893,"15":-0.21908922493457794,"16":-0.18149584531784058,"17":0.09368377923965454,"18":0.07190679013729095,"19":-0.06247060373425484,"20":-0.23378285765647888,"21":-0.09165636450052261,"22":-0.07528810203075409,"23":0.07497359812259674,"24":-0.07933883368968964,"25":-0.2857741713523865,"26":-0.19084185361862183,"27":0.06514792144298553,"28":-0.25397515296936035,"29":-0.027896549552679062,"30":-0.06628399342298508,"31":-0.20323880016803741}},"7":{"bias":-0.6249271035194397,"weights":{"0":-0.13768355548381805,"1":-0.2989988923072815,"2":-0.2528000473976135,"3":-0.17359396815299988,"4":0.13559210300445557,"5":-0.3218056559562683,"6":-0.3092789351940155,"7":-0.7020204663276672,"8":0.17756152153015137,"9":-0.8271963000297546,"10":0.08881308883428574,"11":-0.39481884241104126,"12":-0.37412840127944946,"13":-0.30574318766593933,"14":-0.3793546259403229,"15":-0.3146044909954071,"16":-0.39451470971107483,"17":0.4068942666053772,"18":0.05640357732772827,"19":-0.4035302400588989,"20":-0.37997668981552124,"21":-0.2853320837020874,"22":0.21489769220352173,"23":-0.5275222063064575,"24":-0.3527703285217285,"25":-0.23273439705371857,"26":-0.3229684829711914,"27":-0.35386982560157776,"28":-0.5883415937423706,"29":-0.3400159180164337,"30":-0.5844573974609375,"31":0.011676830239593983}},"8":{"bias":-0.5772958993911743,"weights":{"0":-0.10281982272863388,"1":-0.22047676146030426,"2":-0.327542781829834,"3":-0.4700765311717987,"4":-0.017605744302272797,"5":-0.38349011540412903,"6":-0.21242696046829224,"7":-0.616909384727478,"8":0.2559470236301422,"9":-0.6707082986831665,"10":0.10062997043132782,"11":-0.24871106445789337,"12":-0.3953670859336853,"13":-0.3143893778324127,"14":-0.15969298779964447,"15":-0.10877282917499542,"16":0.014918623492121696,"17":0.17329172790050507,"18":0.17189857363700867,"19":-0.42195799946784973,"20":-0.1249396875500679,"21":-0.30700960755348206,"22":0.167191743850708,"23":-0.45644885301589966,"24":-0.2558002471923828,"25":-0.5147684216499329,"26":-0.3080538213253021,"27":-0.30552056431770325,"28":-0.43474194407463074,"29":-0.4106666147708893,"30":-0.27123087644577026,"31":-0.14586906135082245}},"9":{"bias":-0.4884975850582123,"weights":{"0":0.09119779616594315,"1":-0.5106449723243713,"2":-0.4246399402618408,"3":-0.29808318614959717,"4":0.15693186223506927,"5":-0.3713606894016266,"6":-0.34496748447418213,"7":-0.6976028084754944,"8":0.4430807828903198,"9":-0.7778300642967224,"10":0.1337471902370453,"11":-0.5466859340667725,"12":-0.4642445743083954,"13":-0.7501024603843689,"14":-0.4530685842037201,"15":-0.37202468514442444,"16":-0.6367137432098389,"17":0.36667224764823914,"18":0.49006205797195435,"19":-0.6381070017814636,"20":-0.49598219990730286,"21":-0.5287338495254517,"22":0.5030663013458252,"23":-0.25675755739212036,"24":-0.5935146808624268,"25":-0.5526630878448486,"26":-0.47466427087783813,"27":-0.6798540353775024,"28":-0.29925301671028137,"29":-0.4382416605949402,"30":-0.5415569543838501,"31":-0.04474705085158348}},"10":{"bias":-0.46124401688575745,"weights":{"0":-1.0878971815109253,"1":-0.32784393429756165,"2":0.35713937878608704,"3":0.36426177620887756,"4":-0.9858609437942505,"5":-0.023106900975108147,"6":-0.8927883505821228,"7":1.3855721950531006,"8":-1.0865323543548584,"9":1.4218195676803589,"10":-1.108945608139038,"11":-0.03355977311730385,"12":0.10954152047634125,"13":0.4753949046134949,"14":-0.045357536524534225,"15":0.02936970815062523,"16":-0.4951329529285431,"17":-1.854467749595642,"18":-1.6082712411880493,"19":0.23954153060913086,"20":0.03939976170659065,"21":0.45495086908340454,"22":-1.4054076671600342,"23":-0.12210755050182343,"24":0.5582802891731262,"25":0.373797744512558,"26":-0.20503579080104828,"27":-0.052890293300151825,"28":0.31735682487487793,"29":0.3140566349029541,"30":0.4313155710697174,"31":-0.7134749889373779}},"11":{"bias":-0.5877102017402649,"weights":{"0":-0.19637003540992737,"1":-0.2132401168346405,"2":-0.46424663066864014,"3":-0.4238867163658142,"4":-0.02020079828798771,"5":-0.272940456867218,"6":-0.22026415169239044,"7":-0.4990599751472473,"8":0.30564239621162415,"9":-0.5918528437614441,"10":0.07597989588975906,"11":-0.2975804805755615,"12":-0.09726910293102264,"13":-0.18161475658416748,"14":-0.3594903349876404,"15":-0.13140130043029785,"16":-0.035306043922901154,"17":0.22766175866127014,"18":0.18965944647789001,"19":-0.5122885704040527,"20":-0.3288314640522003,"21":-0.30758604407310486,"22":0.1489371508359909,"23":-0.11565355956554413,"24":-0.36004629731178284,"25":-0.5334604978561401,"26":-0.2050817906856537,"27":-0.5059502720832825,"28":-0.5264955759048462,"29":-0.45591098070144653,"30":-0.3371847867965698,"31":-0.0788952186703682}},"12":{"bias":-0.08371198177337646,"weights":{"0":0.09275975823402405,"1":-0.12359549105167389,"2":-0.062347833067178726,"3":-0.09885202348232269,"4":-0.08541605621576309,"5":-0.19644366204738617,"6":-0.13869141042232513,"7":-0.05902758985757828,"8":0.02384982444345951,"9":-0.33414238691329956,"10":0.04050453007221222,"11":-0.09719589352607727,"12":0.046450890600681305,"13":-0.18020321428775787,"14":-0.05787668004631996,"15":0.01921442523598671,"16":-0.11180701106786728,"17":-0.05692381039261818,"18":0.14784696698188782,"19":-0.21700245141983032,"20":0.10124649107456207,"21":-0.12057865411043167,"22":-0.15913920104503632,"23":-0.24207808077335358,"24":-0.34471240639686584,"25":-0.34906822443008423,"26":0.09360984712839127,"27":-0.21599991619586945,"28":-0.20216694474220276,"29":-0.2990213632583618,"30":-0.1748991161584854,"31":-0.16437965631484985}},"13":{"bias":0.7301245927810669,"weights":{"0":0.15587209165096283,"1":-1.4290355443954468,"2":0.1746843457221985,"3":0.18987488746643066,"4":0.28223562240600586,"5":0.018061252310872078,"6":-2.0481326580047607,"7":0.4332471489906311,"8":0.33148831129074097,"9":0.4222870469093323,"10":-0.18214057385921478,"11":0.056771181523799896,"12":0.17907185852527618,"13":-0.06672151386737823,"14":-0.16239255666732788,"15":0.06850457936525345,"16":-1.7769858837127686,"17":0.17898724973201752,"18":0.05949005112051964,"19":0.1865110993385315,"20":0.1242886558175087,"21":0.23271501064300537,"22":0.38275146484375,"23":0.1713118851184845,"24":0.40798184275627136,"25":0.40412721037864685,"26":0.04007556661963463,"27":-0.13864198327064514,"28":0.05234496295452118,"29":0.28751787543296814,"30":0.29647180438041687,"31":-0.018172426149249077}},"14":{"bias":-0.011732976883649826,"weights":{"0":0.0387522391974926,"1":-0.16031016409397125,"2":-0.025757482275366783,"3":0.02775094099342823,"4":-0.019369276240468025,"5":0.02659400925040245,"6":-0.4487207531929016,"7":-0.08532217890024185,"8":-0.2162688970565796,"9":-0.1775527000427246,"10":-0.2518998682498932,"11":0.05255431309342384,"12":0.03313716873526573,"13":0.033333491533994675,"14":-0.030689680948853493,"15":-0.13272282481193542,"16":-0.5262328386306763,"17":0.10881534963846207,"18":-0.15785962343215942,"19":0.1459999829530716,"20":-0.04229483753442764,"21":-0.03464813157916069,"22":-0.046753253787755966,"23":0.11145105957984924,"24":-0.031892210245132446,"25":-0.15215834975242615,"26":-0.11528279632329941,"27":-0.16204503178596497,"28":0.1308441013097763,"29":-0.15727712213993073,"30":0.12329880148172379,"31":-0.09189856797456741}},"15":{"bias":0.33700695633888245,"weights":{"0":0.1605428010225296,"1":-0.5478928089141846,"2":0.14068196713924408,"3":0.2163625806570053,"4":0.011045126244425774,"5":0.0981299877166748,"6":-1.039009928703308,"7":0.3691723048686981,"8":-0.3945081830024719,"9":0.3439317047595978,"10":-0.24163664877414703,"11":0.3706029951572418,"12":0.14472410082817078,"13":0.45716723799705505,"14":0.1561291366815567,"15":0.1744852066040039,"16":-0.9958049058914185,"17":-0.4403572082519531,"18":-0.3321340084075928,"19":0.44371458888053894,"20":0.2774147093296051,"21":0.4301021099090576,"22":-0.18865936994552612,"23":0.2949066460132599,"24":0.3678153455257416,"25":0.196891650557518,"26":0.003273692913353443,"27":0.19096991419792175,"28":0.25891298055648804,"29":0.1348372846841812,"30":0.27648860216140747,"31":0.0024628143291920424}},"16":{"bias":-0.11496561765670776,"weights":{"0":0.01678352616727352,"1":-0.33519428968429565,"2":-0.42147088050842285,"3":-0.25607743859291077,"4":-0.0021846722811460495,"5":-0.1272619068622589,"6":-0.30580031871795654,"7":-0.47949934005737305,"8":0.018115079030394554,"9":-0.35670921206474304,"10":0.189658522605896,"11":-0.33745676279067993,"12":-0.1667224019765854,"13":-0.452212393283844,"14":-0.3618183135986328,"15":-0.24318498373031616,"16":-0.19819211959838867,"17":0.2655159831047058,"18":-0.016749372705817223,"19":-0.3971443474292755,"20":-0.40618982911109924,"21":-0.4164949655532837,"22":-0.012757709249854088,"23":-0.16219623386859894,"24":-0.10254396498203278,"25":-0.15892961621284485,"26":-0.24207811057567596,"27":-0.2749236226081848,"28":-0.41369161009788513,"29":-0.3754429519176483,"30":-0.19755451381206512,"31":-0.11101006716489792}},"17":{"bias":-0.2859048545360565,"weights":{"0":-0.19735004007816315,"1":-0.2777840793132782,"2":0.09533879160881042,"3":0.012989936396479607,"4":0.11822359263896942,"5":0.02940066158771515,"6":-0.2533528208732605,"7":-0.19201861321926117,"8":-0.09911368787288666,"9":-0.3101049065589905,"10":-0.08116982877254486,"11":-0.15231351554393768,"12":0.015309653244912624,"13":0.12338580191135406,"14":-0.13590970635414124,"15":-0.22363007068634033,"16":-0.18790236115455627,"17":-0.12250293791294098,"18":0.21086302399635315,"19":-0.2489887773990631,"20":0.09437273442745209,"21":-0.2475905418395996,"22":-0.10361801832914352,"23":-0.03703230619430542,"24":-0.15994124114513397,"25":-0.09060763567686081,"26":-0.030932672321796417,"27":-0.09137081354856491,"28":0.08590000867843628,"29":-0.12125781923532486,"30":-0.20187389850616455,"31":-0.20714262127876282}},"18":{"bias":-0.17014119029045105,"weights":{"0":-0.2092406451702118,"1":-0.2925403118133545,"2":-0.0975927785038948,"3":-0.24301733076572418,"4":-0.049182601273059845,"5":-0.007573471870273352,"6":-0.042074743658304214,"7":-0.1968095600605011,"8":-0.09652388840913773,"9":-0.09708777815103531,"10":-0.07320091873407364,"11":-0.1330055445432663,"12":-0.08334898203611374,"13":-0.2284696400165558,"14":0.050671063363552094,"15":-0.2621346414089203,"16":-0.14620396494865417,"17":0.18135525286197662,"18":0.00006211881554918364,"19":-0.11612388491630554,"20":-0.14153413474559784,"21":-0.0760892853140831,"22":0.09116262197494507,"23":-0.12673570215702057,"24":0.05196813866496086,"25":-0.29579418897628784,"26":-0.09776511788368225,"27":-0.09392737597227097,"28":0.03947579115629196,"29":-0.16683532297611237,"30":-0.1933111995458603,"31":-0.16319933533668518}},"19":{"bias":0.6747785210609436,"weights":{"0":0.4532529413700104,"1":-1.5276566743850708,"2":-0.7736157178878784,"3":-0.15154998004436493,"4":0.7118658423423767,"5":0.2862473726272583,"6":-1.4818260669708252,"7":-0.19869466125965118,"8":0.5781472325325012,"9":-0.4209018647670746,"10":0.09574268758296967,"11":-0.6289440989494324,"12":-0.37548452615737915,"13":-0.6378282308578491,"14":-0.4245270788669586,"15":-0.4748927354812622,"16":-1.3891596794128418,"17":0.8657403588294983,"18":0.8689096570014954,"19":-0.005123138893395662,"20":-0.8182852864265442,"21":0.06723785400390625,"22":0.7774705290794373,"23":0.036165107041597366,"24":-0.06384921073913574,"25":-0.10869854688644409,"26":-0.22214968502521515,"27":-0.9523483514785767,"28":-0.4262372553348541,"29":-0.11307220160961151,"30":-0.41302290558815,"31":0.09310659766197205}},"20":{"bias":-0.4525327980518341,"weights":{"0":-0.1800718605518341,"1":0.16969458758831024,"2":-0.16180887818336487,"3":-0.41370734572410583,"4":-0.003916580695658922,"5":-0.18288730084896088,"6":-0.05386228486895561,"7":-0.21326373517513275,"8":-0.02855643257498741,"9":-0.5846524834632874,"10":0.17656879127025604,"11":-0.029042305424809456,"12":-0.30151084065437317,"13":-0.27660703659057617,"14":0.046567127108573914,"15":-0.33341479301452637,"16":0.12871982157230377,"17":0.19099582731723785,"18":0.1282501369714737,"19":-0.3148993253707886,"20":-0.0252283476293087,"21":-0.37824857234954834,"22":0.10955427587032318,"23":-0.18613409996032715,"24":-0.15735259652137756,"25":-0.14882789552211761,"26":-0.26270395517349243,"27":0.008503383956849575,"28":-0.34747520089149475,"29":-0.3866114020347595,"30":-0.43588894605636597,"31":-0.18345919251441956}},"21":{"bias":-0.3756917715072632,"weights":{"0":0.050853632390499115,"1":-0.3896343410015106,"2":-0.3596016466617584,"3":-0.37275469303131104,"4":0.03989551216363907,"5":-0.06808138638734818,"6":-0.2797524034976959,"7":-0.3029758334159851,"8":0.06658261269330978,"9":-0.24024343490600586,"10":0.16803821921348572,"11":-0.09122758358716965,"12":-0.35318076610565186,"13":-0.4718112647533417,"14":-0.3549860417842865,"15":-0.2539823055267334,"16":-0.2927563190460205,"17":0.1649264097213745,"18":0.13774099946022034,"19":-0.4417038857936859,"20":-0.46490761637687683,"21":-0.44734999537467957,"22":0.06625422090291977,"23":-0.16875521838665009,"24":-0.46774113178253174,"25":-0.4197697937488556,"26":-0.13956505060195923,"27":-0.22080904245376587,"28":-0.24188777804374695,"29":-0.35795390605926514,"30":-0.3612186014652252,"31":-0.021518616005778313}},"22":{"bias":-0.5082935690879822,"weights":{"0":0.08262400329113007,"1":-0.15707562863826752,"2":-0.4699738323688507,"3":-0.45707517862319946,"4":0.1674056053161621,"5":-0.29264339804649353,"6":-0.2519897520542145,"7":-0.38976091146469116,"8":0.12603437900543213,"9":-0.49784600734710693,"10":-0.08355744928121567,"11":-0.21636992692947388,"12":-0.3561796545982361,"13":-0.5114461779594421,"14":-0.20707252621650696,"15":-0.4503321945667267,"16":-0.22574195265769958,"17":0.36455732583999634,"18":0.13032963871955872,"19":-0.2840140461921692,"20":-0.08867813646793365,"21":-0.3743439018726349,"22":-0.0037116927560418844,"23":-0.4636200964450836,"24":-0.3332544267177582,"25":-0.3801655173301697,"26":-0.2220127284526825,"27":-0.09280779957771301,"28":-0.4097285866737366,"29":-0.4075515866279602,"30":-0.23828856647014618,"31":-0.025975670665502548}},"23":{"bias":0.06352612376213074,"weights":{"0":-0.015598293393850327,"1":-0.30280429124832153,"2":0.09711495786905289,"3":0.3142656087875366,"4":-0.16399316489696503,"5":-0.01157913077622652,"6":-0.7757522463798523,"7":0.22647270560264587,"8":0.06345158815383911,"9":0.4203872084617615,"10":-0.2958199679851532,"11":-0.010824519209563732,"12":0.20993144810199738,"13":0.06609218567609787,"14":0.005116099026054144,"15":0.146576926112175,"16":-0.8769300580024719,"17":-0.13250772655010223,