function testEllipse(x_tgt, x_upo, y_upo, x_dwno, y_dwno, b, n)
{
	h = x_tgt / 2;
	a = h;
	
	test = 0;
	
	test1 = Math.pow(Math.abs((x_upo - h) / a) ,n) + Math.pow(Math.abs(y_upo / b),n);
	test2 = Math.pow(Math.abs((x_dwno - h) / a) ,n) + Math.pow(Math.abs(y_dwno / b),n);
	
	if(isNaN(test))
	{
		console.log(test);
	}
	
	if(test1 > test2) return test1;
	return test2;	
}

function evaluateArc(x_tgt,b,n)
{
	var old_y = 0;
	var arc = 0;
	for (var j=1; j<=100;j++)
	{
		x = j - 50;
		y = b * Math.pow((1 - Math.pow(Math.abs(x/(x_tgt/2)),n)),(1/n));
		if(j == 1)
		{
			arc = arc + Math.sqrt(y*y + 1) 
		}
		else
		{
			arc = arc + Math.sqrt((y - old_y)*(y - old_y) + 1) 
		}
		old_y = y;
	}	
	return arc;
}

function ellipseParams(x_tgt, x_upo, y_upo, x_dwno, y_dwno)
{
	var best_b = -1;
	var best_n = -1;
	var best_arc = 1000000;
 	var n = 10;
	
    while(true)
        {
            n = n - 0.1;
			if(n < 1)
			{
				break;				
			}
			var b = Math.max(y_upo, y_dwno) + 10;
            
            while(true)
			{
				b = b - 0.1;
				if(b < Math.max(y_upo, y_dwno))
				{
					b = Math.max(y_upo, y_dwno) + 0.5;
					break;					
				}
				test = testEllipse(x_tgt, x_upo, y_upo, x_dwno, y_dwno, b, n);
				if(test > 1.001)
				{
					b = b + 0.5;
					break;
				}
				else
				{
					var arc = evaluateArc(x_tgt,b,n);
						if(arc < best_arc)
						{
							best_arc = arc;
							best_b = b;
							best_n = n;							
						}
					
				}
			}
			
			
        }

        
	return [best_b,best_n];
}

function generateEllipsePoints(x_tgt,b,n)
{
	x = [];
	y = [];
	for (var j=0; j<101; j++){
		// abs( y / b ) ^ 3 = 1 - abs( x / a ) ^ 3
		x[j] = j - 50;
		y[j] = b * Math.pow((1 - Math.pow(Math.abs(x[j]/(x_tgt/2)),n)),(1/n));   
		x[j] = j;
	} 
	
	return {x: x, y: y};
}

function timeout(ms) {
    return new Promise(resolve => setTimeout(resolve, ms));
}

var jnn = '{"sizes":[4,32,32,32,16,2],"layers":[{"0":{},"1":{},"2":{},"3":{}},{"0":{"bias":-0.8273319602012634,"weights":{"0":-0.11883807927370071,"1":0.9394220113754272,"2":0.08387188613414764,"3":1.1157236099243164}},"1":{"bias":-0.32156407833099365,"weights":{"0":-0.09289313107728958,"1":0.1960650235414505,"2":-0.1307738870382309,"3":-0.05055474862456322}},"2":{"bias":-0.5372452735900879,"weights":{"0":-0.6998300552368164,"1":1.5344094038009644,"2":-0.29195544123649597,"3":-0.9922541379928589}},"3":{"bias":0.5747442841529846,"weights":{"0":-0.05370025709271431,"1":-0.2544718384742737,"2":0.14430657029151917,"3":-1.4088101387023926}},"4":{"bias":-2.29093337059021,"weights":{"0":-0.5915721654891968,"1":3.5158944129943848,"2":0.05549786239862442,"3":-2.2483856678009033}},"5":{"bias":0.3507753908634186,"weights":{"0":0.18407204747200012,"1":0.37376436591148376,"2":0.09585374593734741,"3":-1.6777615547180176}},"6":{"bias":-0.9537146687507629,"weights":{"0":-0.40379202365875244,"1":0.440647155046463,"2":0.05856888368725777,"3":1.7036945819854736}},"7":{"bias":-0.5755825042724609,"weights":{"0":0.2706299126148224,"1":0.1622673124074936,"2":0.4272300899028778,"3":2.3284170627593994}},"8":{"bias":1.4486632347106934,"weights":{"0":0.4042802155017853,"1":0.07451804727315903,"2":0.6023131608963013,"3":-2.9651124477386475}},"9":{"bias":-0.9116714596748352,"weights":{"0":-0.33476436138153076,"1":2.385467290878296,"2":-0.2606479525566101,"3":-2.0762457847595215}},"10":{"bias":1.2487648725509644,"weights":{"0":0.1961701214313507,"1":-0.36054015159606934,"2":0.7437223196029663,"3":-2.294816493988037}},"11":{"bias":-0.5077458024024963,"weights":{"0":-0.24577340483665466,"1":0.4936032295227051,"2":0.09194289147853851,"3":1.0394755601882935}},"12":{"bias":-3.2494900226593018,"weights":{"0":0.1605248898267746,"1":4.605035305023193,"2":-0.2406599223613739,"3":-1.8343561887741089}},"13":{"bias":-0.05711381137371063,"weights":{"0":-0.31396472454071045,"1":1.7449734210968018,"2":-0.052736010402441025,"3":-2.017681360244751}},"14":{"bias":-0.8929450511932373,"weights":{"0":-0.26830291748046875,"1":1.419102430343628,"2":-0.03274627402424812,"3":-0.2803614139556885}},"15":{"bias":0.9375036358833313,"weights":{"0":0.09398193657398224,"1":-0.3697722554206848,"2":-0.03827623650431633,"3":-1.817341685295105}},"16":{"bias":0.16575774550437927,"weights":{"0":-0.8017895221710205,"1":0.09372865408658981,"2":-0.9272875189781189,"3":-0.8349611163139343}},"17":{"bias":0.8233863711357117,"weights":{"0":-0.2756321132183075,"1":-0.7390471696853638,"2":-0.0660671517252922,"3":-1.307877540588379}},"18":{"bias":-0.448098748922348,"weights":{"0":0.09442138671875,"1":8.38705825805664,"2":-0.5648218989372253,"3":-7.112325191497803}},"19":{"bias":0.5833486318588257,"weights":{"0":-0.2934473156929016,"1":-0.6913596987724304,"2":-0.2837374210357666,"3":-1.2954164743423462}},"20":{"bias":-0.7289137840270996,"weights":{"0":-0.8589229583740234,"1":-1.6464474201202393,"2":-0.2738637626171112,"3":3.5656516551971436}},"21":{"bias":0.6353923082351685,"weights":{"0":-0.3942330777645111,"1":-0.5729594230651855,"2":-0.2892032265663147,"3":-1.242830514907837}},"22":{"bias":0.3385884165763855,"weights":{"0":-0.6321645975112915,"1":1.5232458114624023,"2":0.08936033397912979,"3":-2.112185001373291}},"23":{"bias":-0.5620964765548706,"weights":{"0":-0.8009822964668274,"1":1.2262258529663086,"2":-0.23811942338943481,"3":-0.7267965078353882}},"24":{"bias":0.6012572646141052,"weights":{"0":-0.3843061327934265,"1":-0.5414981842041016,"2":-0.5129963755607605,"3":-1.1658387184143066}},"25":{"bias":-0.4677285850048065,"weights":{"0":-0.461780309677124,"1":-0.28510960936546326,"2":0.03777956962585449,"3":1.7336889505386353}},"26":{"bias":-0.2223464995622635,"weights":{"0":0.2310338020324707,"1":1.150179386138916,"2":0.7624120712280273,"3":3.2497806549072266}},"27":{"bias":0.7861645817756653,"weights":{"0":0.03655572235584259,"1":-0.16794699430465698,"2":0.1851920187473297,"3":-1.8171192407608032}},"28":{"bias":1.0773608684539795,"weights":{"0":-0.3034062683582306,"1":-0.6581093668937683,"2":-0.15769240260124207,"3":-1.6629563570022583}},"29":{"bias":0.5789926052093506,"weights":{"0":-0.09577349573373795,"1":-0.293668657541275,"2":-0.28219836950302124,"3":-1.4724422693252563}},"30":{"bias":0.5245459675788879,"weights":{"0":-0.358096718788147,"1":-0.4623127281665802,"2":-0.37173837423324585,"3":-1.440157413482666}},"31":{"bias":-0.3343971073627472,"weights":{"0":-0.16251595318317413,"1":0.7498385310173035,"2":0.1337966024875641,"3":1.9100743532180786}}},{"0":{"bias":-0.013232400640845299,"weights":{"0":-0.15230043232440948,"1":-0.044250354170799255,"2":0.13474585115909576,"3":-0.09418583661317825,"4":-0.17758198082447052,"5":-0.18041419982910156,"6":0.06791732460260391,"7":0.05089225992560387,"8":0.21426837146282196,"9":0.06419119983911514,"10":-0.15369941294193268,"11":0.02060553804039955,"12":-0.1262497454881668,"13":-0.17922751605510712,"14":-0.1578618735074997,"15":-0.1841757595539093,"16":-0.05925825610756874,"17":-0.02146124094724655,"18":-0.8969319462776184,"19":-0.1261419802904129,"20":-0.17271341383457184,"21":-0.07853727042675018,"22":0.15470615029335022,"23":-0.004576581995934248,"24":-0.018149584531784058,"25":-0.05094698444008827,"26":-0.2495969980955124,"27":-0.03208654001355171,"28":0.0989735797047615,"29":-0.1933155506849289,"30":-0.23902243375778198,"31":-0.19069695472717285}},"1":{"bias":-0.06887169927358627,"weights":{"0":-0.13247068226337433,"1":-0.12955191731452942,"2":-0.05990784615278244,"3":0.06951124966144562,"4":-0.41209128499031067,"5":-0.047966402024030685,"6":-0.11054433882236481,"7":-0.1875556856393814,"8":0.40245866775512695,"9":-0.40730541944503784,"10":0.3260986804962158,"11":-0.26430371403694153,"12":-0.6574496626853943,"13":0.23456063866615295,"14":-0.23578618466854095,"15":0.2576884627342224,"16":0.3546381890773773,"17":0.23464949429035187,"18":-1.6445889472961426,"19":0.1997774839401245,"20":-0.6452586054801941,"21":0.2722405195236206,"22":0.019225964322686195,"23":-0.07017330825328827,"24":0.32450956106185913,"25":0.024834224954247475,"26":-0.3588966429233551,"27":0.05757720395922661,"28":0.014538973569869995,"29":0.17634855210781097,"30":0.20743948221206665,"31":-0.22170907258987427}},"2":{"bias":-0.11770228296518326,"weights":{"0":0.01841510646045208,"1":0.11775088310241699,"2":0.02991454117000103,"3":0.05299944430589676,"4":-0.3635099530220032,"5":-0.13301017880439758,"6":-0.15418490767478943,"7":-0.3024580776691437,"8":0.07318883389234543,"9":-0.1426638811826706,"10":0.1769639551639557,"11":-0.048246826976537704,"12":-0.23755429685115814,"13":-0.11482732743024826,"14":0.10238216817378998,"15":0.11822371929883957,"16":-0.0805443748831749,"17":-0.22771577537059784,"18":-0.7028790712356567,"19":0.015113172121345997,"20":-0.2857701778411865,"21":-0.18435876071453094,"22":-0.06280522793531418,"23":-0.039945561438798904,"24":-0.14806483685970306,"25":-0.03810302913188934,"26":-0.19351978600025177,"27":0.17474232614040375,"28":-0.09293219447135925,"29":-0.15951555967330933,"30":-0.0284136775881052,"31":-0.15822270512580872}},"3":{"bias":-0.6172819137573242,"weights":{"0":0.4246034622192383,"1":0.014883880503475666,"2":-0.21892406046390533,"3":-0.8698504567146301,"4":-0.3682667315006256,"5":-1.0604418516159058,"6":0.942690908908844,"7":0.770022451877594,"8":-1.6893399953842163,"9":-0.6715730428695679,"10":-1.4322865009307861,"11":0.4360133409500122,"12":-0.12131090462207794,"13":-1.0355850458145142,"14":-0.17542250454425812,"15":-1.1154519319534302,"16":-0.5755325555801392,"17":-0.891903817653656,"18":-0.7729637622833252,"19":-0.7540304660797119,"20":1.2617578506469727,"21":-0.8971119523048401,"22":-0.9826855659484863,"23":-0.10202281922101974,"24":-0.7989058494567871,"25":0.4541759192943573,"26":0.7092227339744568,"27":-1.0195415019989014,"28":-1.1859796047210693,"29":-0.8175913691520691,"30":-0.8115258812904358,"31":0.44137704372406006}},"4":{"bias":-0.4978758990764618,"weights":{"0":-0.06431911885738373,"1":-0.21437391638755798,"2":-0.1847054362297058,"3":-0.22387740015983582,"4":-0.05154229328036308,"5":-0.3913380205631256,"6":0.08509385585784912,"7":0.10143202543258667,"8":-0.2786850929260254,"9":-0.41154882311820984,"10":-0.25520044565200806,"11":0.11662017554044724,"12":-0.0439789742231369,"13":-0.46584969758987427,"14":-0.12402761727571487,"15":-0.43852609395980835,"16":-0.05186277627944946,"17":-0.2132265269756317,"18":-0.2567364573478699,"19":-0.32335102558135986,"20":0.3732272982597351,"21":-0.24066533148288727,"22":-0.2215723693370819,"23":-0.06323492527008057,"24":-0.398561954498291,"25":-0.010782171040773392,"26":0.22512903809547424,"27":-0.47569119930267334,"28":-0.4509916305541992,"29":-0.22820964455604553,"30":-0.3295963406562805,"31":0.15888570249080658}},"5":{"bias":-0.256345272064209,"weights":{"0":-0.15310028195381165,"1":-0.144476979970932,"2":0.1506916582584381,"3":-0.16865447163581848,"4":-0.33268916606903076,"5":0.07773198187351227,"6":0.03313916176557541,"7":-0.19675956666469574,"8":0.15288880467414856,"9":-0.3053927719593048,"10":-0.22335496544837952,"11":-0.04151124507188797,"12":-0.18513841927051544,"13":-0.04676756635308266,"14":0.05256962403655052,"15":-0.0391642227768898,"16":-0.19746847450733185,"17":0.09960425645112991,"18":-0.5906909704208374,"19":-0.11233194172382355,"20":-0.0560293048620224,"21":0.08658327162265778,"22":0.12576089799404144,"23":-0.10225885361433029,"24":0.09288206696510315,"25":-0.230507954955101,"26":-0.17022913694381714,"27":-0.10124331712722778,"28":-0.2058170735836029,"29":0.03636646643280983,"30":-0.16908851265907288,"31":-0.20885348320007324}},"6":{"bias":-0.06874623894691467,"weights":{"0":0.04688982665538788,"1":-0.14165745675563812,"2":-0.03397700935602188,"3":0.01305108517408371,"4":-0.6047033071517944,"5":0.19093094766139984,"6":-0.24822723865509033,"7":0.008019762113690376,"8":0.18780241906642914,"9":-0.3124483525753021,"10":0.038610853254795074,"11":0.0862697958946228,"12":-0.5462081432342529,"13":0.09796339273452759,"14":-0.12086007744073868,"15":0.32431554794311523,"16":0.3192974328994751,"17":0.29182976484298706,"18":-2.4644486904144287,"19":0.229841947555542,"20":-0.5068228244781494,"21":0.09612484276294708,"22":0.01283434871584177,"23":-0.025487352162599564,"24":0.28751128911972046,"25":-0.1212027370929718,"26":0.007398998364806175,"27":0.18250948190689087,"28":0.09722523391246796,"29":0.29541704058647156,"30":0.04866856336593628,"31":-0.1450587660074234}},"7":{"bias":-0.6152032017707825,"weights":{"0":0.32265692949295044,"1":-0.09149156510829926,"2":-0.5732535719871521,"3":-0.6477622389793396,"4":-0.5794984102249146,"5":-0.8534042835235596,"6":0.5651417374610901,"7":0.4513470530509949,"8":-1.2516549825668335,"9":-0.9111676812171936,"10":-0.9395920634269714,"11":0.21409504115581512,"12":-0.4768356382846832,"13":-0.6455442309379578,"14":0.041851483285427094,"15":-0.8477802872657776,"16":-0.49828919768333435,"17":-0.5393161177635193,"18":-0.6635399460792542,"19":-0.6136115789413452,"20":1.0536134243011475,"21":-0.4196559190750122,"22":-0.8435631990432739,"23":-0.3824852705001831,"24":-0.6266394257545471,"25":0.558838427066803,"26":0.41226789355278015,"27":-0.6848283410072327,"28":-0.7493986487388611,"29":-0.5263561606407166,"30":-0.6878522038459778,"31":0.344292014837265}},"8":{"bias":-0.4200823903083801,"weights":{"0":-0.15647470951080322,"1":-0.20729699730873108,"2":-0.22702187299728394,"3":-0.1918029934167862,"4":-0.32001209259033203,"5":-0.352905809879303,"6":0.2738193869590759,"7":0.14212071895599365,"8":-0.5016149282455444,"9":-0.19477695226669312,"10":-0.37415868043899536,"11":-0.1513635218143463,"12":-0.08608601242303848,"13":-0.22486399114131927,"14":-0.2058011293411255,"15":-0.39579734206199646,"16":-0.012294900603592396,"17":-0.384053111076355,"18":-0.17254625260829926,"19":-0.1217595562338829,"20":0.399050235748291,"21":-0.223562091588974,"22":-0.3460698425769806,"23":-0.025700343772768974,"24":-0.08170252293348312,"25":0.24301578104496002,"26":0.044683244079351425,"27":-0.24637100100517273,"28":-0.20916327834129333,"29":-0.3619510531425476,"30":-0.28571847081184387,"31":0.08036390691995621}},"9":{"bias":-0.4752819538116455,"weights":{"0":-1.3964914083480835,"1":-0.3392772376537323,"2":-0.683788001537323,"3":0.3665732741355896,"4":-0.9262956380844116,"5":0.25526514649391174,"6":-1.365365743637085,"7":-1.8873475790023804,"8":1.244274616241455,"9":-0.7135604023933411,"10":0.7416543960571289,"11":-1.1397192478179932,"12":-0.9000028371810913,"13":-0.22231025993824005,"14":-0.7784776091575623,"15":0.8590489625930786,"16":-0.030568290501832962,"17":0.6845148205757141,"18":-2.4286508560180664,"19":0.9004448652267456,"20":-1.899794101715088,"21":0.6460662484169006,"22":0.1275235414505005,"23":-0.3224213123321533,"24":0.36400309205055237,"25":-1.3094327449798584,"26":-2.6146578788757324,"27":0.8696491718292236,"28":1.1622023582458496,"29":0.7060401439666748,"30":0.7862834930419922,"31":-1.7753340005874634}},"10":{"bias":-0.3227681815624237,"weights":{"0":0.10077477991580963,"1":-0.2016153782606125,"2":-0.10064585506916046,"3":-0.12596392631530762,"4":-0.26170188188552856,"5":-0.011380770243704319,"6":0.12393178790807724,"7":0.20620505511760712,"8":-0.36897706985473633,"9":-0.18300579488277435,"10":-0.10617957264184952,"11":-0.11343424022197723,"12":0.00792177114635706,"13":-0.01943676359951496,"14":0.06123058497905731,"15":-0.3761345148086548,"16":0.05624079704284668,"17":-0.2755727171897888,"18":-0.4188868999481201,"19":-0.037759121507406235,"20":-0.10679686069488525,"21":-0.037479009479284286,"22":-0.1905823051929474,"23":-0.14921845495700836,"24":-0.2144954949617386,"25":0.09006010740995407,"26":0.15282206237316132,"27":-0.2259512096643448,"28":-0.3311302661895752,"29":-0.031337399035692215,"30":-0.161537766456604,"31":0.012302110902965069}},"11":{"bias":-0.20040519535541534,"weights":{"0":0.1408441662788391,"1":-0.26686203479766846,"2":-0.029622454196214676,"3":-0.4455817937850952,"4":-0.2562095522880554,"5":-0.40691474080085754,"6":0.10655797272920609,"7":0.11343952268362045,"8":-0.6318425536155701,"9":-0.03357958421111107,"10":-0.436404287815094,"11":-0.1625172346830368,"12":-0.07434283941984177,"13":-0.07012773305177689,"14":-0.013434271328151226,"15":-0.42979541420936584,"16":-0.15101057291030884,"17":-0.31653153896331787,"18":-0.1786545217037201,"19":-0.287836492061615,"20":0.10259179025888443,"21":-0.22058919072151184,"22":-0.2715717554092407,"23":-0.26449260115623474,"24":-0.18958956003189087,"25":-0.06931447982788086,"26":0.2215421050786972,"27":-0.512748658657074,"28":-0.38505831360816956,"29":-0.4212390184402466,"30":-0.2925586700439453,"31":0.09446800500154495}},"12":{"bias":-0.20001216232776642,"weights":{"0":-0.09424025565385818,"1":0.056854430586099625,"2":-0.15785087645053864,"3":-0.1419411152601242,"4":-0.20349669456481934,"5":-0.11338431388139725,"6":-0.21163424849510193,"7":-0.2146349996328354,"8":-0.04320976510643959,"9":0.029721699655056,"10":0.007133747451007366,"11":-0.25459808111190796,"12":-0.11032712459564209,"13":-0.02937409281730652,"14":-0.14308848977088928,"15":0.20477069914340973,"16":-0.05772411823272705,"17":-0.16762769222259521,"18":-0.5627554059028625,"19":-0.18242864310741425,"20":-0.24000759422779083,"21":-0.010786915197968483,"22":0.11656564474105835,"23":-0.24848595261573792,"24":-0.21497046947479248,"25":-0.013925102539360523,"26":-0.37316274642944336,"27":0.17466670274734497,"28":-0.09231434017419815,"29":-0.2155763804912567,"30":0.03929760307073593,"31":-0.1492345929145813}},"13":{"bias":-0.41551175713539124,"weights":{"0":0.14032256603240967,"1":-0.25525179505348206,"2":-0.10844434052705765,"3":-0.30224788188934326,"4":0.01979367434978485,"5":-0.030281856656074524,"6":0.2353312373161316,"7":0.21297460794448853,"8":-0.20497827231884003,"9":0.008421942591667175,"10":-0.3000377118587494,"11":-0.14563027024269104,"12":0.07354044169187546,"13":-0.11432148516178131,"14":-0.20852449536323547,"15":-0.38511741161346436,"16":-0.057456664741039276,"17":-0.34750616550445557,"18":-0.4419897198677063,"19":-0.3753511905670166,"20":0.21464453637599945,"21":-0.02759580686688423,"22":-0.040257930755615234,"23":-0.15700313448905945,"24":-0.21315452456474304,"25":0.1855681836605072,"26":0.3239840865135193,"27":-0.08175989985466003,"28":-0.3754563629627228,"29":-0.15627852082252502,"30":-0.21887528896331787,"31":0.15190842747688293}},"14":{"bias":-0.3920714557170868,"weights":{"0":-0.30891287326812744,"1":-0.151527538895607,"2":-0.31593185663223267,"3":0.22907643020153046,"4":-0.5932376384735107,"5":-0.0543639175593853,"6":-0.599292516708374,"7":-0.7968700528144836,"8":0.5645443201065063,"9":-0.142881378531456,"10":0.3858981430530548,"11":-0.3012496829032898,"12":-0.5106549859046936,"13":-0.0856831818819046,"14":-0.19488725066184998,"15":0.4427221417427063,"16":0.1845349669456482,"17":0.23923614621162415,"18":-1.4445278644561768,"19":0.11906608194112778,"20":-0.958644688129425,"21":-0.01908557116985321,"22":0.0665324404835701,"23":-0.21260966360569,"24":0.2297092080116272,"25":-0.261735200881958,"26":-0.9474887251853943,"27":0.04098783805966377,"28":0.39182108640670776,"29":0.09268642216920853,"30":0.34172120690345764,"31":-0.6795421242713928}},"15":{"bias":0.6884806752204895,"weights":{"0":0.07650690525770187,"1":-0.05557386577129364,"2":-0.2258998453617096,"3":0.40908801555633545,"4":-1.2192848920822144,"5":0.06321541965007782,"6":-0.018282076343894005,"7":-0.059699397534132004,"8":0.5256525874137878,"9":-0.26408177614212036,"10":0.49866876006126404,"11":0.1783735305070877,"12":-1.5018024444580078,"13":-0.02360730618238449,"14":-0.13245226442813873,"15":0.4742296040058136,"16":0.31027868390083313,"17":0.6505984663963318,"18":-1.5233416557312012,"19":0.49823495745658875,"20":0.10557720065116882,"21":0.3731749951839447,"22":0.13413144648075104,"23":-0.07979187369346619,"24":0.5348321795463562,"25":0.30104348063468933,"26":0.27519121766090393,"27":0.31431353092193604,"28":0.7363307476043701,"29":0.2583634853363037,"30":0.39561331272125244,"31":0.32474926114082336}},"16":{"bias":-0.7073144316673279,"weights":{"0":-0.12261633574962616,"1":-0.021778525784611702,"2":-0.34769678115844727,"3":-0.33135825395584106,"4":-0.3095196783542633,"5":-0.36613208055496216,"6":-0.020714547485113144,"7":0.20120060443878174,"8":-0.815070629119873,"9":-0.18550336360931396,"10":-0.37787267565727234,"11":0.04022913798689842,"12":-0.24658894538879395,"13":-0.25845852494239807,"14":0.055800989270210266,"15":-0.40668463706970215,"16":-0.14048981666564941,"17":-0.25418519973754883,"18":-0.07669012248516083,"19":-0.30711597204208374,"20":0.27484652400016785,"21":-0.3632769286632538,"22":-0.6034780740737915,"23":-0.15093405544757843,"24":-0.4150398075580597,"25":0.17705987393856049,"26":0.2157050222158432,"27":-0.2978745996952057,"28":-0.4176137149333954,"29":-0.3476543426513672,"30":-0.31467801332473755,"31":0.23208937048912048}},"17":{"bias":1.0779120922088623,"weights":{"0":-0.20230311155319214,"1":0.3016797602176666,"2":-0.4769321084022522,"3":0.5613719820976257,"4":-2.3794901371002197,"5":0.21280862390995026,"6":-0.03205253183841705,"7":0.5398155450820923,"8":0.9671833515167236,"9":-1.2737557888031006,"10":0.8725553750991821,"11":0.21222567558288574,"12":-3.190782070159912,"13":-0.31927210092544556,"14":-0.5935057997703552,"15":0.6111423969268799,"16":0.4962744116783142,"17":0.987230122089386,"18":-2.039222002029419,"19":0.7836188673973083,"20":0.44093117117881775,"21":0.9429152011871338,"22":-0.26106154918670654,"23":-0.45022696256637573,"24":0.9388118386268616,"25":0.4521906077861786,"26":0.8716058731079102,"27":0.7174263596534729,"28":0.8885987401008606,"29":0.6016636490821838,"30":0.8366608023643494,"31":0.3022700548171997}},"18":{"bias":-0.42823654413223267,"weights":{"0":0.08525118976831436,"1":-0.30991289019584656,"2":-0.49988359212875366,"3":-0.45761051774024963,"4":-0.3986131250858307,"5":-0.3538059592247009,"6":0.2629992365837097,"7":0.3429041802883148,"8":-0.8318174481391907,"9":-0.6118897199630737,"10":-0.8272102475166321,"11":0.04254848510026932,"12":-0.38407549262046814,"13":-0.4150379002094269,"14":-0.10040157288312912,"15":-0.6747164130210876,"16":-0.17291536927223206,"17":-0.5778545141220093,"18":-0.3074619174003601,"19":-0.4850335121154785,"20":0.6932899951934814,"21":-0.4450937807559967,"22":-0.541864812374115,"23":-0.0935041606426239,"24":-0.41024330258369446,"25":-0.03072311170399189,"26":0.2723286747932434,"27":-0.4901486039161682,"28":-0.5548785328865051,"29":-0.5479872226715088,"30":-0.48262205719947815,"31":0.2810291349887848}},"19":{"bias":0.8620627522468567,"weights":{"0":-0.08522050827741623,"1":0.3276316821575165,"2":-0.06916087120771408,"3":0.489282488822937,"4":-1.142899990081787,"5":0.3822741210460663,"6":-0.03131427615880966,"7":-0.03575689718127251,"8":0.661642849445343,"9":-0.5200532674789429,"10":0.4969539940357208,"11":0.019188744947314262,"12":-1.5280425548553467,"13":-0.04938641935586929,"14":-0.1432625949382782,"15":0.6114590764045715,"16":0.42492178082466125,"17":0.5182783007621765,"18":-1.644126057624817,"19":0.6492034196853638,"20":0.09843779355287552,"21":0.38801315426826477,"22":0.26485148072242737,"23":0.06413157284259796,"24":0.6120483875274658,"25":0.07403722405433655,"26":0.1868228167295456,"27":0.38979849219322205,"28":0.7119565606117249,"29":0.2474517971277237,"30":0.6179349422454834,"31":0.0816880390048027}},"20":{"bias":-0.5571053624153137,"weights":{"0":0.36074551939964294,"1":-0.015403012745082378,"2":-0.2753535807132721,"3":-0.8085169196128845,"4":-0.6558758616447449,"5":-0.8975949883460999,"6":0.29304125905036926,"7":0.45671385526657104,"8":-1.0950133800506592,"9":-0.7513124346733093,"10":-1.2175265550613403,"11":0.2823541760444641,"12":-0.20222114026546478,"13":-0.9665988087654114,"14":-0.09860827773809433,"15":-0.6025162935256958,"16":-0.32394200563430786,"17":-0.5659801363945007,"18":-0.82331383228302,"19":-0.5693187117576599,"20":1.131837248802185,"21":-0.5604231357574463,"22":-1.1064467430114746,"23":-0.34226080775260925,"24":-0.48612403869628906,"25":0.6238487958908081,"26":0.5191542506217957,"27":-0.9497160315513611,"28":-0.7339045405387878,"29":-0.8215615153312683,"30":-0.4721105694770813,"31":0.43339771032333374}},"21":{"bias":0.7291343808174133,"weights":{"0":-0.10560847818851471,"1":0.21980831027030945,"2":0.009927681647241116,"3":0.2152625322341919,"4":-1.2409062385559082,"5":0.2866213023662567,"6":-0.09356330335140228,"7":0.012121876701712608,"8":0.6398736834526062,"9":-0.3629143238067627,"10":0.5845289826393127,"11":0.15674883127212524,"12":-1.7792487144470215,"13":-0.1277458816766739,"14":-0.05513452738523483,"15":0.7018812298774719,"16":0.38351696729660034,"17":0.6583697199821472,"18":-1.624908208847046,"19":0.48745590448379517,"20":0.3201671838760376,"21":0.6849246025085449,"22":0.18125708401203156,"23":0.0027370911557227373,"24":0.5163556933403015,"25":0.3654603064060211,"26":0.11974866688251495,"27":0.3597065806388855,"28":0.7396499514579773,"29":0.3954711854457855,"30":0.38375797867774963,"31":0.1640777885913849}},"22":{"bias":-0.478555291891098,"weights":{"0":0.03556835651397705,"1":-0.22048111259937286,"2":-0.3917771577835083,"3":-0.18499399721622467,"4":-0.011875989846885204,"5":-0.4135637879371643,"6":0.04530268907546997,"7":0.17395059764385223,"8":-0.7445517182350159,"9":-0.4920528531074524,"10":-0.5134583115577698,"11":0.12235136330127716,"12":-0.05837276950478554,"13":-0.3001100718975067,"14":-0.058924805372953415,"15":-0.6023456454277039,"16":-0.37774133682250977,"17":-0.5051030516624451,"18":0.08882967382669449,"19":-0.32665780186653137,"20":0.4516564607620239,"21":-0.31557103991508484,"22":-0.4142903983592987,"23":-0.22445109486579895,"24":-0.41179466247558594,"25":0.19585508108139038,"26":0.07354050129652023,"27":-0.4739817976951599,"28":-0.5783336162567139,"29":-0.23879072070121765,"30":-0.408390074968338,"31":0.19866378605365753}},"23":{"bias":-0.4457371234893799,"weights":{"0":-0.06611978262662888,"1":-0.26311370730400085,"2":0.061235904693603516,"3":-0.25920525193214417,"4":-0.26613301038742065,"5":-0.2282557487487793,"6":0.24650850892066956,"7":0.15502801537513733,"8":-0.3519318103790283,"9":-0.11460969597101212,"10":-0.19605223834514618,"11":-0.20572176575660706,"12":0.07790494710206985,"13":-0.10927635431289673,"14":0.09536661207675934,"15":-0.1431569904088974,"16":-0.06306880712509155,"17":-0.26406586170196533,"18":-0.03409595042467117,"19":-0.20514364540576935,"20":0.34439805150032043,"21":-0.3915727138519287,"22":-0.3892395794391632,"23":-0.011020872741937637,"24":-0.1101524755358696,"25":-0.06734836101531982,"26":0.3519807755947113,"27":-0.13154621422290802,"28":-0.516686737537384,"29":-0.2707885503768921,"30":-0.4797500669956207,"31":-0.05798759311437607}},"24":{"bias":0.7258658409118652,"weights":{"0":-0.2037014663219452,"1":-0.043095529079437256,"2":-1.1549211740493774,"3":0.05054814741015434,"4":-1.6643524169921875,"5":-0.5651900768280029,"6":0.4030137062072754,"7":0.8908016085624695,"8":-0.16640940308570862,"9":-1.9235955476760864,"10":0.18087515234947205,"11":0.04036197066307068,"12":-1.401939868927002,"13":-1.6688592433929443,"14":-0.8786512613296509,"15":-0.07370619475841522,"16":-0.4937315583229065,"17":0.2753303647041321,"18":-4.257199287414551,"19":0.2916005253791809,"20":1.7309932708740234,"21":0.1508013904094696,"22":-1.4426275491714478,"23":-1.029530644416809,"24":0.048268724232912064,"25":0.8819215893745422,"26":1.0983279943466187,"27":-0.29646024107933044,"28":0.10046592354774475,"29":0.05015257000923157,"30":-0.12172237038612366,"31":0.2663256824016571}},"25":{"bias":-0.2996479868888855,"weights":{"0":0.41516536474227905,"1":-0.005460064392536879,"2":-0.5902106165885925,"3":-0.8813654780387878,"4":-0.6855105757713318,"5":-0.7287351489067078,"6":0.4464062750339508,"7":0.6036851406097412,"8":-1.3303182125091553,"9":-0.8181238174438477,"10":-1.123958706855774,"11":0.26840028166770935,"12":-0.5760636329650879,"13":-1.1035490036010742,"14":0.01689130626618862,"15":-0.9221322536468506,"16":-0.5143929719924927,"17":-0.7731235027313232,"18":-0.8121134638786316,"19":-0.5805649757385254,"20":1.18306303024292,"21":-0.7162254452705383,"22":-0.9269198179244995,"23":-0.27237004041671753,"24":-0.5227011442184448,"25":0.5343562364578247,"26":0.4089016318321228,"27":-0.9804640412330627,"28":-0.9016335010528564,"29":-0.6094510555267334,"30":-0.6568318009376526,"31":0.31905412673950195}},"26":{"bias":-0.12964104115962982,"weights":{"0":-0.21816816926002502,"1":-0.3224634528160095,"2":-0.22186477482318878,"3":0.20857127010822296,"4":-0.5953114032745361,"5":0.08595159649848938,"6":-0.23358044028282166,"7":-0.36659762263298035,"8":0.5912581086158752,"9":-0.37268832325935364,"10":0.4340144097805023,"11":-0.2578819990158081,"12":-0.44738903641700745,"13":0.0640927106142044,"14":-0.33027729392051697,"15":0.46628424525260925,"16":0.07943195849657059,"17":0.23120877146720886,"18":-1.607890009880066,"19":0.3588080108165741,"20":-1.140620231628418,"21":0.18004994094371796,"22":0.17140591144561768,"23":-0.05985012277960777,"24":0.19687911868095398,"25":-0.4138999581336975,"26":-0.7230727672576904,"27":0.42121875286102295,"28":0.15822814404964447,"29":0.28869199752807617,"30":0.3312070667743683,"31":-0.293842613697052}},"27":{"bias":0.050697870552539825,"weights":{"0":-0.16420945525169373,"1":-0.029751291498541832,"2":0.08185587078332901,"3":-0.15112470090389252,"4":-0.3599814176559448,"5":0.037912387400865555,"6":0.1742870956659317,"7":-0.10420840978622437,"8":0.19676664471626282,"9":-0.07964620739221573,"10":0.26246917247772217,"11":-0.06149272993206978,"12":-0.5862051844596863,"13":0.18641024827957153,"14":0.1062367781996727,"15":0.025556398555636406,"16":0.08361593633890152,"17":-0.18916571140289307,"18":-1.7260433435440063,"19":0.014529651962220669,"20":-0.3586586117744446,"21":0.16508761048316956,"22":0.1827612668275833,"23":-0.11704165488481522,"24":-0.15718376636505127,"25":0.021416325122117996,"26":-0.10440627485513687,"27":-0.024767449125647545,"28":-0.0717226043343544,"29":0.19117474555969238,"30":-0.045479077845811844,"31":0.06814967840909958}},"28":{"bias":0.28634917736053467,"weights":{"0":-0.012782171368598938,"1":0.037122782319784164,"2":0.061725813895463943,"3":0.008055972866714,"4":-0.7752769589424133,"5":0.03695402666926384,"6":0.2509298324584961,"7":0.14231261610984802,"8":0.42866697907447815,"9":-0.3055499792098999,"10":-0.0027775291819125414,"11":0.2921624183654785,"12":-1.198691964149475,"13":-0.0609709732234478,"14":-0.07176949828863144,"15":-0.01526529062539339,"16":0.4304002523422241,"17":0.22997747361660004,"18":-1.6952307224273682,"19":0.15898729860782623,"20":-0.014990758150815964,"21":0.14438866078853607,"22":0.21760064363479614,"23":0.10266058146953583,"24":0.28421708941459656,"25":0.408161461353302,"26":0.3461960554122925,"27":-0.030090445652604103,"28":0.34995797276496887,"29":0.0327177569270134,"30":0.24394989013671875,"31":0.44884541630744934}},"29":{"bias":-0.07445896416902542,"weights":{"0":0.0019487382378429174,"1":-0.19045282900333405,"2":-0.1236184760928154,"3":-0.19548726081848145,"4":-0.2664305567741394,"5":-0.14622150361537933,"6":0.06419333070516586,"7":0.1727244108915329,"8":-0.2417260855436325,"9":-0.2041541337966919,"10":-0.28223946690559387,"11":0.13181984424591064,"12":-0.04956310987472534,"13":-0.0952366292476654,"14":0.009563745930790901,"15":-0.34160664677619934,"16":-0.25646090507507324,"17":-0.31368187069892883,"18":-0.3821828067302704,"19":-0.28638961911201477,"20":-0.025831516832113266,"21":-0.02988230250775814,"22":-0.3361600935459137,"23":-0.05166666954755783,"24":-0.2786875069141388,"25":0.08848285675048828,"26":-0.07333149015903473,"27":-0.06304298341274261,"28":-0.26231497526168823,"29":-0.1280447244644165,"30":-0.19231875240802765,"31":0.013874013908207417}},"30":{"bias":-0.5688356161117554,"weights":{"0":0.040992893278598785,"1":0.006068234331905842,"2":-0.40705767273902893,"3":-0.33334431052207947,"4":-0.3743119239807129,"5":-0.17873863875865936,"6":0.21995536983013153,"7":0.14388245344161987,"8":-0.5671089291572571,"9":-0.3063047528266907,"10":-0.4294317960739136,"11":0.059034254401922226,"12":0.006752675399184227,"13":-0.2751460075378418,"14":-0.20790725946426392,"15":-0.2948375642299652,"16":-0.16909734904766083,"17":-0.4666745066642761,"18":-0.13947783410549164,"19":-0.22108997404575348,"20":0.42935910820961,"21":-0.4416738450527191,"22":-0.46049726009368896,"23":-0.31214767694473267,"24":-0.16331687569618225,"25":-0.09635226428508759,"26":0.32042327523231506,"27":-0.252948522567749,"28":-0.25342002511024475,"29":-0.4493733048439026,"30":-0.2588876783847809,"31":0.19606612622737885}},"31":{"bias":-0.3569069504737854,"weights":{"0":0.09029509127140045,"1":-0.012795685790479183,"2":0.11653509736061096,"3":-0.16566620767116547,"4":-0.2304075062274933,"5":-0.13307678699493408,"6":0.16255424916744232,"7":0.36520713567733765,"8":-0.22688540816307068,"9":-0.2663222849369049,"10":-0.14654898643493652,"11":0.045297179371118546,"12":0.04891239106655121,"13":-0.20397290587425232,"14":-0.1508452445268631,"15":-0.4075535833835602,"16":-0.19883982837200165,"17":-0.17538169026374817,"18":-0.3987067639827728,"19":-0.2252528965473175,"20":0.11702729016542435,"21":-0.03408898413181305,"22":-0.19691993296146393,"23":-0.0928153470158577,"24":-0.037100933492183685,"25":0.17686960101127625,"26":0.10305632650852203,"27":-0.36947450041770935,"28":-0.11245909333229065,"29":-0.10586018115282059,"30":-0.4556003212928772,"31":0.2181791216135025}}},{"0":{"bias":-0.37924012541770935,"weights":{"0":-0.10890497267246246,"1":-0.055763229727745056,"2":0.021816160529851913,"3":0.43524977564811707,"4":0.14398729801177979,"5":-0.024589603766798973,"6":-0.14653068780899048,"7":0.2203206568956375,"8":0.09018564969301224,"9":-0.730897068977356,"10":-0.12430272251367569,"11":0.19992227852344513,"12":-0.2671508193016052,"13":0.06530686467885971,"14":-0.40896767377853394,"15":-0.1095532551407814,"16":0.05317896232008934,"17":-0.502213716506958,"18":0.17358706891536713,"19":-0.33122602105140686,"20":0.2793005108833313,"21":-0.41566258668899536,"22":0.15571068227291107,"23":0.004799816757440567,"24":0.5157604813575745,"25":0.36665067076683044,"26":-0.4529237151145935,"27":-0.24668195843696594,"28":-0.40438511967658997,"29":-0.024221347644925117,"30":0.0793006420135498,"31":-0.09904766082763672}},"1":{"bias":-0.10951972007751465,"weights":{"0":-0.24056105315685272,"1":-0.3045412302017212,"2":-0.12970544397830963,"3":0.3821144104003906,"4":-0.025740889832377434,"5":-0.1893281191587448,"6":-0.2911694645881653,"7":0.3945242762565613,"8":0.03440957888960838,"9":-0.7927563786506653,"10":-0.23629821836948395,"11":-0.1403302103281021,"12":-0.025783460587263107,"13":-0.09791987389326096,"14":-0.3258797228336334,"15":-0.34767118096351624,"16":-0.08466188609600067,"17":-0.8877555727958679,"18":0.24735523760318756,"19":-0.18900485336780548,"20":0.26913321018218994,"21":-0.4273609220981598,"22":0.2560115456581116,"23":0.17577451467514038,"24":0.09956757724285126,"25":0.3454875648021698,"26":-0.2468462735414505,"27":-0.12467662990093231,"28":-0.1411697119474411,"29":-0.010930445976555347,"30":0.12994267046451569,"31":-0.20872241258621216}},"2":{"bias":-0.43818601965904236,"weights":{"0":-0.11131404340267181,"1":-0.12335716933012009,"2":-0.21064576506614685,"3":-0.20380592346191406,"4":-0.10918394476175308,"5":-0.025665557011961937,"6":-0.3013497292995453,"7":-0.10505234450101852,"8":-0.15021257102489471,"9":-0.41658273339271545,"10":-0.1901559978723526,"11":-0.10455155372619629,"12":-0.2736909091472626,"13":0.005761337000876665,"14":-0.03892508149147034,"15":-0.19948512315750122,"16":-0.16989240050315857,"17":-0.326477974653244,"18":0.0019289928022772074,"19":-0.09777594357728958,"20":-0.2097408026456833,"21":-0.07963629066944122,"22":-0.24210329353809357,"23":-0.1534896045923233,"24":-0.11004450917243958,"25":0.13279616832733154,"26":-0.019330231472849846,"27":-0.32747888565063477,"28":-0.21995937824249268,"29":-0.3460102081298828,"30":-0.02826314978301525,"31":-0.029449233785271645}},"3":{"bias":-0.04033808410167694,"weights":{"0":-0.1710704267024994,"1":-0.10079501569271088,"2":-0.224290668964386,"3":0.40489259362220764,"4":-0.15458619594573975,"5":-0.01925654523074627,"6":-0.30498209595680237,"7":0.35478922724723816,"8":0.16272665560245514,"9":-0.641569197177887,"10":-0.16265340149402618,"11":-0.05829683691263199,"12":0.04680473729968071,"13":-0.25323259830474854,"14":-0.44124147295951843,"15":-0.26879388093948364,"16":0.17755115032196045,"17":-0.8988946676254272,"18":-0.01823548972606659,"19":-0.4105481207370758,"20":0.3395811915397644,"21":-0.32404184341430664,"22":-0.0854620635509491,"23":0.09181126952171326,"24":0.2539348900318146,"25":0.46747785806655884,"26":-0.34581151604652405,"27":-0.3709372282028198,"28":-0.24174311757087708,"29":-0.004444988910108805,"30":0.05347387492656708,"31":-0.09561634808778763}},"4":{"bias":-0.3961753845214844,"weights":{"0":-0.05640425533056259,"1":-0.1333717703819275,"2":-0.23124702274799347,"3":-0.04257061332464218,"4":-0.09106256067752838,"5":0.004636142868548632,"6":-0.2536036968231201,"7":0.01851077191531658,"8":0.04642808437347412,"9":-0.40251100063323975,"10":-0.1353883445262909,"11":-0.14385360479354858,"12":-0.30633315443992615,"13":-0.18426066637039185,"14":-0.17698907852172852,"15":-0.10001751035451889,"16":0.0408441498875618,"17":-0.3693893253803253,"18":0.11717230081558228,"19":-0.38176125288009644,"20":0.2863374352455139,"21":-0.15552444756031036,"22":-0.19874459505081177,"23":-0.22398152947425842,"24":0.231302410364151,"25":0.040576737374067307,"26":-0.056966446340084076,"27":-0.05005807429552078,"28":-0.25279688835144043,"29":-0.04230182245373726,"30":0.1295182704925537,"31":-0.20478098094463348}},"5":{"bias":-0.39107051491737366,"weights":{"0":-0.007647516205906868,"1":-0.2756229043006897,"2":-0.1015557274222374,"3":0.2856495678424835,"4":0.2361946702003479,"5":-0.12794220447540283,"6":-0.2408437877893448,"7":0.4990655779838562,"8":-0.044489167630672455,"9":-0.6561418175697327,"10":0.013376470655202866,"11":0.1725592017173767,"12":0.02521381713449955,"13":0.09674008190631866,"14":-0.47503018379211426,"15":-0.47110167145729065,"16":0.24719607830047607,"17":-0.5812776684761047,"18":0.25224581360816956,"19":-0.1702783852815628,"20":0.5745881795883179,"21":-0.5487262010574341,"22":0.3228723406791687,"23":-0.13554026186466217,"24":0.267388254404068,"25":0.5864059329032898,"26":-0.4034999907016754,"27":-0.10720989108085632,"28":-0.40713855624198914,"29":-0.05637241154909134,"30":0.10577239096164703,"31":-0.015695367008447647}},"6":{"bias":-0.32764995098114014,"weights":{"0":-0.21994422376155853,"1":-0.2838355600833893,"2":-0.25123339891433716,"3":0.5326128602027893,"4":-0.02386265993118286,"5":-0.14961591362953186,"6":-0.2362901121377945,"7":0.48557206988334656,"8":0.017540087923407555,"9":-0.5745519399642944,"10":0.12623172998428345,"11":0.16348795592784882,"12":-0.09370657801628113,"13":0.1931302845478058,"14":-0.16846364736557007,"15":-0.27744051814079285,"16":0.16043531894683838,"17":-0.8481160402297974,"18":0.2442067712545395,"19":-0.23118850588798523,"20":0.6466853022575378,"21":-0.40824875235557556,"22":0.17030000686645508,"23":0.25335535407066345,"24":0.16047197580337524,"25":0.4121197462081909,"26":-0.39940759539604187,"27":-0.38493335247039795,"28":-0.18245510756969452,"29":-0.19019918143749237,"30":0.1914888471364975,"31":-0.029355337843298912}},"7":{"bias":0.009020971134305,"weights":{"0":-0.22175279259681702,"1":-0.03448029235005379,"2":-0.18515276908874512,"3":0.1589648276567459,"4":0.06019889563322067,"5":-0.20931224524974823,"6":-0.265859454870224,"7":0.10551082342863083,"8":0.031216420233249664,"9":-0.7757853865623474,"10":-0.21488003432750702,"11":0.09204746037721634,"12":0.10297761112451553,"13":-0.20550422370433807,"14":-0.22663676738739014,"15":-0.3655681014060974,"16":0.0471346378326416,"17":-0.7350789904594421,"18":0.2493944764137268,"19":-0.2585395872592926,"20":0.18963079154491425,"21":-0.5312992334365845,"22":0.12096724659204483,"23":-0.0274749044328928,"24":0.21611981093883514,"25":0.13226254284381866,"26":-0.14645591378211975,"27":-0.27274495363235474,"28":-0.4923018515110016,"29":0.08018796890974045,"30":0.09875071793794632,"31":-0.07021913677453995}},"8":{"bias":-0.2710318863391876,"weights":{"0":-0.13434571027755737,"1":0.056390851736068726,"2":-0.06677732616662979,"3":0.4673181176185608,"4":0.1349010467529297,"5":0.11424647271633148,"6":0.04144291207194328,"7":0.19229526817798615,"8":0.14547988772392273,"9":-1.0429948568344116,"10":-0.012952779419720173,"11":0.1518758237361908,"12":0.04400190711021423,"13":0.01538112759590149,"14":-0.32567495107650757,"15":-0.08324675261974335,"16":0.020557720214128494,"17":-0.21528302133083344,"18":0.07924126088619232,"19":0.036763232201337814,"20":0.2021164894104004,"21":0.10905121266841888,"22":0.15042515099048615,"23":0.1879328340291977,"24":1.131066083908081,"25":0.31221482157707214,"26":-0.5107818245887756,"27":0.07194893807172775,"28":0.1348773092031479,"29":0.15792809426784515,"30":0.13907143473625183,"31":0.27434098720550537}},"9":{"bias":-0.08981014788150787,"weights":{"0":-0.21394376456737518,"1":-0.4360668957233429,"2":-0.052551332861185074,"3":0.2137356549501419,"4":-0.05551166832447052,"5":-0.00573147926479578,"6":-0.368927001953125,"7":0.43520766496658325,"8":0.17176277935504913,"9":-0.44961127638816833,"10":-0.008694132789969444,"11":-0.1071537435054779,"12":-0.27010902762413025,"13":-0.15780815482139587,"14":-0.4981275796890259,"15":-0.4260619878768921,"16":0.23571088910102844,"17":-0.6398779153823853,"18":0.290566086769104,"19":-0.25622105598449707,"20":0.12720158696174622,"21":-0.30007362365722656,"22":0.1521637737751007,"23":0.18100929260253906,"24":0.03992834687232971,"25":0.30619168281555176,"26":-0.4598962664604187,"27":-0.41482916474342346,"28":-0.2796647548675537,"29":0.02880730852484703,"30":-0.035559821873903275,"31":-0.14669252932071686}},"10":{"bias":-0.18220999836921692,"weights":{"0":-0.044101782143116,"1":-0.42134490609169006,"2":-0.20958948135375977,"3":-0.11860188096761703,"4":0.0461086742579937,"5":-0.29528355598449707,"6":-0.2838088572025299,"7":-0.03935185819864273,"8":-0.15386353433132172,"9":-0.3289577066898346,"10":-0.10134240239858627,"11":-0.24266654253005981,"12":-0.0655083954334259,"13":-0.04387206584215164,"14":-0.35731738805770874,"15":-0.37180089950561523,"16":0.15620136260986328,"17":-0.36499664187431335,"18":0.0017562040593475103,"19":-0.2631406784057617,"20":0.06664643436670303,"21":-0.2132343053817749,"22":0.1558905839920044,"23":-0.06434784829616547,"24":-0.07327543199062347,"25":0.19429412484169006,"26":-0.12249668687582016,"27":-0.3842170834541321,"28":-0.13991479575634003,"29":-0.31063398718833923,"30":0.08114432543516159,"31":0.013836568221449852}},"11":{"bias":-0.04250264912843704,"weights":{"0":-0.10424529761075974,"1":-0.38670647144317627,"2":0.01884218491613865,"3":0.7920800447463989,"4":0.13842719793319702,"5":-0.17248199880123138,"6":-0.14146049320697784,"7":0.39139053225517273,"8":0.05882256478071213,"9":-0.7136309742927551,"10":-0.18463990092277527,"11":0.21834488213062286,"12":-0.22103939950466156,"13":0.14910520613193512,"14":-0.45891863107681274,"15":-0.48914438486099243,"16":0.14211729168891907,"17":-1.002732276916504,"18":0.4270206689834595,"19":-0.5934706330299377,"20":0.6063989996910095,"21":-0.4776758551597595,"22":0.36409369111061096,"23":0.230207622051239,"24":0.45392778515815735,"25":0.6864018440246582,"26":-0.3407423496246338,"27":-0.1176760196685791,"28":-0.3569709062576294,"29":-0.023584147915244102,"30":0.249490886926651,"31":-0.13351236283779144}},"12":{"bias":-0.10462234169244766,"weights":{"0":-0.310970664024353,"1":-0.3496100902557373,"2":-0.02247791551053524,"3":0.08346361666917801,"4":-0.22943329811096191,"5":0.0263070035725832,"6":-0.30732110142707825,"7":-0.031104858964681625,"8":0.07290666550397873,"9":-0.22140958905220032,"10":-0.1473875343799591,"11":0.09004351496696472,"12":-0.23269586265087128,"13":-0.043213918805122375,"14":-0.07938173413276672,"15":-0.2747020721435547,"16":-0.05185043066740036,"17":-0.46811702847480774,"18":-0.0690137967467308,"19":-0.154452845454216,"20":0.1646888703107834,"21":-0.2750960886478424,"22":-0.16392867267131805,"23":-0.06005466729402542,"24":-0.18823672831058502,"25":-0.09739253669977188,"26":-0.20943832397460938,"27":-0.26710793375968933,"28":-0.357740581035614,"29":-0.29529812932014465,"30":-0.017228564247488976,"31":-0.0608183778822422}},"13":{"bias":-0.2672322690486908,"weights":{"0":-0.07430069148540497,"1":-0.23920224606990814,"2":-0.04631620645523071,"3":-0.14669089019298553,"4":-0.0688074454665184,"5":-0.2542121112346649,"6":-0.31211262941360474,"7":-0.2040347158908844,"8":0.10321447998285294,"9":-0.12932701408863068,"10":0.0064599900506436825,"11":0.07312653958797455,"12":-0.09778700768947601,"13":-0.12051676958799362,"14":-0.22163917124271393,"15":-0.23660628497600555,"16":-0.25631749629974365,"17":-0.5140234231948853,"18":-0.09975165128707886,"19":-0.1367148756980896,"20":0.018138719722628593,"21":-0.36154770851135254,"22":-0.19912166893482208,"23":-0.16069576144218445,"24":-0.21296294033527374,"25":0.17419569194316864,"26":-0.08326984196901321,"27":-0.06227131560444832,"28":-0.10156714171171188,"29":-0.296991765499115,"30":-0.16006256639957428,"31":-0.03661947697401047}},"14":{"bias":-0.6323979496955872,"weights":{"0":0.030759606510400772,"1":0.5849284529685974,"2":0.04665729030966759,"3":-0.2313956469297409,"4":-0.3543030023574829,"5":-0.16073738038539886,"6":0.5589627027511597,"7":-0.032120220363140106,"8":-0.4313981235027313,"9":1.9000840187072754,"10":-0.48474541306495667,"11":-0.15057969093322754,"12":0.09301862120628357,"13":-0.533592700958252,"14":0.6581864953041077,"15":-0.26158416271209717,"16":-0.4306856095790863,"17":-0.24409732222557068,"18":-0.22826561331748962,"19":-0.21032589673995972,"20":-0.09968438744544983,"21":-0.22399704158306122,"22":-0.16625158488750458,"23":-0.3927296996116638,"24":-2.021841287612915,"25":-0.28351029753685,"26":0.7276350855827332,"27":0.17741914093494415,"28":-0.1345224827528,"29":-0.17672735452651978,"30":-0.4264225363731384,"31":-0.5698338747024536}},"15":{"bias":-0.27441713213920593,"weights":{"0":0.1781087964773178,"1":0.05910101905465126,"2":-0.16138625144958496,"3":0.7033509016036987,"4":-0.03714287281036377,"5":-0.008219114504754543,"6":-0.20047728717327118,"7":0.5923709273338318,"8":0.13390801846981049,"9":-1.0928353071212769,"10":-0.2957913875579834,"11":0.010099222883582115,"12":-0.04835028946399689,"13":-0.025162238627672195,"14":-0.34131917357444763,"15":-0.22961761057376862,"16":0.2686921954154968,"17":-0.8033324480056763,"18":0.3575551509857178,"19":-0.6071720123291016,"20":0.4835106134414673,"21":-0.30748772621154785,"22":0.12335237860679626,"23":0.09971936047077179,"24":0.5408249497413635,"25":0.6482453942298889,"26":-0.3719020485877991,"27":-0.08736671507358551,"28":-0.31785860657691956,"29":0.02323378250002861,"30":-0.04017109423875809,"31":-0.21143898367881775}},"16":{"bias":-0.36487531661987305,"weights":{"0":-0.10520662367343903,"1":-0.2434595674276352,"2":-0.0982193648815155,"3":0.36652231216430664,"4":0.20889517664909363,"5":-0.22164511680603027,"6":-0.40536972880363464,"7":0.10479941964149475,"8":0.20570985972881317,"9":-0.6907123327255249,"10":-0.022547747939825058,"11":-0.0988750010728836,"12":0.06358575075864792,"13":-0.0007802060572430491,"14":-0.16190332174301147,"15":-0.3887532949447632,"16":0.1251155436038971,"17":-0.5919743180274963,"18":0.01962285488843918,"19":-0.20478732883930206,"20":0.19268906116485596,"21":-0.24441298842430115,"22":0.014621743001043797,"23":-0.08285798132419586,"24":0.21234014630317688,"25":0.14124412834644318,"26":-0.10255760699510574,"27":-0.035688336938619614,"28":-0.2731906771659851,"29":0.07427554577589035,"30":0.13488200306892395,"31":-0.09187592566013336}},"17":{"bias":-0.3015502691268921,"weights":{"0":-0.23830023407936096,"1":-0.31969085335731506,"2":-0.014552341774106026,"3":0.6915377974510193,"4":0.03668292239308357,"5":0.06738150119781494,"6":-0.13855086266994476,"7":0.5271339416503906,"8":0.1595582813024521,"9":-0.8781226873397827,"10":-0.12206412851810455,"11":0.09629453718662262,"12":0.0844496563076973,"13":-0.0065919687040150166,"14":-0.3437577486038208,"15":-0.40687185525894165,"16":-0.1245141252875328,"17":-0.6318148374557495,"18":0.26570233702659607,"19":-0.5639483332633972,"20":0.3452974557876587,"21":-0.30971255898475647,"22":0.31541210412979126,"23":0.15782839059829712,"24":0.4005809724330902,"25":0.29769912362098694,"26":-0.29627516865730286,"27":-0.015774747356772423,"28":-0.24051353335380554,"29":0.09854066371917725,"30":0.25160494446754456,"31":0.08711984753608704}},"18":{"bias":-0.4263366162776947,"weights":{"0":-0.179778054356575,"1":-0.1424994021654129,"2":-0.23711052536964417,"3":0.5083419680595398,"4":0.09383693337440491,"5":-0.19316601753234863,"6":-0.3651263117790222,"7":0.39403435587882996,"8":-0.006397502962499857,"9":-0.8493879437446594,"10":0.04479829967021942,"11":-0.0470673143863678,"12":-0.15789571404457092,"13":-0.13112656772136688,"14":-0.26815545558929443,"15":-0.22023332118988037,"16":0.2476126253604889,"17":-0.5878803730010986,"18":0.3484690189361572,"19":-0.1932041198015213,"20":0.5069418549537659,"21":-0.3696073889732361,"22":0.2718847393989563,"23":-0.09488353878259659,"24":0.3573567867279053,"25":0.5831254124641418,"26":-0.43965572118759155,"27":-0.2633785903453827,"28":-0.4940137267112732,"29":-0.15019182860851288,"30":0.13778580725193024,"31":0.08495870977640152}},"19":{"bias":-0.2453448623418808,"weights":{"0":-0.2539675533771515,"1":-0.2975707948207855,"2":-0.14221592247486115,"3":0.3487677574157715,"4":0.18952953815460205,"5":-0.11943656951189041,"6":-0.10415559262037277,"7":0.3037537932395935,"8":0.01780451275408268,"9":-0.3629753887653351,"10":0.03881393373012543,"11":0.11133626848459244,"12":-0.13611382246017456,"13":-0.2072087675333023,"14":-0.26010966300964355,"15":-0.416289746761322,"16":-0.022314690053462982,"17":-0.6046872138977051,"18":0.21584998071193695,"19":-0.4138908088207245,"20":0.36229437589645386,"21":-0.371511846780777,"22":0.2403932809829712,"23":-0.0624183714389801,"24":0.0011648382060229778,"25":0.2595774233341217,"26":-0.3361192047595978,"27":-0.3354606628417969,"28":-0.27750280499458313,"29":0.060435399413108826,"30":-0.10983890295028687,"31":-0.25556814670562744}},"20":{"bias":0.026372788473963737,"weights":{"0":0.06192512810230255,"1":-0.17259575426578522,"2":-0.15598496794700623,"3":0.6131649613380432,"4":0.0029564397409558296,"5":-0.07190855592489243,"6":-0.07607045769691467,"7":0.3809613287448883,"8":-0.0992509201169014,"9":-0.49628621339797974,"10":0.0547705739736557,"11":0.21793799102306366,"12":0.07342243939638138,"13":0.008770179003477097,"14":-0.3572084307670593,"15":-0.4792616665363312,"16":-0.10155010968446732,"17":-1.033942461013794,"18":0.42455634474754333,"19":-0.5579420924186707,"20":0.5934264063835144,"21":-0.4706953167915344,"22":-0.048207126557826996,"23":-0.15721172094345093,"24":0.4868580996990204,"25":0.6629011631011963,"26":-0.24965764582157135,"27":-0.2343657910823822,"28":-0.3051036596298218,"29":-0.13002774119377136,"30":0.15967996418476105,"31":0.10797850042581558}},"21":{"bias":-0.22007553279399872,"weights":{"0":-0.19204586744308472,"1":0.006227003876119852,"2":-0.26595982909202576,"3":0.36935657262802124,"4":0.24403207004070282,"5":-0.029117446392774582,"6":-0.2985588312149048,"7":0.29744136333465576,"8":0.2327255755662918,"9":-0.526698887348175,"10":0.0929909497499466,"11":-0.06386930495500565,"12":-0.020873455330729485,"13":0.11565177142620087,"14":-0.39753735065460205,"15":-0.4572529196739197,"16":0.22727160155773163,"17":-0.7313271760940552,"18":0.43051913380622864,"19":-0.2633444666862488,"20":0.5417293310165405,"21":-0.5961739420890808,"22":-0.05449908971786499,"23":-0.09631626307964325,"24":0.5366693139076233,"25":0.5587456226348877,"26":-0.17367571592330933,"27":-0.22303742170333862,"28":-0.36025485396385193,"29":0.11046996712684631,"30":-0.07616975158452988,"31":0.12041536718606949}},"22":{"bias":-0.2843247354030609,"weights":{"0":-0.18491017818450928,"1":-0.17594687640666962,"2":-0.1443129926919937,"3":0.6437999606132507,"4":-0.09787001460790634,"5":-0.04174478352069855,"6":-0.2318248450756073,"7":0.5856989026069641,"8":-0.02648305706679821,"9":-0.7355562448501587,"10":0.03115428052842617,"11":-0.0138944610953331,"12":-0.22600486874580383,"13":0.018609734252095222,"14":-0.12531141936779022,"15":-0.4176720380783081,"16":0.11177395284175873,"17":-0.8777781128883362,"18":0.15370416641235352,"19":-0.2879723608493805,"20":0.3010917603969574,"21":-0.35002291202545166,"22":0.2910558581352234,"23":0.17032644152641296,"24":0.5154004693031311,"25":0.46192091703414917,"26":-0.411598265171051,"27":-0.22310739755630493,"28":-0.15779131650924683,"29":0.11076388508081436,"30":0.12744483351707458,"31":-0.10145178437232971}},"23":{"bias":-0.230529323220253,"weights":{"0":0.09128208458423615,"1":-0.39277660846710205,"2":0.002014316851273179,"3":0.6609110832214355,"4":-0.0770334005355835,"5":-0.031949397176504135,"6":-0.22443892061710358,"7":0.5959190130233765,"8":0.09651517122983932,"9":-0.46137169003486633,"10":-0.10019458085298538,"11":-0.08041771501302719,"12":-0.15971480309963226,"13":-0.12583108246326447,"14":-0.2890413999557495,"15":-0.46900856494903564,"16":0.22251524031162262,"17":-0.7265547513961792,"18":0.18535956740379333,"19":-0.4995396137237549,"20":0.30547040700912476,"21":-0.48040464520454407,"22":0.28877779841423035,"23":0.2561310827732086,"24":0.26952558755874634,"25":0.6831083297729492,"26":-0.28991231322288513,"27":-0.33504727482795715,"28":-0.23130789399147034,"29":-0.07607525587081909,"30":0.2338227927684784,"31":0.17585419118404388}},"24":{"bias":-0.2840579152107239,"weights":{"0":-0.2519109547138214,"1":-0.17086230218410492,"2":-0.12826339900493622,"3":-0.07549547404050827,"4":-0.20286673307418823,"5":-0.16211408376693726,"6":-0.15133768320083618,"7":0.04038405418395996,"8":0.07713936269283295,"9":-0.3228532373905182,"10":-0.08041919022798538,"11":-0.1934637725353241,"12":-0.12473144382238388,"13":-0.1750137358903885,"14":-0.29447418451309204,"15":-0.29075947403907776,"16":-0.10594359785318375,"17":-0.42768606543540955,"18":-0.11413979530334473,"19":-0.08508932590484619,"20":-0.039308007806539536,"21":-0.1275673359632492,"22":-0.23482733964920044,"23":0.11777223646640778,"24":-0.2377433329820633,"25":-0.19880226254463196,"26":-0.21744485199451447,"27":-0.04054075479507446,"28":-0.3241148293018341,"29":-0.21535548567771912,"30":-0.09072417765855789,"31":-0.12064442038536072}},"25":{"bias":-0.11503394693136215,"weights":{"0":-0.19459782540798187,"1":0.02345060370862484,"2":-0.07167071104049683,"3":0.6640557050704956,"4":0.13078074157238007,"5":-0.06877957284450531,"6":-0.2742534279823303,"7":0.31662917137145996,"8":-0.0032866622786968946,"9":-0.9613727927207947,"10":-0.106340192258358,"11":-0.04360637441277504,"12":-0.007383671589195728,"13":-0.17175057530403137,"14":-0.516268789768219,"15":-0.3194068372249603,"16":0.17296385765075684,"17":-0.826393723487854,"18":0.1211947649717331,"19":-0.5338267087936401,"20":0.5457576513290405,"21":-0.3952152729034424,"22":0.3146481513977051,"23":-0.14353500306606293,"24":0.3078564405441284,"25":0.4389644265174866,"26":-0.4576912522315979,"27":-0.16956567764282227,"28":-0.21884436905384064,"29":0.0838790312409401,"30":0.2771841883659363,"31":-0.028094269335269928}},"26":{"bias":-0.0807960107922554,"weights":{"0":-0.11606185138225555,"1":-0.12363269925117493,"2":-0.1547260582447052,"3":0.35987088084220886,"4":0.007902732118964195,"5":-0.18806958198547363,"6":-0.29154011607170105,"7":0.15245318412780762,"8":0.05259217321872711,"9":-0.4000503122806549,"10":-0.1972137838602066,"11":0.179144486784935,"12":-0.1539427936077118,"13":-0.05835728719830513,"14":-0.2938544452190399,"15":-0.38064703345298767,"16":0.20079569518566132,"17":-0.7734981179237366,"18":0.09742956608533859,"19":-0.32311466336250305,"20":0.11009147018194199,"21":-0.2864544093608856,"22":0.15740536153316498,"23":-0.045621108263731,"24":0.3006264269351959,"25":0.06453925371170044,"26":-0.1908065527677536,"27":-0.327128529548645,"28":-0.3471754789352417,"29":0.028841117396950722,"30":-0.0845930203795433,"31":-0.01815030537545681}},"27":{"bias":-0.3059477210044861,"weights":{"0":-0.0733155906200409,"1":-0.25094321370124817,"2":0.06941372156143188,"3":0.7077903151512146,"4":0.1652592122554779,"5":-0.14433717727661133,"6":-0.36653435230255127,"7":0.6516478657722473,"8":0.12311644107103348,"9":-0.5974475145339966,"10":0.05928453430533409,"11":0.21398527920246124,"12":0.03271704539656639,"13":-0.07376321405172348,"14":-0.32071080803871155,"15":-0.1910914033651352,"16":0.115201435983181,"17":-1.0039516687393188,"18":0.38806602358818054,"19":-0.5114539861679077,"20":0.4958586096763611,"21":-0.24889326095581055,"22":0.13162939250469208,"23":-0.10501968115568161,"24":0.5383235216140747,"25":0.4169093370437622,"26":-0.26922407746315,"27":-0.09349273145198822,"28":-0.5016231536865234,"29":-0.006940183229744434,"30":0.34602099657058716,"31":0.149140864610672}},"28":{"bias":-0.06360263377428055,"weights":{"0":-0.015312496572732925,"1":-0.08224767446517944,"2":-0.042297013103961945,"3":0.499569833278656,"4":0.103330098092556,"5":-0.2090267837047577,"6":-0.308026522397995,"7":0.5744144320487976,"8":0.0917811468243599,"9":-0.6141751408576965,"10":0.08241616934537888,"11":0.05757809430360794,"12":0.0031672664918005466,"13":-0.01986830309033394,"14":-0.507765531539917,"15":-0.4011426866054535,"16":0.23854652047157288,"17":-0.8109815120697021,"18":0.26173093914985657,"19":-0.47622501850128174,"20":0.6685014367103577,"21":-0.4682711958885193,"22":0.04548230394721031,"23":-0.13502894341945648,"24":0.14834697544574738,"25":0.5402717590332031,"26":-0.4740269184112549,"27":-0.3256407082080841,"28":-0.4537065029144287,"29":-0.12575826048851013,"30":0.01569017954170704,"31":0.12637953460216522}},"29":{"bias":0.27058717608451843,"weights":{"0":0.11516288667917252,"1":-0.4133952260017395,"2":-0.06651175767183304,"3":1.0045356750488281,"4":0.03127136826515198,"5":-0.13248750567436218,"6":-0.31573617458343506,"7":0.6192771196365356,"8":0.2541545629501343,"9":-0.7349175214767456,"10":-0.08956769108772278,"11":0.20539766550064087,"12":-0.2735270857810974,"13":0.21618413925170898,"14":-0.39203134179115295,"15":-0.4957244098186493,"16":-0.07366269081830978,"17":-1.0465123653411865,"18":0.17911645770072937,"19":-0.6134803891181946,"20":0.8978201746940613,"21":-0.6751359701156616,"22":0.21198873221874237,"23":0.1068955585360527,"24":0.47868236899375916,"25":0.798154354095459,"26":-0.3343238830566406,"27":-0.13531731069087982,"28":-0.42097681760787964,"29":-0.21039167046546936,"30":-0.02750292420387268,"31":0.08530600368976593}},"30":{"bias":-0.16155612468719482,"weights":{"0":0.1119205430150032,"1":-0.15494227409362793,"2":0.11276403069496155,"3":0.7554742693901062,"4":0.14397186040878296,"5":-0.09370530396699905,"6":-0.32353901863098145,"7":0.4968263804912567,"8":0.013086749240756035,"9":-0.8940669298171997,"10":0.0676344558596611,"11":-0.08344809710979462,"12":-0.1297558844089508,"13":-0.20399196445941925,"14":-0.4226590692996979,"15":-0.48277097940444946,"16":0.23075984418392181,"17":-0.7750126719474792,"18":0.29046446084976196,"19":-0.37496137619018555,"20":0.5172008275985718,"21":-0.5361143350601196,"22":0.031084051355719566,"23":0.16803313791751862,"24":0.5005186200141907,"25":0.71722811460495,"26":-0.3369782865047455,"27":-0.19957925379276276,"28":-0.31120923161506653,"29":-0.10343782603740692,"30":0.17901626229286194,"31":-0.1951206624507904}},"31":{"bias":-0.26087868213653564,"weights":{"0":-0.23041507601737976,"1":-0.1745733767747879,"2":-0.03680730611085892,"3":0.21254883706569672,"4":0.09246017783880234,"5":-0.030711255967617035,"6":-0.3938312828540802,"7":0.45080479979515076,"8":-0.0017148993210867047,"9":-0.652002215385437,"10":0.020288772881031036,"11":0.08977887779474258,"12":-0.11380762606859207,"13":0.03719518333673477,"14":-0.28830686211586,"15":-0.4697808623313904,"16":0.2111528515815735,"17":-0.5965701937675476,"18":0.3454494774341583,"19":-0.3009291887283325,"20":0.3823394179344177,"21":-0.49034300446510315,"22":0.05537181347608566,"23":-0.11081796884536743,"24":0.2385503500699997,"25":0.3643679916858673,"26":-0.3424842953681946,"27":-0.016958139836788177,"28":-0.3474394977092743,"29":-0.1494840383529663,"30":0.014134488068521023,"31":-0.20187261700630188}}},{"0":{"bias":-0.2204245626926422,"weights":{"0":-0.4547637104988098,"1":-0.4859929084777832,"2":0.020560206845402718,"3":-0.1429756134748459,"4":-0.3423203229904175,"5":-0.43138784170150757,"6":-0.24384665489196777,"7":-0.4313148260116577,"8":-0.4520895183086395,"9":-0.4479151964187622,"10":-0.09295845776796341,"11":-0.49341103434562683,"12":-0.21934756636619568,"13":-0.051322996616363525,"14":0.5947363972663879,"15":-0.32149749994277954,"16":-0.3826194107532501,"17":-0.40954145789146423,"18":-0.2108141928911209,"19":-0.1494145542383194,"20":-0.47506827116012573,"21":-0.3131575286388397,"22":-0.34740257263183594,"23":-0.28808221220970154,"24":-0.11499548703432083,"25":-0.3858707845211029,"26":-0.3385501205921173,"27":-0.4698270857334137,"28":-0.2569764256477356,"29":-0.38212406635284424,"30":-0.4582837224006653,"31":-0.2982560992240906}},"1":{"bias":-0.05192922428250313,"weights":{"0":-0.262498676776886,"1":-0.37049877643585205,"2":-0.05496782809495926,"3":-0.46428418159484863,"4":-0.3381831645965576,"5":-0.48395588994026184,"6":-0.24637126922607422,"7":-0.12385742366313934,"8":-0.2165299504995346,"9":-0.5355322360992432,"10":-0.38436126708984375,"11":-0.5880885124206543,"12":-0.21561582386493683,"13":-0.018566254526376724,"14":0.38546571135520935,"15":-0.39828741550445557,"16":-0.2937769591808319,"17":-0.45945367217063904,"18":-0.44287872314453125,"19":-0.23742443323135376,"20":-0.20893199741840363,"21":-0.493354856967926,"22":-0.4664264917373657,"23":-0.3096369206905365,"24":-0.33802342414855957,"25":-0.32119637727737427,"26":-0.29567456245422363,"27":-0.5428986549377441,"28":-0.5669244527816772,"29":-0.6335095763206482,"30":-0.24441058933734894,"31":-0.2109694927930832}},"2":{"bias":-0.18723979592323303,"weights":{"0":-0.3117581903934479,"1":-0.38987401127815247,"2":-0.20361199975013733,"3":-0.4328877925872803,"4":-0.21069717407226562,"5":-0.28920257091522217,"6":-0.37249556183815,"7":-0.4065662920475006,"8":-0.5250606536865234,"9":-0.18501512706279755,"10":-0.05480228364467621,"11":-0.6942407488822937,"12":0.00522593455389142,"13":-0.09605061262845993,"14":0.4557430148124695,"15":-0.4333176612854004,"16":-0.10263260453939438,"17":-0.23787201941013336,"18":-0.46369290351867676,"19":-0.2778410017490387,"20":-0.355112761259079,"21":-0.24956999719142914,"22":-0.2137918919324875,"23":-0.265375018119812,"24":0.04126127436757088,"25":-0.5425073504447937,"26":-0.16446207463741302,"27":-0.6054285764694214,"28":-0.28111186623573303,"29":-0.628734827041626,"30":-0.4504789710044861,"31":-0.28242307901382446}},"3":{"bias":0.24120132625102997,"weights":{"0":-0.07683110237121582,"1":-0.43465331196784973,"2":-0.40303122997283936,"3":-0.18729107081890106,"4":-0.08905797451734543,"5":-0.18564863502979279,"6":-0.5085176825523376,"7":-0.4633733928203583,"8":0.04354964196681976,"9":-0.2020944505929947,"10":-0.23328794538974762,"11":-0.6469358801841736,"12":-0.4241788685321808,"13":-0.3529954254627228,"14":-0.09941282123327255,"15":-0.4210434556007385,"16":-0.3699522316455841,"17":-0.19771672785282135,"18":-0.4568471610546112,"19":-0.20335876941680908,"20":-0.396574467420578,"21":-0.29287683963775635,"22":-0.3785119950771332,"23":-0.22543230652809143,"24":-0.25947126746177673,"25":-0.3783986568450928,"26":-0.41033220291137695,"27":-0.4640823006629944,"28":-0.5767834782600403,"29":-0.5766703486442566,"30":-0.38477060198783875,"31":-0.48235422372817993}},"4":{"bias":-0.02228890359401703,"weights":{"0":-0.23281286656856537,"1":-0.2893442213535309,"2":-0.33534595370292664,"3":-0.27985769510269165,"4":-0.3492436408996582,"5":-0.19807440042495728,"6":-0.22083322703838348,"7":-0.23893433809280396,"8":0.28401318192481995,"9":-0.5138022303581238,"10":-0.371391624212265,"11":-0.7087897658348083,"12":-0.3765268921852112,"13":-0.2867657244205475,"14":0.12455467879772186,"15":-0.13824652135372162,"16":-0.13910150527954102,"17":-0.2295677661895752,"18":-0.519336998462677,"19":-0.26902419328689575,"20":-0.5181862711906433,"21":-0.49132007360458374,"22":-0.27109384536743164,"23":-0.5651057958602905,"24":-0.2686145305633545,"25":-0.17530006170272827,"26":-0.25711265206336975,"27":-0.483707994222641,"28":-0.3929921090602875,"29":-0.6823166608810425,"30":-0.3397350013256073,"31":-0.4614616632461548}},"5":{"bias":-0.17698821425437927,"weights":{"0":-0.42855507135391235,"1":-0.2927732765674591,"2":-0.34428343176841736,"3":-0.35653549432754517,"4":-0.244632750749588,"5":-0.25974389910697937,"6":-0.24285772442817688,"7":-0.33701252937316895,"8":-0.22222816944122314,"9":-0.12048257887363434,"10":-0.26980793476104736,"11":-0.4790967106819153,"12":-0.137231707572937,"13":0.04245593398809433,"14":0.549703061580658,"15":-0.5055618286132812,"16":-0.33530089259147644,"17":-0.4822416603565216,"18":-0.3177816569805145,"19":-0.14225946366786957,"20":-0.41836249828338623,"21":-0.4012609124183655,"22":-0.5078368782997131,"23":-0.34600630402565,"24":-0.016343967989087105,"25":-0.2469552457332611,"26":-0.3599579334259033,"27":-0.38892853260040283,"28":-0.4952385425567627,"29":-0.6683565378189087,"30":-0.38114112615585327,"31":-0.4805032014846802}},"6":{"bias":-0.16055236756801605,"weights":{"0":-0.3119250535964966,"1":-0.20838743448257446,"2":0.09381197392940521,"3":-0.3867575228214264,"4":0.0653236135840416,"5":-0.5021290183067322,"6":-0.2717055380344391,"7":-0.09497686475515366,"8":-0.6480619311332703,"9":-0.2682172954082489,"10":-0.18578879535198212,"11":-0.558535099029541,"12":-0.06473345309495926,"13":-0.15653176605701447,"14":0.8971908092498779,"15":-0.5546506643295288,"16":-0.10574860125780106,"17":-0.5524434447288513,"18":-0.2617515027523041,"19":-0.39461904764175415,"20":-0.5374731421470642,"21":-0.28593170642852783,"22":-0.47537264227867126,"23":-0.3442120850086212,"24":0.09988486766815186,"25":-0.4466979503631592,"26":-0.17175759375095367,"27":-0.5278699398040771,"28":-0.33291736245155334,"29":-0.5889376401901245,"30":-0.5278260707855225,"31":-0.19263610243797302}},"7":{"bias":-0.34414681792259216,"weights":{"0":-0.35523873567581177,"1":-0.3411675989627838,"2":-0.1500953584909439,"3":-0.2661544680595398,"4":-0.28791236877441406,"5":-0.2778414487838745,"6":-0.3030712902545929,"7":-0.24643170833587646,"8":-0.29720431566238403,"9":-0.2766494154930115,"10":-0.1237512156367302,"11":-0.3461720943450928,"12":-0.08053481578826904,"13":-0.07181569933891296,"14":0.48421698808670044,"15":-0.4132775366306305,"16":-0.23004865646362305,"17":-0.4149000346660614,"18":-0.33174923062324524,"19":-0.23708400130271912,"20":-0.2639923095703125,"21":-0.5364730358123779,"22":-0.5605247616767883,"23":-0.4515730142593384,"24":-0.008111805655062199,"25":-0.3803612291812897,"26":-0.21062098443508148,"27":-0.559370756149292,"28":-0.3837449848651886,"29":-0.3373141586780548,"30":-0.3030855059623718,"31":-0.33373066782951355}},"8":{"bias":-0.22984784841537476,"weights":{"0":-0.2682976722717285,"1":-0.4494587779045105,"2":0.10651089996099472,"3":-0.18291234970092773,"4":0.07460527867078781,"5":-0.42365607619285583,"6":-0.5047642588615417,"7":-0.4432109296321869,"8":-0.2863154411315918,"9":-0.2190854251384735,"10":-0.1419953852891922,"11":-0.6041777729988098,"12":0.03868837282061577,"13":-0.13460847735404968,"14":0.7699584364891052,"15":-0.5548152327537537,"16":-0.14699968695640564,"17":-0.5115168690681458,"18":-0.29707974195480347,"19":-0.37630903720855713,"20":-0.49240419268608093,"21":-0.4371533989906311,"22":-0.39956772327423096,"23":-0.22816039621829987,"24":-0.1116342693567276,"25":-0.28682100772857666,"26":-0.05152500420808792,"27":-0.29083845019340515,"28":-0.47971951961517334,"29":-0.6288276314735413,"30":-0.6026211380958557,"31":-0.20988333225250244}},"9":{"bias":-0.22183652222156525,"weights":{"0":-0.4284974932670593,"1":-0.16534440219402313,"2":0.03829510882496834,"3":-0.32032230496406555,"4":-0.009458253160119057,"5":-0.4881899356842041,"6":-0.518734872341156,"7":-0.26915404200553894,"8":-0.4198826849460602,"9":-0.2441868782043457,"10":-0.05897891893982887,"11":-0.3785938024520874,"12":-0.13306260108947754,"13":-0.0895422175526619,"14":0.7210720181465149,"15":-0.4303610622882843,"16":-0.24878638982772827,"17":-0.47293177247047424,"18":-0.519830584526062,"19":-0.1984720081090927,"20":-0.30314645171165466,"21":-0.4175015091896057,"22":-0.22376321256160736,"23":-0.41026434302330017,"24":-0.12532058358192444,"25":-0.3345220386981964,"26":-0.3662116825580597,"27":-0.5096265077590942,"28":-0.5611797571182251,"29":-0.6251625418663025,"30":-0.47225186228752136,"31":-0.22401724755764008}},"10":{"bias":-0.337536096572876,"weights":{"0":-0.3406738340854645,"1":-0.10233449935913086,"2":-0.032948486506938934,"3":-0.5089151859283447,"4":-0.10887737572193146,"5":-0.3208818733692169,"6":-0.4478599727153778,"7":-0.2648048996925354,"8":-0.38772642612457275,"9":-0.4235871434211731,"10":-0.06499193608760834,"11":-0.3512905538082123,"12":-0.17135047912597656,"13":-0.17905935645103455,"14":0.6709440350532532,"15":-0.4784998893737793,"16":-0.3671707808971405,"17":-0.2746066153049469,"18":-0.2573089003562927,"19":-0.1325504183769226,"20":-0.4216698408126831,"21":-0.31629443168640137,"22":-0.552919864654541,"23":-0.40950092673301697,"24":-0.24373742938041687,"25":-0.3965093195438385,"26":-0.33604493737220764,"27":-0.2524252235889435,"28":-0.5289938449859619,"29":-0.36101117730140686,"30":-0.21426893770694733,"31":-0.30453136563301086}},"11":{"bias":-0.1344515085220337,"weights":{"0":-0.366085946559906,"1":-0.26290762424468994,"2":-0.012594686821103096,"3":-0.4737057685852051,"4":-0.1926233023405075,"5":-0.45354604721069336,"6":-0.23701919615268707,"7":-0.4500896632671356,"8":-0.2976212799549103,"9":-0.22225534915924072,"10":-0.19959412515163422,"11":-0.558173418045044,"12":-0.38331031799316406,"13":-0.25953176617622375,"14":0.25017037987709045,"15":-0.20508265495300293,"16":-0.33518359065055847,"17":-0.23066221177577972,"18":-0.3912911117076874,"19":-0.17943981289863586,"20":-0.5531458854675293,"21":-0.26589834690093994,"22":-0.19418086111545563,"23":-0.4539134204387665,"24":-0.053752269595861435,"25":-0.22944334149360657,"26":-0.3721259534358978,"27":-0.34308868646621704,"28":-0.2826508581638336,"29":-0.7297102808952332,"30":-0.4729495048522949,"31":-0.5183632969856262}},"12":{"bias":-0.02840854413807392,"weights":{"0":-0.35752785205841064,"1":-0.4824037551879883,"2":-0.07052031904459,"3":-0.309638649225235,"4":0.0032215481624007225,"5":-0.22911496460437775,"6":-0.38841676712036133,"7":-0.33639124035835266,"8":0.3011654317378998,"9":-0.48471689224243164,"10":-0.4140198230743408,"11":-0.3141261637210846,"12":-0.3796493411064148,"13":-0.08904986083507538,"14":-0.08138851076364517,"15":-0.1352737843990326,"16":-0.3370032012462616,"17":-0.11389415711164474,"18":-0.48030826449394226,"19":-0.3180612027645111,"20":-0.5776584148406982,"21":-0.14433573186397552,"22":-0.41347214579582214,"23":-0.531747579574585,"24":-0.42712658643722534,"25":-0.48391178250312805,"26":-0.42016860842704773,"27":-0.24529863893985748,"28":-0.43836548924446106,"29":-0.6098455190658569,"30":-0.1964334100484848,"31":-0.3862137198448181}},"13":{"bias":0.5651721358299255,"weights":{"0":-0.15271618962287903,"1":-0.406919002532959,"2":-0.31114256381988525,"3":-0.5450244545936584,"4":0.07556219398975372,"5":-0.6916690468788147,"6":-0.5154773592948914,"7":-0.4094887673854828,"8":0.4424733817577362,"9":-0.5677204132080078,"10":-0.07002095133066177,"11":-0.8170458674430847,"12":-0.054999418556690216,"13":-0.056334562599658966,"14":0.31274083256721497,"15":-0.40074867010116577,"16":-0.18392592668533325,"17":-0.4775584638118744,"18":-0.23366880416870117,"19":-0.5669015645980835,"20":-0.30279263854026794,"21":-0.33739787340164185,"22":-0.2741517722606659,"23":-0.6141641736030579,"24":0.02633015625178814,"25":-0.498149573802948,"26":-0.05625233054161072,"27":-0.5447160005569458,"28":-0.6914708614349365,"29":-0.8997825980186462,"30":-0.6667726635932922,"31":-0.3372274339199066}},"14":{"bias":-0.3697931170463562,"weights":{"0":-0.3294985294342041,"1":-0.1728912889957428,"2":0.08406292647123337,"3":-0.14021912217140198,"4":-0.08211975544691086,"5":-0.20444728434085846,"6":-0.20968329906463623,"7":-0.04065324738621712,"8":-0.4962250888347626,"9":-0.15959003567695618,"10":-0.22357429563999176,"11":-0.4514888525009155,"12":0.11780431121587753,"13":0.11268702894449234,"14":0.9412540793418884,"15":-0.5590331554412842,"16":-0.25535497069358826,"17":-0.29147565364837646,"18":-0.38647139072418213,"19":-0.24844886362552643,"20":-0.4871465265750885,"21":-0.5213412046432495,"22":-0.2463953047990799,"23":-0.36296454071998596,"24":-0.12644149363040924,"25":-0.4865790903568268,"26":-0.348143994808197,"27":-0.4466136693954468,"28":-0.2079508751630783,"29":-0.5433642268180847,"30":-0.44090741872787476,"31":-0.24469295144081116}},"15":{"bias":-0.1724730134010315,"weights":{"0":-0.17084051668643951,"1":-0.24850107729434967,"2":0.03933147341012955,"3":-0.16359646618366241,"4":-0.3018200695514679,"5":-0.25096598267555237,"6":-0.446330189704895,"7":-0.3516996204853058,"8":-0.44190067052841187,"9":-0.07929934561252594,"10":0.03652455285191536,"11":-0.4098805785179138,"12":-0.15257425606250763,"13":0.09955397248268127,"14":0.8206087946891785,"15":-0.5664486885070801,"16":-0.33634626865386963,"17":-0.4562988579273224,"18":-0.41077521443367004,"19":-0.20508357882499695,"20":-0.4313862919807434,"21":-0.4820127785205841,"22":-0.4907227158546448,"23":-0.5134924054145813,"24":0.05544896423816681,"25":-0.5518569946289062,"26":-0.2898309826850891,"27":-0.4359457194805145,"28":-0.17545334994792938,"29":-0.3479461967945099,"30":-0.648655354976654,"31":-0.2158905267715454}}},{"0":{"bias":7.25114107131958,"weights":{"0":-1.3609652519226074,"1":-1.470368504524231,"2":-1.426332950592041,"3":-1.5192381143569946,"4":-1.4929031133651733,"5":-1.4319013357162476,"6":-1.5076559782028198,"7":-1.2945915460586548,"8":-1.5471285581588745,"9":-1.4674363136291504,"10":-1.3314908742904663,"11":-1.4178436994552612,"12":-1.452233910560608,"13":-2.127401828765869,"14":-1.3229936361312866,"15":-1.4105767011642456}},"1":{"bias":-2.4336445331573486,"weights":{"0":-0.6102750301361084,"1":-0.11763361096382141,"2":-0.6729912757873535,"3":0.4019390344619751,"4":0.44365963339805603,"5":-0.4195486307144165,"6":-1.0390570163726807,"7":-0.5197536945343018,"8":-0.8260822296142578,"9":-0.720515787601471,"10":-0.5922051072120667,"11":-0.12892819941043854,"12":0.515881359577179,"13":-0.035843390971422195,"14":-1.1624467372894287,"15":-1.0112700462341309}}}],"outputLookup":true,"inputLookup":true,"activation":"sigmoid","trainOpts":{"iterations":10000,"errorThresh":0.0004,"log":true,"logPeriod":100,"learningRate":0.3,"momentum":0.1,"callbackPeriod":10,"beta1":0.9,"beta2":0.999,"epsilon":1e-8}}';

//var jnn = '{"sizes":[4,32,32,32,16,2],"layers":[{"0":{},"1":{},"2":{},"3":{}},{"0":{"bias":0.33115190267562866,"weights":{"0":0.04133932664990425,"1":-0.7685896754264832,"2":-0.037326592952013016,"3":-0.5098894238471985}},"1":{"bias":-0.37538573145866394,"weights":{"0":-0.5053816437721252,"1":-0.359595388174057,"2":-0.6150321364402771,"3":-0.4403845965862274}},"2":{"bias":0.06259718537330627,"weights":{"0":-0.32309490442276,"1":-0.5782517790794373,"2":-0.996148943901062,"3":-0.9206927418708801}},"3":{"bias":-0.3263297975063324,"weights":{"0":-0.8616488575935364,"1":1.7402427196502686,"2":-0.5201830863952637,"3":1.9335572719573975}},"4":{"bias":-0.2591806948184967,"weights":{"0":-0.5952474474906921,"1":-0.5286573767662048,"2":-0.26339247822761536,"3":-0.5135898590087891}},"5":{"bias":-0.10345513373613358,"weights":{"0":0.8294887542724609,"1":-0.8534150123596191,"2":0.63246750831604,"3":-1.5632833242416382}},"6":{"bias":-0.0367138497531414,"weights":{"0":-0.41649678349494934,"1":-0.575201690196991,"2":-0.5558982491493225,"3":-0.7778593897819519}},"7":{"bias":-0.5886897444725037,"weights":{"0":-0.055197302252054214,"1":0.6606867909431458,"2":-0.6362577080726624,"3":1.268526315689087}},"8":{"bias":-1.7889928817749023,"weights":{"0":-0.2912493050098419,"1":2.0565590858459473,"2":-0.010770478285849094,"3":-1.1226078271865845}},"9":{"bias":-0.2272689938545227,"weights":{"0":-0.40244460105895996,"1":-0.5863101482391357,"2":-0.11908610165119171,"3":-0.6743709444999695}},"10":{"bias":-0.32031485438346863,"weights":{"0":-0.2360266149044037,"1":-0.4511569142341614,"2":-0.4510607421398163,"3":-0.48483556509017944}},"11":{"bias":-0.3870300054550171,"weights":{"0":0.3011815547943115,"1":-1.3812156915664673,"2":-0.32505810260772705,"3":-1.738482117652893}},"12":{"bias":0.05186118930578232,"weights":{"0":0.29380443692207336,"1":-0.893439531326294,"2":0.5498790144920349,"3":-1.172654390335083}},"13":{"bias":-2.704124927520752,"weights":{"0":1.7300971746444702,"1":2.8364927768707275,"2":-0.3773805797100067,"3":-3.9488511085510254}},"14":{"bias":0.04649217054247856,"weights":{"0":-0.0593922957777977,"1":-0.7637516260147095,"2":-0.33538466691970825,"3":-1.0551583766937256}},"15":{"bias":0.2693541944026947,"weights":{"0":-0.3829648196697235,"1":-0.8026698231697083,"2":-0.9234662652015686,"3":-1.1766384840011597}},"16":{"bias":-0.3961729109287262,"weights":{"0":-0.16447709500789642,"1":-0.47210443019866943,"2":-0.4655800461769104,"3":-0.5100900530815125}},"17":{"bias":-0.09826100617647171,"weights":{"0":-0.4639629125595093,"1":-0.6915423274040222,"2":-0.09666525572538376,"3":-0.672540545463562}},"18":{"bias":-1.0381200313568115,"weights":{"0":0.20901347696781158,"1":1.4063302278518677,"2":-0.3046920597553253,"3":0.20546485483646393}},"19":{"bias":-1.9454272985458374,"weights":{"0":-1.5767451524734497,"1":2.380892276763916,"2":0.426279753446579,"3":-2.7817282676696777}},"20":{"bias":-0.8726662993431091,"weights":{"0":-0.23849686980247498,"1":0.7883524894714355,"2":-0.10373340547084808,"3":-0.37978875637054443}},"21":{"bias":-0.12132585048675537,"weights":{"0":0.23836669325828552,"1":-2.8258583545684814,"2":-0.6405234932899475,"3":-3.0636115074157715}},"22":{"bias":-0.15443803369998932,"weights":{"0":-0.2590447962284088,"1":-0.5274132490158081,"2":-0.781237006187439,"3":-0.7639325857162476}},"23":{"bias":-0.15751950442790985,"weights":{"0":0.47314056754112244,"1":-0.7925044298171997,"2":0.43423691391944885,"3":-1.1480553150177002}},"24":{"bias":-0.5422034859657288,"weights":{"0":0.07578124105930328,"1":6.55540132522583,"2":-0.7173587083816528,"3":-6.854518890380859}},"25":{"bias":-0.7332509756088257,"weights":{"0":-0.201239675283432,"1":1.2404698133468628,"2":-0.6627247929573059,"3":1.1861631870269775}},"26":{"bias":-1.7648521661758423,"weights":{"0":0.24234597384929657,"1":-3.946653366088867,"2":-0.029586125165224075,"3":4.143095970153809}},"27":{"bias":0.5178062319755554,"weights":{"0":-0.09617575258016586,"1":-1.1191189289093018,"2":0.37344053387641907,"3":-0.6245651245117188}},"28":{"bias":-0.3604755699634552,"weights":{"0":-0.2585375905036926,"1":-0.4108825922012329,"2":-0.4044336974620819,"3":-0.3679463267326355}},"29":{"bias":0.03237098455429077,"weights":{"0":-0.05618693307042122,"1":-0.6835572719573975,"2":-0.3179534077644348,"3":-0.7331551313400269}},"30":{"bias":-0.20862752199172974,"weights":{"0":-0.04732074961066246,"1":-0.7649823427200317,"2":0.1616823524236679,"3":-0.912797749042511}},"31":{"bias":0.04627954214811325,"weights":{"0":0.02485986053943634,"1":-0.847619891166687,"2":-0.3887284994125366,"3":-1.159295916557312}}},{"0":{"bias":-0.19902460277080536,"weights":{"0":0.03872975707054138,"1":-0.09816500544548035,"2":-0.01469349954277277,"3":-0.31613439321517944,"4":-0.18639248609542847,"5":-0.09292130172252655,"6":0.01820676028728485,"7":-0.05628976970911026,"8":-0.1386532336473465,"9":0.013915558345615864,"10":-0.1484353095293045,"11":0.1462581902742386,"12":0.08755365014076233,"13":-0.09807427227497101,"14":-0.08257021754980087,"15":0.14867979288101196,"16":-0.06732198596000671,"17":-0.20800864696502686,"18":-0.01826927252113819,"19":-0.2629505395889282,"20":-0.19435611367225647,"21":0.10535027086734772,"22":-0.16816072165966034,"23":-0.007450598757714033,"24":-0.2907795011997223,"25":-0.26553797721862793,"26":-0.01924261450767517,"27":-0.2136395275592804,"28":-0.22354789078235626,"29":0.011910910718142986,"30":-0.05447336658835411,"31":0.17205791175365448}},"1":{"bias":0.08447083085775375,"weights":{"0":0.17863018810749054,"1":-0.05416589975357056,"2":-0.025495361536741257,"3":-0.4779984951019287,"4":0.08093439787626266,"5":0.17720012366771698,"6":0.10020934045314789,"7":0.02482088841497898,"8":-0.4221021234989166,"9":-0.1446252465248108,"10":0.19027471542358398,"11":0.05532226338982582,"12":0.014982777647674084,"13":-0.5294004082679749,"14":0.19894295930862427,"15":0.27042868733406067,"16":0.09614422172307968,"17":0.14944711327552795,"18":0.022211860865354538,"19":-0.5841770172119141,"20":-0.2698417007923126,"21":0.5832521319389343,"22":-0.004542662296444178,"23":0.21989402174949646,"24":-0.6297261714935303,"25":-0.3105618953704834,"26":-1.00734281539917,"27":0.04247109964489937,"28":-0.02221059426665306,"29":0.1761339157819748,"30":0.29915690422058105,"31":0.1584411859512329}},"2":{"bias":-0.26047396659851074,"weights":{"0":0.0914744958281517,"1":0.01683644764125347,"2":0.22497190535068512,"3":-0.7978342771530151,"4":0.09976270794868469,"5":0.22287631034851074,"6":-0.0007725127507001162,"7":-0.5425243973731995,"8":-0.24760690331459045,"9":0.054146550595760345,"10":-0.05719606205821037,"11":0.553301215171814,"12":0.328646719455719,"13":-0.6096407175064087,"14":0.18797852098941803,"15":0.28916940093040466,"16":-0.04017490893602371,"17":0.2622564733028412,"18":-0.47008106112480164,"19":-0.6093029379844666,"20":-0.31993943452835083,"21":0.47639328241348267,"22":0.0750017762184143,"23":0.2671969532966614,"24":0.07740791141986847,"25":-0.5642465353012085,"26":-0.11973080784082413,"27":0.37402743101119995,"28":-0.08371307700872421,"29":0.0023872184101492167,"30":0.29535192251205444,"31":0.2833126187324524}},"3":{"bias":-0.016054682433605194,"weights":{"0":0.07676278054714203,"1":-0.2441767454147339,"2":0.06133823096752167,"3":-0.5297150015830994,"4":-0.19567440450191498,"5":0.18428605794906616,"6":-0.04622982442378998,"7":-0.23116040229797363,"8":-0.5074321627616882,"9":-0.246206134557724,"10":-0.15430396795272827,"11":0.3001028597354889,"12":0.12683646380901337,"13":-0.4164048135280609,"14":0.08350324630737305,"15":0.1910916268825531,"16":0.03592553734779358,"17":-0.19873745739459991,"18":-0.34360915422439575,"19":-0.6349456906318665,"20":-0.24053002893924713,"21":0.58349609375,"22":0.11623606830835342,"23":0.19438490271568298,"24":-0.7278122305870056,"25":-0.14078111946582794,"26":-1.3632539510726929,"27":0.20552025735378265,"28":0.09053695201873779,"29":0.11179882287979126,"30":0.2017267644405365,"31":0.07178444415330887}},"4":{"bias":-0.13534021377563477,"weights":{"0":-0.356773316860199,"1":-0.2747809588909149,"2":-0.37654736638069153,"3":0.3636067807674408,"4":-0.1802772432565689,"5":-0.3745001554489136,"6":-0.4292832016944885,"7":0.3319395184516907,"8":0.3233897089958191,"9":-0.3326639235019684,"10":-0.23317064344882965,"11":-0.4626184403896332,"12":-0.3452109694480896,"13":0.7757800817489624,"14":-0.3531191051006317,"15":-0.39863336086273193,"16":-0.06137290224432945,"17":-0.28482523560523987,"18":-0.0011882978724315763,"19":0.4604133665561676,"20":0.18946079909801483,"21":-0.34552913904190063,"22":-0.3073139190673828,"23":-0.17139297723770142,"24":0.3904050290584564,"25":0.09857618063688278,"26":1.7346346378326416,"27":-0.13504071533679962,"28":-0.3221457302570343,"29":-0.3612096905708313,"30":-0.13460174202919006,"31":-0.15269319713115692}},"5":{"bias":-0.27769845724105835,"weights":{"0":-0.3341718316078186,"1":-0.34234103560447693,"2":-0.41841018199920654,"3":-0.03842684254050255,"4":-0.24857737123966217,"5":-0.34789514541625977,"6":-0.29971033334732056,"7":0.017209379002451897,"8":0.46457070112228394,"9":0.06335608661174774,"10":-0.111684650182724,"11":-0.4013013243675232,"12":-0.3430038094520569,"13":0.9546051621437073,"14":-0.3908050060272217,"15":-0.4928682744503021,"16":-0.15381304919719696,"17":-0.2225126177072525,"18":-0.06573506444692612,"19":0.6768593788146973,"20":-0.0314200259745121,"21":-0.34894078969955444,"22":-0.17727205157279968,"23":-0.19522280991077423,"24":0.9151980876922607,"25":0.07159562408924103,"26":1.7958667278289795,"27":-0.2649845778942108,"28":-0.33172935247421265,"29":-0.26097372174263,"30":-0.28691765666007996,"31":-0.13079045712947845}},"6":{"bias":-0.24306756258010864,"weights":{"0":-0.4683351516723633,"1":-0.2809792757034302,"2":-0.4656994938850403,"3":-0.038171909749507904,"4":-0.4576566517353058,"5":-0.7746465802192688,"6":-0.5515665411949158,"7":0.43252384662628174,"8":0.5564192533493042,"9":-0.6322749257087708,"10":-0.30523481965065,"11":-0.5488324761390686,"12":-0.6100181937217712,"13":0.9839078783988953,"14":-0.500618577003479,"15":-0.6515073180198669,"16":-0.33039391040802,"17":-0.3744061291217804,"18":0.2840939164161682,"19":1.0118730068206787,"20":-0.05247646942734718,"21":-0.43091830611228943,"22":-0.4490072429180145,"23":-0.5805797576904297,"24":0.8078052401542664,"25":0.3101995587348938,"26":2.709050178527832,"27":-0.7633031606674194,"28":-0.34373170137405396,"29":-0.43186965584754944,"30":-0.6819051504135132,"31":-0.7259518504142761}},"7":{"bias":-0.21590639650821686,"weights":{"0":-0.03435043618083,"1":0.00464503513649106,"2":0.22903290390968323,"3":-0.2931075692176819,"4":0.09170842170715332,"5":0.02950316295027733,"6":-0.11888705939054489,"7":-0.01729102060198784,"8":-0.01265835389494896,"9":0.10876055061817169,"10":-0.01875653862953186,"11":0.21259500086307526,"12":0.1577562391757965,"13":-0.5495902299880981,"14":0.1893918216228485,"15":-0.048453476279973984,"16":-0.06778314709663391,"17":0.11467214673757553,"18":-0.1599232256412506,"19":-0.4422872066497803,"20":-0.10986755788326263,"21":0.48453962802886963,"22":-0.05805831402540207,"23":0.1040719673037529,"24":-0.3941044509410858,"25":-0.08322317898273468,"26":-1.220094919204712,"27":0.14879384636878967,"28":-0.052670180797576904,"29":0.050043560564517975,"30":-0.15187519788742065,"31":0.22570918500423431}},"8":{"bias":-0.5369847416877747,"weights":{"0":0.024649327620863914,"1":0.29387739300727844,"2":0.020598599687218666,"3":-0.9413349032402039,"4":0.2962404191493988,"5":0.3368511199951172,"6":0.3550620675086975,"7":-0.7892018556594849,"8":-0.13866204023361206,"9":0.4501408338546753,"10":-0.014967702329158783,"11":0.11255811899900436,"12":0.2709121108055115,"13":0.5882617831230164,"14":0.3804183006286621,"15":0.14329679310321808,"16":0.1080990582704544,"17":0.36160150170326233,"18":-0.7613747119903564,"19":0.357573926448822,"20":-0.06344836950302124,"21":-0.25646063685417175,"22":0.005912980064749718,"23":0.1665874570608139,"24":1.6105551719665527,"25":-0.7184554934501648,"26":4.847591876983643,"27":0.2687026262283325,"28":0.06595306843519211,"29":0.08428394794464111,"30":0.38341131806373596,"31":0.09163456410169601}},"9":{"bias":-0.08507390320301056,"weights":{"0":-0.3667139410972595,"1":-0.46426093578338623,"2":-0.5072188377380371,"3":0.35480445623397827,"4":-0.198887437582016,"5":-0.26368847489356995,"6":-0.3322969675064087,"7":0.09822613000869751,"8":0.5522066950798035,"9":-0.0716208815574646,"10":-0.25371062755584717,"11":-0.5489662885665894,"12":-0.36568084359169006,"13":0.939765989780426,"14":-0.1739259660243988,"15":-0.5479585528373718,"16":-0.3198179006576538,"17":-0.43542641401290894,"18":0.1495795100927353,"19":0.6684774160385132,"20":0.3152447044849396,"21":-0.23161831498146057,"22":-0.33730483055114746,"23":-0.36134403944015503,"24":0.6004896759986877,"25":0.1327313333749771,"26":1.1351724863052368,"27":-0.38896748423576355,"28":-0.10226977616548538,"29":-0.49130794405937195,"30":-0.19980241358280182,"31":-0.46767404675483704}},"10":{"bias":-0.2140306681394577,"weights":{"0":-0.12166627496480942,"1":0.063711017370224,"2":-0.04738306999206543,"3":-0.23507115244865417,"4":-0.1196148544549942,"5":-0.1539575457572937,"6":-0.2760081887245178,"7":-0.18984590470790863,"8":-0.14590007066726685,"9":0.003408243181183934,"10":-0.20069649815559387,"11":-0.1532089114189148,"12":0.03595999628305435,"13":0.1972513496875763,"14":-0.1955731213092804,"15":-0.17633242905139923,"16":0.008428176864981651,"17":-0.26981768012046814,"18":0.05148458480834961,"19":-0.0931248888373375,"20":-0.18759576976299286,"21":0.020844049751758575,"22":-0.06372231245040894,"23":-0.10316494852304459,"24":0.021292949095368385,"25":-0.0932602807879448,"26":0.2527792155742645,"27":0.02901843935251236,"28":0.0541510246694088,"29":-0.13489452004432678,"30":-0.2526252567768097,"31":0.09753132611513138}},"11":{"bias":-0.08504428714513779,"weights":{"0":-0.13672693073749542,"1":0.09270000457763672,"2":0.20976994931697845,"3":-0.1721014529466629,"4":-0.20147180557250977,"5":0.08807479590177536,"6":-0.0045398217625916,"7":0.027545658871531487,"8":-0.4477804899215698,"9":-0.1744002103805542,"10":0.065543532371521,"11":0.2551126778125763,"12":0.07211704552173615,"13":-0.7328699231147766,"14":0.1361851692199707,"15":0.22065813839435577,"16":0.11483675986528397,"17":-0.20243054628372192,"18":-0.16030508279800415,"19":-0.45478132367134094,"20":-0.28311920166015625,"21":0.9379454851150513,"22":-0.13658210635185242,"23":0.012617917731404305,"24":-0.7734833359718323,"25":-0.17680951952934265,"26":-2.245253324508667,"27":-0.03394177928566933,"28":-0.028048863634467125,"29":0.01735755242407322,"30":0.03636689856648445,"31":0.08923235535621643}},"12":{"bias":-0.19230709969997406,"weights":{"0":0.13542573153972626,"1":0.17915858328342438,"2":0.18614734709262848,"3":-0.7070989608764648,"4":0.2094954401254654,"5":0.4449518918991089,"6":0.16791772842407227,"7":-0.3344716727733612,"8":-0.4284910261631012,"9":0.17332738637924194,"10":0.10376310348510742,"11":0.22691161930561066,"12":0.1612032949924469,"13":-0.615885853767395,"14":0.23103301227092743,"15":0.2008364200592041,"16":-0.020552685484290123,"17":0.09403711557388306,"18":-0.5372262597084045,"19":-0.36996495723724365,"20":-0.41739141941070557,"21":0.3184088468551636,"22":0.05080820620059967,"23":0.159362331032753,"24":-0.18709348142147064,"25":-0.7605733275413513,"26":-0.24127690494060516,"27":0.23075759410858154,"28":-0.012722044251859188,"29":0.2300409972667694,"30":0.32019519805908203,"31":0.13851651549339294}},"13":{"bias":-0.7725169062614441,"weights":{"0":-0.02734619565308094,"1":-0.16364623606204987,"2":0.6096412539482117,"3":-1.8970409631729126,"4":0.09539666771888733,"5":0.5159417986869812,"6":-0.04434925690293312,"7":-0.5675544738769531,"8":-1.2514744997024536,"9":-0.002277133520692587,"10":-0.007805617060512304,"11":0.810804545879364,"12":0.14126770198345184,"13":-1.2736916542053223,"14":0.36702704429626465,"15":0.6159168481826782,"16":0.2543884217739105,"17":-0.049616292119026184,"18":-0.9647038578987122,"19":-1.0317903757095337,"20":-0.7515509724617004,"21":2.0137035846710205,"22":0.4151172935962677,"23":0.27068230509757996,"24":-0.32159048318862915,"25":-1.4487801790237427,"26":-1.900540828704834,"27":0.216212660074234,"28":-0.04625551775097847,"29":0.34169912338256836,"30":-0.05504478141665459,"31":0.5297716856002808}},"14":{"bias":0.02187834493815899,"weights":{"0":0.06201859563589096,"1":-0.09438256919384003,"2":0.20824801921844482,"3":-0.3731074035167694,"4":0.0044924914836883545,"5":0.22818231582641602,"6":-0.14848937094211578,"7":-0.201238751411438,"8":-0.15421345829963684,"9":-0.015008785761892796,"10":-0.16920392215251923,"11":0.18618860840797424,"12":0.14425715804100037,"13":-0.6969035267829895,"14":0.013962963595986366,"15":0.2600124478340149,"16":0.12045691162347794,"17":-0.2132858783006668,"18":-0.063774973154068,"19":-0.6385287642478943,"20":-0.16994746029376984,"21":0.8657505512237549,"22":0.010417655110359192,"23":-0.07608938217163086,"24":-0.8708101511001587,"25":-0.33227118849754333,"26":-1.7542588710784912,"27":0.1745772510766983,"28":0.06504043936729431,"29":-0.03110484406352043,"30":-0.12938302755355835,"31":0.27066072821617126}},"15":{"bias":-0.4965132176876068,"weights":{"0":0.021047355607151985,"1":-0.0911867693066597,"2":0.04744317755103111,"3":-0.6624247431755066,"4":0.08630508184432983,"5":0.09836816787719727,"6":0.20378081500530243,"7":-0.5783399343490601,"8":-0.33050161600112915,"9":0.06570979952812195,"10":0.043518953025341034,"11":-0.006363727618008852,"12":0.42418643832206726,"13":0.42755138874053955,"14":-0.06587930023670197,"15":0.2870146930217743,"16":-0.12705080211162567,"17":0.2983325123786926,"18":-0.6315655708312988,"19":0.3909434676170349,"20":-0.35106131434440613,"21":-0.3632957935333252,"22":-0.13190719485282898,"23":0.193125918507576,"24":1.0485953092575073,"25":-0.8200043439865112,"26":4.98598051071167,"27":0.3691917359828949,"28":-0.07889808714389801,"29":-0.05754152685403824,"30":0.3149113953113556,"31":0.1984567642211914}},"16":{"bias":-0.36508965492248535,"weights":{"0":0.1855706423521042,"1":-0.16679827868938446,"2":-0.006374107673764229,"3":-0.633507251739502,"4":-0.02547481656074524,"5":0.3249489665031433,"6":0.05191926658153534,"7":-0.41380107402801514,"8":-0.40622657537460327,"9":-0.010076220147311687,"10":0.13293370604515076,"11":0.06067629158496857,"12":0.3153007924556732,"13":-0.44514933228492737,"14":0.1464463174343109,"15":-0.010739226825535297,"16":0.1335289180278778,"17":-0.011174162849783897,"18":-0.43482843041419983,"19":-0.14298482239246368,"20":-0.23654291033744812,"21":0.25659626722335815,"22":0.13401241600513458,"23":0.30240970849990845,"24":-0.3736115097999573,"25":-0.2717808485031128,"26":0.143225759267807,"27":0.00861293077468872,"28":-0.05759198218584061,"29":0.07640618085861206,"30":0.21779148280620575,"31":0.06825729459524155}},"17":{"bias":-0.07290869206190109,"weights":{"0":0.20330439507961273,"1":0.01895025186240673,"2":0.4059770405292511,"3":-0.15394660830497742,"4":0.028557535260915756,"5":0.4397999048233032,"6":0.22426792979240417,"7":-0.19808001816272736,"8":-0.2240007370710373,"9":0.06525665521621704,"10":0.11068759113550186,"11":0.3340122401714325,"12":0.2803005874156952,"13":-0.6915237903594971,"14":0.22464048862457275,"15":0.3132864832878113,"16":-0.015906289219856262,"17":0.09546411782503128,"18":-0.2758660912513733,"19":-0.6160863041877747,"20":-0.08092331886291504,"21":0.5181108713150024,"22":-0.014418286271393299,"23":0.3866526186466217,"24":-0.7193308472633362,"25":-0.06781469285488129,"26":-1.215093731880188,"27":0.2198488712310791,"28":0.1510864496231079,"29":0.14954078197479248,"30":0.3458244204521179,"31":0.14890916645526886}},"18":{"bias":-0.22821655869483948,"weights":{"0":-0.34746885299682617,"1":-0.11857780069112778,"2":-0.38168710470199585,"3":-0.06368250399827957,"4":0.0627792626619339,"5":-0.4711901843547821,"6":-0.2349068522453308,"7":0.21958185732364655,"8":-0.039565376937389374,"9":0.04785454645752907,"10":-0.29669177532196045,"11":-0.2677222192287445,"12":-0.19934383034706116,"13":0.39856401085853577,"14":-0.18628911674022675,"15":-0.41492190957069397,"16":-0.18467378616333008,"17":-0.3255099058151245,"18":-0.1104750707745552,"19":0.27872344851493835,"20":-0.16312436759471893,"21":-0.0696939155459404,"22":-0.19642987847328186,"23":-0.2692088782787323,"24":0.6531385779380798,"25":-0.0778605192899704,"26":1.7182106971740723,"27":-0.1751885563135147,"28":-0.008192927576601505,"29":-0.20053936541080475,"30":-0.10139085352420807,"31":-0.3670729398727417}},"19":{"bias":-0.08604739606380463,"weights":{"0":0.0350162535905838,"1":0.05306409299373627,"2":0.00587178859859705,"3":-0.46899574995040894,"4":0.07349756360054016,"5":0.2820999026298523,"6":-0.1056118980050087,"7":-0.3693870007991791,"8":-0.4257059693336487,"9":0.07716237008571625,"10":0.009512041695415974,"11":0.3485499322414398,"12":0.21343198418617249,"13":-0.4107724726200104,"14":-0.0071018836461007595,"15":0.29138830304145813,"16":0.02012946829199791,"17":0.04208001866936684,"18":-0.42069485783576965,"19":-0.48932549357414246,"20":-0.19336198270320892,"21":0.5473220944404602,"22":0.22389476001262665,"23":0.2961529493331909,"24":-0.08165152370929718,"25":-0.559771716594696,"26":-0.5689840912818909,"27":-0.05126027390360832,"28":0.03943962603807449,"29":-0.07170376926660538,"30":0.22029340267181396,"31":-0.032657355070114136}},"20":{"bias":-0.12457779794931412,"weights":{"0":0.12055369466543198,"1":0.16557393968105316,"2":0.11098282039165497,"3":-0.4306255280971527,"4":0.21241551637649536,"5":0.2043314278125763,"6":0.12010575085878372,"7":-0.4605051875114441,"8":0.04733487218618393,"9":-0.014791440218687057,"10":-0.14762090146541595,"11":-0.036699000746011734,"12":0.09951911866664886,"13":0.6638184785842896,"14":0.2726025879383087,"15":0.2756606340408325,"16":-0.09477946162223816,"17":0.29083043336868286,"18":-0.1688527762889862,"19":0.49013975262641907,"20":-0.06339302659034729,"21":-0.31756529211997986,"22":0.13937494158744812,"23":0.06717895716428757,"24":1.1981921195983887,"25":-0.44393712282180786,"26":3.2872774600982666,"27":0.23705865442752838,"28":0.0225909985601902,"29":0.014743308536708355,"30":0.19725903868675232,"31":0.08717525750398636}},"21":{"bias":-0.03172581270337105,"weights":{"0":-0.20489069819450378,"1":0.06013699993491173,"2":-0.17650195956230164,"3":-0.010549670085310936,"4":0.022381480783224106,"5":-0.3589737117290497,"6":0.048650726675987244,"7":0.003223306266590953,"8":-0.10865938663482666,"9":-0.12795521318912506,"10":0.06216452643275261,"11":-0.12723618745803833,"12":-0.3116665482521057,"13":0.5544334053993225,"14":-0.20268531143665314,"15":-0.1089840903878212,"16":0.06877734512090683,"17":-0.22274595499038696,"18":-0.1530863642692566,"19":0.3053143322467804,"20":0.19284255802631378,"21":-0.28659412264823914,"22":-0.16322435438632965,"23":-0.07387711852788925,"24":0.3328462243080139,"25":-0.1993575543165207,"26":1.323221206665039,"27":-0.21700099110603333,"28":0.04177321866154671,"29":-0.041577018797397614,"30":0.01770259067416191,"31":-0.31154707074165344}},"22":{"bias":-0.03752857819199562,"weights":{"0":-0.17395593225955963,"1":-0.19052010774612427,"2":-0.163704052567482,"3":-0.17478488385677338,"4":-0.2785203158855438,"5":-0.4413665533065796,"6":-0.02430395781993866,"7":0.018080847337841988,"8":0.3239611089229584,"9":-0.3747839629650116,"10":-0.33331847190856934,"11":-0.12705664336681366,"12":-0.43292590975761414,"13":0.44022855162620544,"14":-0.19488313794136047,"15":-0.2320193350315094,"16":-0.10317054390907288,"17":-0.17078350484371185,"18":-0.015168768353760242,"19":0.6012542843818665,"20":0.05967562273144722,"21":-0.1223665401339531,"22":-0.3979443311691284,"23":-0.40353330969810486,"24":0.48286134004592896,"25":0.1035260483622551,"26":1.5841059684753418,"27":-0.3980625867843628,"28":-0.3485291004180908,"29":-0.06939396262168884,"30":-0.18088048696517944,"31":-0.3101486563682556}},"23":{"bias":0.08846491575241089,"weights":{"0":0.15754275023937225,"1":0.1327933371067047,"2":-0.02336009405553341,"3":-0.3233243227005005,"4":-0.2866048216819763,"5":0.28768253326416016,"6":0.09857045859098434,"7":-0.191168412566185,"8":-0.29384133219718933,"9":-0.1925767958164215,"10":0.07631910592317581,"11":0.33359143137931824,"12":0.12465394288301468,"13":-0.6776781678199768,"14":0.026242773979902267,"15":0.015637753531336784,"16":0.07659367471933365,"17":-0.07848576456308365,"18":-0.001233853748999536,"19":-0.648546040058136,"20":-0.1740911304950714,"21":0.5606039762496948,"22":-0.009604333899915218,"23":0.2193203568458557,"24":-0.825175404548645,"25":-0.21855951845645905,"26":-1.3533929586410522,"27":-0.16767528653144836,"28":0.08055418729782104,"29":0.16001369059085846,"30":-0.15077032148838043,