function testEllipse(x_tgt, x_upo, y_upo, x_dwno, y_dwno, b, n)
{
	h = x_tgt / 2;
	a = h;
	
	test = 0;
	
	test1 = Math.pow(Math.abs((x_upo - h) / a) ,n) + Math.pow(Math.abs(y_upo / b),n);
	
	test2 = Math.pow(Math.abs((x_dwno - h) / a) ,n) + Math.pow(Math.abs(y_dwno / b),n);
	
	if(isNaN(test))
	{
		console.log(test);
	}
	
	if(test1 > test2) return test1;
	return test2;	
}

function evaluateArc(x_tgt,b,n)
{
	var old_y = 0;
	var arc = 0;
	for (var j=1; j<=100;j++)
	{
		x = j - 50;
		y = b * Math.pow((1 - Math.pow(Math.abs(x/(x_tgt/2)),n)),(1/n));
		if(j == 1)
		{
			arc = arc + Math.sqrt(y*y + 1) 
		}
		else
		{
			arc = arc + Math.sqrt((y - old_y)*(y - old_y) + 1) 
		}
		old_y = y;
	}	
	return arc;
}

function ellipseParams(x_tgt, x_upo, y_upo, x_dwno, y_dwno)
{
	var best_b = -1;
	var best_n = -1;
	var best_arc = 1000000;
 	var n = 10;
	var n_step = 0.1; //0.25; //0.5; // 0.1
	var b_step = 0.2; //0.5; //2; // 0.2
	
    while(true)
        {
            //n = n - 0.1;
			n = n - n_step;
			if(n < 1)
			{
				break;				
			}
			var b = Math.max(y_upo, y_dwno) + 50;
            
            while(true)
			{
				b = b - b_step;
				if(b < Math.max(y_upo, y_dwno))
				{
					b = Math.max(y_upo, y_dwno) + 0.5;
					break;					
				}
				test = testEllipse(x_tgt, x_upo, y_upo, x_dwno, y_dwno, b, n);
				if(test >= 1)
				{
					b = b + b_step;
					break;
				}
				else
				{
					var arc = evaluateArc(x_tgt,b,n);
						if(arc < best_arc)
						{
							best_arc = arc;
							best_b = b;
							best_n = n;							
						}					
				}
			}
			
			
        }

        
	return [best_b,best_n];
}

function generateEllipsePoints(x_tgt,b,n)
{
	x = [];
	y = [];
	for (var j=0; j<101; j++){
		// abs( y / b ) ^ 3 = 1 - abs( x / a ) ^ 3
		x[j] = j - 50;
		y[j] = b * Math.pow((1 - Math.pow(Math.abs(x[j]/(x_tgt/2)),n)),(1/n));   
		x[j] = j;
	} 
	
	return {x: x, y: y};
}

function timeout(ms) {
    return new Promise(resolve => setTimeout(resolve, ms));
}

// first round (6.1% failure rate)
//var jnn = '{"sizes":[4,32,32,32,16,2],"layers":[{"0":{},"1":{},"2":{},"3":{}},{"0":{"bias":0.08113338053226471,"weights":{"0":-1.1229692697525024,"1":-1.4627186059951782,"2":-0.570565938949585,"3":-2.150485038757324}},"1":{"bias":-0.2103007584810257,"weights":{"0":-0.039800819009542465,"1":12.311269760131836,"2":-1.587860107421875,"3":-12.010849952697754}},"2":{"bias":0.43006107211112976,"weights":{"0":0.8297604322433472,"1":2.761492967605591,"2":0.3460901379585266,"3":3.490908622741699}},"3":{"bias":-0.14843855798244476,"weights":{"0":-0.38567352294921875,"1":-0.39776718616485596,"2":-0.4203334450721741,"3":-1.1323884725570679}},"4":{"bias":0.160335510969162,"weights":{"0":-0.3719721734523773,"1":-0.31925955414772034,"2":-0.5245609879493713,"3":-1.4783164262771606}},"5":{"bias":-0.0457913912832737,"weights":{"0":-1.0023434162139893,"1":-0.3829720914363861,"2":-0.9283507466316223,"3":-0.82740318775177}},"6":{"bias":0.04718418046832085,"weights":{"0":0.7705604434013367,"1":-0.7855908870697021,"2":0.17626500129699707,"3":-1.8790408372879028}},"7":{"bias":-0.7678852081298828,"weights":{"0":-0.31387844681739807,"1":-1.0372892618179321,"2":0.08029813319444656,"3":1.0806711912155151}},"8":{"bias":-0.05415347218513489,"weights":{"0":-0.24851997196674347,"1":-0.4549703896045685,"2":-0.37324637174606323,"3":-1.254800796508789}},"9":{"bias":-2.8230819702148438,"weights":{"0":0.3893519639968872,"1":6.089680194854736,"2":-1.0570099353790283,"3":-5.479452610015869}},"10":{"bias":0.01397348940372467,"weights":{"0":-0.531072735786438,"1":-1.1827865839004517,"2":-0.3927355110645294,"3":-2.1380743980407715}},"11":{"bias":0.11545611917972565,"weights":{"0":-1.4030040502548218,"1":-0.2979862093925476,"2":-1.0781166553497314,"3":-0.4377618432044983}},"12":{"bias":-0.21872198581695557,"weights":{"0":1.4923474788665771,"1":-1.2167586088180542,"2":-0.08633077144622803,"3":-2.3544399738311768}},"13":{"bias":-1.0477497577667236,"weights":{"0":-0.22961343824863434,"1":-2.0745394229888916,"2":0.2853832244873047,"3":2.4461493492126465}},"14":{"bias":-0.3734411299228668,"weights":{"0":-1.6850264072418213,"1":-0.27815791964530945,"2":-1.470832347869873,"3":0.4934001863002777}},"15":{"bias":-2.650491237640381,"weights":{"0":4.126402378082275,"1":-6.788142204284668,"2":0.6566033363342285,"3":6.716068267822266}},"16":{"bias":-0.026174748316407204,"weights":{"0":0.6775438189506531,"1":-0.5377496480941772,"2":0.03778122738003731,"3":-1.7914692163467407}},"17":{"bias":0.20118211209774017,"weights":{"0":0.8193281292915344,"1":-0.7566314339637756,"2":-0.053006112575531006,"3":-2.0546436309814453}},"18":{"bias":-1.6374610662460327,"weights":{"0":0.3360846936702728,"1":-1.7303588390350342,"2":-1.153070330619812,"3":3.2979896068573}},"19":{"bias":0.17456524074077606,"weights":{"0":0.6247252225875854,"1":-0.6111534237861633,"2":0.03503559157252312,"3":-1.9127908945083618}},"20":{"bias":-1.149422287940979,"weights":{"0":-0.38878196477890015,"1":-1.7903923988342285,"2":-2.9295732975006104,"3":2.106661319732666}},"21":{"bias":-0.37539201974868774,"weights":{"0":-2.592717409133911,"1":1.5738160610198975,"2":0.33778074383735657,"3":1.7275390625}},"22":{"bias":-0.28533196449279785,"weights":{"0":-0.6094759106636047,"1":-0.2107507437467575,"2":-0.4251217842102051,"3":-0.9052541255950928}},"23":{"bias":-0.009508105926215649,"weights":{"0":-0.4260175824165344,"1":-0.44932821393013,"2":-0.42510169744491577,"3":-1.2383742332458496}},"24":{"bias":-0.2051447331905365,"weights":{"0":-1.2516638040542603,"1":-0.40812715888023376,"2":-1.002960205078125,"3":-0.4390384554862976}},"25":{"bias":-1.0290902853012085,"weights":{"0":-0.28968533873558044,"1":-1.355859398841858,"2":0.21835380792617798,"3":1.5199772119522095}},"26":{"bias":0.37208300828933716,"weights":{"0":-0.19084803760051727,"1":-0.8115490674972534,"2":-0.4099367558956146,"3":-1.9066524505615234}},"27":{"bias":0.31086301803588867,"weights":{"0":-0.6901509165763855,"1":-0.2766276001930237,"2":-0.7104908227920532,"3":-1.3712621927261353}},"28":{"bias":0.23862725496292114,"weights":{"0":-0.37949830293655396,"1":-0.3986967206001282,"2":-0.5436902642250061,"3":-1.495856523513794}},"29":{"bias":0.1399402916431427,"weights":{"0":-1.044018268585205,"1":-1.3060215711593628,"2":-0.6185686588287354,"3":-2.066828966140747}},"30":{"bias":2.356989860534668,"weights":{"0":-7.51908016204834,"1":-3.119633913040161,"2":0.4767554700374603,"3":3.6926984786987305}},"31":{"bias":-0.8938162326812744,"weights":{"0":-0.42546287178993225,"1":-1.1250050067901611,"2":0.250968337059021,"3":1.2710658311843872}}},{"0":{"bias":0.07454385608434677,"weights":{"0":0.6540380716323853,"1":-1.5045809745788574,"2":-0.8853646516799927,"3":0.21571801602840424,"4":0.24505160748958588,"5":-0.03780273720622063,"6":0.21354998648166656,"7":-0.4016670882701874,"8":0.09555701911449432,"9":-1.0065293312072754,"10":0.6001050472259521,"11":-0.08866161108016968,"12":0.21494421362876892,"13":-0.5849675536155701,"14":-0.21597768366336823,"15":-1.538698673248291,"16":0.2806028425693512,"17":0.257090300321579,"18":-0.8220877051353455,"19":-0.0018864264711737633,"20":-0.40971639752388,"21":-0.5826115608215332,"22":0.06563907861709595,"23":-0.08980527520179749,"24":-0.11973627656698227,"25":-0.31463080644607544,"26":0.3428441286087036,"27":-0.08166202157735825,"28":0.19200286269187927,"29":0.6051207780838013,"30":-1.1703652143478394,"31":-0.27064383029937744}},"1":{"bias":-0.02422536350786686,"weights":{"0":-0.08388109505176544,"1":-0.4349849224090576,"2":-0.32072189450263977,"3":0.045821670442819595,"4":0.14085128903388977,"5":-0.11131592094898224,"6":-0.2738250195980072,"7":-0.26852941513061523,"8":-0.09388190507888794,"9":-0.7186163067817688,"10":0.008195322006940842,"11":0.10805410146713257,"12":-0.17097003757953644,"13":-0.05622180551290512,"14":-0.12272870540618896,"15":-0.9555234313011169,"16":0.035775329917669296,"17":0.026237184181809425,"18":-0.15922480821609497,"19":-0.021032603457570076,"20":-0.19215665757656097,"21":-0.2294415384531021,"22":-0.019121747463941574,"23":0.10855817049741745,"24":-0.13649171590805054,"25":0.053521763533353806,"26":0.14582408964633942,"27":-0.13499894738197327,"28":0.07903112471103668,"29":0.05196268856525421,"30":-0.5169709920883179,"31":-0.2353038489818573}},"2":{"bias":-0.23079127073287964,"weights":{"0":0.25847718119621277,"1":-0.6894983053207397,"2":-0.6633024215698242,"3":0.21762266755104065,"4":0.17190439999103546,"5":-0.22119858860969543,"6":-0.11995212733745575,"7":-0.3452388346195221,"8":0.18356706202030182,"9":-0.7226267457008362,"10":0.2290199249982834,"11":-0.13085706532001495,"12":0.06529329717159271,"13":-0.29933488368988037,"14":-0.02209004946053028,"15":-0.6480476260185242,"16":-0.07449924200773239,"17":0.04820185899734497,"18":-0.41900548338890076,"19":-0.18212640285491943,"20":-0.36066848039627075,"21":-0.1598377525806427,"22":-0.024932309985160828,"23":-0.02428576350212097,"24":-0.21510758996009827,"25":-0.38919392228126526,"26":0.31126344203948975,"27":0.07908747345209122,"28":-0.050659652799367905,"29":0.03975953161716461,"30":-0.6431881189346313,"31":-0.18127021193504333}},"3":{"bias":0.1404470056295395,"weights":{"0":-0.08133553713560104,"1":-0.6109404563903809,"2":-0.1366131603717804,"3":-0.1486586332321167,"4":-0.21585583686828613,"5":-0.18708743155002594,"6":-0.16691000759601593,"7":0.08721964806318283,"8":0.008226303383708,"9":-0.30908095836639404,"10":0.05791241303086281,"11":0.053229719400405884,"12":-0.12572865188121796,"13":-0.1318463534116745,"14":-0.1508249044418335,"15":-0.6730276346206665,"16":-0.09850414097309113,"17":-0.17663370072841644,"18":-0.2459818422794342,"19":-0.06546345353126526,"20":-0.18953536450862885,"21":-0.07812955230474472,"22":0.13822470605373383,"23":0.0462772473692894,"24":-0.16520461440086365,"25":0.04501023888587952,"26":0.13440944254398346,"27":-0.04210129380226135,"28":-0.02130828984081745,"29":-0.2117442935705185,"30":-0.5314021706581116,"31":-0.08186299353837967}},"4":{"bias":-0.030529990792274475,"weights":{"0":0.3993490934371948,"1":-1.1339179277420044,"2":-0.7982271313667297,"3":0.028159676119685173,"4":0.16128692030906677,"5":-0.05246778950095177,"6":0.07681930065155029,"7":-0.037965815514326096,"8":0.02440514788031578,"9":-1.0261805057525635,"10":0.48710620403289795,"11":-0.022898485884070396,"12":0.1826561689376831,"13":-0.4904105067253113,"14":-0.09842397272586823,"15":-1.4064180850982666,"16":0.25312986969947815,"17":0.4192657470703125,"18":-0.6667397022247314,"19":0.22954629361629486,"20":-0.3502441346645355,"21":-0.405038982629776,"22":-0.005265344865620136,"23":0.1640976220369339,"24":-0.05195623263716698,"25":-0.44364050030708313,"26":0.09206541627645493,"27":0.0955134704709053,"28":0.010087067261338234,"29":0.34167200326919556,"30":-1.165697455406189,"31":-0.31790363788604736}},"5":{"bias":-0.3275153338909149,"weights":{"0":0.27961790561676025,"1":-0.769382119178772,"2":-0.423848032951355,"3":0.052649594843387604,"4":0.05669182166457176,"5":-0.03205132111907005,"6":-0.016452684998512268,"7":-0.22917234897613525,"8":-0.09348040819168091,"9":-0.8084729909896851,"10":-0.023256873711943626,"11":0.17031416296958923,"12":-0.11485671997070312,"13":-0.11421076953411102,"14":-0.1049301028251648,"15":-0.6576159000396729,"16":-0.2841399908065796,"17":-0.052231065928936005,"18":-0.48274314403533936,"19":0.0045441738329827785,"20":-0.19190111756324768,"21":-0.17440617084503174,"22":-0.12219671159982681,"23":-0.11732771247625351,"24":-0.1700139194726944,"25":-0.32590654492378235,"26":0.2637401521205902,"27":-0.11453604698181152,"28":-0.02769898995757103,"29":-0.023350264877080917,"30":-0.4128986597061157,"31":-0.10982111096382141}},"6":{"bias":-1.0804756879806519,"weights":{"0":-0.7267023921012878,"1":0.6887804865837097,"2":-0.3256227374076843,"3":-0.6886332035064697,"4":-1.049756646156311,"5":-1.0268962383270264,"6":-1.3060072660446167,"7":0.38319131731987,"8":-0.9116659164428711,"9":1.313449740409851,"10":-0.9331443905830383,"11":-0.6977351903915405,"12":-1.5228948593139648,"13":1.292901635169983,"14":-0.2680663764476776,"15":0.43375706672668457,"16":-1.3169480562210083,"17":-1.384657859802246,"18":1.728814721107483,"19":-1.3507219552993774,"20":1.2188987731933594,"21":1.0584368705749512,"22":-0.881051778793335,"23":-1.0061533451080322,"24":-0.8439889550209045,"25":0.7832484841346741,"26":-0.9453860521316528,"27":-1.1410233974456787,"28":-0.9407289028167725,"29":-0.7802349925041199,"30":-0.013680513016879559,"31":0.5039127469062805}},"7":{"bias":-0.48780307173728943,"weights":{"0":0.6522541642189026,"1":-1.2164463996887207,"2":-1.3136982917785645,"3":-0.026326725259423256,"4":0.21456745266914368,"5":-0.061505287885665894,"6":-0.12325629591941833,"7":-0.47872141003608704,"8":0.07509399950504303,"9":-1.3582074642181396,"10":0.6469337344169617,"11":0.3181271553039551,"12":0.3697483241558075,"13":-0.4803240895271301,"14":0.11408413201570511,"15":-0.561914324760437,"16":0.2395726591348648,"17":0.43429940938949585,"18":-0.9350302815437317,"19":0.14405277371406555,"20":-0.721043586730957,"21":-0.18411031365394592,"22":0.28120124340057373,"23":0.2763969898223877,"24":0.17585475742816925,"25":-0.28345343470573425,"26":0.5757567882537842,"27":0.33093103766441345,"28":0.2307569533586502,"29":0.7828748822212219,"30":0.7937598824501038,"31":-0.4971331059932709}},"8":{"bias":-0.5226514339447021,"weights":{"0":-0.7105446457862854,"1":1.8884241580963135,"2":0.092010498046875,"3":-0.8973888158798218,"4":-0.8089243173599243,"5":-0.7083207368850708,"6":-1.4128596782684326,"7":0.09544271975755692,"8":-0.8652973771095276,"9":3.4573919773101807,"10":-0.698401927947998,"11":-0.7366729974746704,"12":-1.406363606452942,"13":0.5396290421485901,"14":-0.7261975407600403,"15":0.41357341408729553,"16":-0.9544588923454285,"17":-1.101191520690918,"18":0.8618350625038147,"19":-1.257887601852417,"20":0.20583631098270416,"21":0.0063223280012607574,"22":-0.5360646843910217,"23":-0.9462441802024841,"24":-0.7910619378089905,"25":0.19896948337554932,"26":-1.1077505350112915,"27":-0.8923335075378418,"28":-0.9049472808837891,"29":-1.0392141342163086,"30":-0.1827155500650406,"31":0.03272782638669014}},"9":{"bias":-0.23531603813171387,"weights":{"0":-0.3914942443370819,"1":-0.2572517395019531,"2":-0.08998806774616241,"3":-0.06858362257480621,"4":-0.2456960529088974,"5":-0.1864464432001114,"6":-0.10835234075784683,"7":0.19425104558467865,"8":-0.2970215380191803,"9":0.4268425405025482,"10":-0.04934549704194069,"11":0.03542177379131317,"12":-0.3413951098918915,"13":0.0806882455945015,"14":0.05230572074651718,"15":-0.4055476486682892,"16":-0.17091195285320282,"17":-0.388138085603714,"18":0.15741261839866638,"19":-0.07870256155729294,"20":0.3065972924232483,"21":0.27947306632995605,"22":-0.2507531940937042,"23":-0.24141301214694977,"24":-0.19518384337425232,"25":0.13927902281284332,"26":-0.2792646586894989,"27":0.03596235439181328,"28":-0.24123744666576385,"29":-0.16197288036346436,"30":-0.2903708517551422,"31":0.20582740008831024}},"10":{"bias":0.1753980815410614,"weights":{"0":-0.2934478521347046,"1":-0.4610714018344879,"2":0.3289088010787964,"3":-0.09031299501657486,"4":0.12453097850084305,"5":-0.2520204782485962,"6":-0.03933001682162285,"7":0.1391858458518982,"8":-0.06372681260108948,"9":0.14924390614032745,"10":-0.017429517582058907,"11":-0.24912914633750916,"12":-0.5458225011825562,"13":0.20935459434986115,"14":-0.20976050198078156,"15":-0.8698003888130188,"16":-0.366065114736557,"17":-0.09072908014059067,"18":0.20411334931850433,"19":-0.07557564228773117,"20":-0.013644332066178322,"21":0.1802876591682434,"22":0.09425134211778641,"23":-0.050056084990501404,"24":-0.12646803259849548,"25":-0.04282333329319954,"26":0.027790654450654984,"27":-0.17829389870166779,"28":-0.17082159221172333,"29":-0.38150647282600403,"30":-0.46396058797836304,"31":0.016144944354891777}},"11":{"bias":-0.20209121704101562,"weights":{"0":0.19910091161727905,"1":-0.6203154921531677,"2":-0.4462153911590576,"3":0.10435967147350311,"4":0.12418218702077866,"5":-0.00834465678781271,"6":0.14969371259212494,"7":-0.23649832606315613,"8":0.16252103447914124,"9":-0.4775030016899109,"10":0.08595611900091171,"11":-0.11077585816383362,"12":-0.02058563381433487,"13":-0.3769451379776001,"14":-0.30436810851097107,"15":-0.7934529781341553,"16":-0.05025511980056763,"17":0.08056343346834183,"18":-0.1576864868402481,"19":-0.03811800852417946,"20":-0.3035801351070404,"21":-0.43069279193878174,"22":-0.11041991412639618,"23":-0.09471246600151062,"24":0.08187317848205566,"25":-0.2654492259025574,"26":0.28230154514312744,"27":-0.21791675686836243,"28":-0.23912477493286133,"29":0.2558264434337616,"30":-0.6917105913162231,"31":-0.05274435877799988}},"12":{"bias":0.03324625641107559,"weights":{"0":0.36846834421157837,"1":-0.8112550973892212,"2":-0.53733229637146,"3":0.003676096210256219,"4":-0.15127141773700714,"5":-0.11963549256324768,"6":0.07055790722370148,"7":-0.17751391232013702,"8":-0.02449888549745083,"9":-0.9278374910354614,"10":0.13575270771980286,"11":0.06397701799869537,"12":0.1137622743844986,"13":-0.1036628931760788,"14":0.09020184725522995,"15":-1.1295504570007324,"16":0.1635025292634964,"17":0.00003691302117658779,"18":-0.5286417007446289,"19":0.07207607477903366,"20":-0.08209197968244553,"21":-0.18395334482192993,"22":0.09174177050590515,"23":0.043280720710754395,"24":-0.11845758557319641,"25":-0.1478605717420578,"26":0.0013172399485483766,"27":0.04159858822822571,"28":-0.13647021353244781,"29":0.3294858932495117,"30":-0.7036364078521729,"31":-0.29069364070892334}},"13":{"bias":-0.4177767038345337,"weights":{"0":-0.0009209747659042478,"1":-0.340353399515152,"2":-0.49754422903060913,"3":0.07470524311065674,"4":-0.13035744428634644,"5":-0.004560115747153759,"6":-0.19734515249729156,"7":0.002190506085753441,"8":-0.1813359409570694,"9":-0.15272124111652374,"10":0.152567058801651,"11":-0.07841876149177551,"12":-0.06101464852690697,"13":-0.06718175858259201,"14":-0.04507173225283623,"15":-0.2737506628036499,"16":-0.13090036809444427,"17":-0.10137147456407547,"18":-0.1407993882894516,"19":-0.2973628044128418,"20":0.038112495094537735,"21":-0.3628288507461548,"22":-0.09401275962591171,"23":0.03490244969725609,"24":0.10868541151285172,"25":-0.013744024559855461,"26":0.07176648080348969,"27":-0.24245762825012207,"28":-0.1734251230955124,"29":0.03617769479751587,"30":-0.4986060857772827,"31":-0.18862676620483398}},"14":{"bias":-0.25984886288642883,"weights":{"0":-0.007635054178535938,"1":-0.3362986743450165,"2":-0.2531173527240753,"3":0.11407288163900375,"4":-0.2122812271118164,"5":0.014148291200399399,"6":-0.3147985637187958,"7":-0.20524367690086365,"8":-0.23950991034507751,"9":-0.3671690821647644,"10":-0.07855686545372009,"11":0.14296317100524902,"12":-0.037196461111307144,"13":0.1093481034040451,"14":0.09323700517416,"15":-0.5465085506439209,"16":-0.2824452221393585,"17":-0.08234218508005142,"18":-0.2526232898235321,"19":0.05838238075375557,"20":-0.12414377182722092,"21":-0.2500448524951935,"22":-0.24513651430606842,"23":0.06263063848018646,"24":-0.19003276526927948,"25":-0.23753578960895538,"26":-0.0154693853110075,"27":0.07164739072322845,"28":-0.22606340050697327,"29":-0.12639281153678894,"30":-0.4281378388404846,"31":-0.15219640731811523}},"15":{"bias":0.183458149433136,"weights":{"0":-0.3385045826435089,"1":1.1825706958770752,"2":0.041497454047203064,"3":-0.149544358253479,"4":-0.2061297446489334,"5":-0.42341604828834534,"6":-0.240205317735672,"7":-0.12137928605079651,"8":0.04381975531578064,"9":3.2253620624542236,"10":0.07638787478208542,"11":-0.5063018202781677,"12":-0.5687986016273499,"13":-0.15276597440242767,"14":-1.0728336572647095,"15":-1.4226785898208618,"16":-0.21359783411026,"17":-0.21280813217163086,"18":-0.08682477474212646,"19":-0.17032867670059204,"20":-0.15077437460422516,"21":-0.24061369895935059,"22":0.011182880960404873,"23":-0.00699207279831171,"24":-0.5940465331077576,"25":0.13964557647705078,"26":0.0933336690068245,"27":-0.06836650520563126,"28":-0.07767187058925629,"29":-0.3126814067363739,"30":-0.4213314950466156,"31":0.16483107209205627}},"16":{"bias":-0.5009691119194031,"weights":{"0":-0.37513402104377747,"1":0.8966689705848694,"2":-0.21135063469409943,"3":-0.39075133204460144,"4":-0.5698052048683167,"5":-0.6650115847587585,"6":-0.4461311101913452,"7":0.08475708961486816,"8":-0.5849471688270569,"9":1.4127085208892822,"10":-0.4568912088871002,"11":-0.8464294672012329,"12":-0.7216587066650391,"13":0.09154465049505234,"14":-0.6474252939224243,"15":-0.12678608298301697,"16":-0.5744439363479614,"17":-0.5226762890815735,"18":0.557573676109314,"19":-0.5325506329536438,"20":0.309271901845932,"21":0.3668472170829773,"22":-0.34912338852882385,"23":-0.3635016083717346,"24":-0.6150134205818176,"25":0.06458987295627594,"26":-0.360812783241272,"27":-0.5165655016899109,"28":-0.6748579144477844,"29":-0.6415252089500427,"30":0.31468066573143005,"31":0.3275929093360901}},"17":{"bias":-0.052503883838653564,"weights":{"0":0.24693404138088226,"1":-1.0560064315795898,"2":-0.28962939977645874,"3":-0.05038478597998619,"4":0.03895305469632149,"5":0.12687771022319794,"6":-0.10704076290130615,"7":-0.19078120589256287,"8":-0.10165916383266449,"9":-0.6518443822860718,"10":0.2141454964876175,"11":-0.12548236548900604,"12":0.12124265730381012,"13":-0.4796283543109894,"14":0.05755811557173729,"15":-1.122984766960144,"16":0.06681627035140991,"17":0.18343673646450043,"18":-0.22358039021492004,"19":0.14406733214855194,"20":-0.18442262709140778,"21":-0.37736719846725464,"22":0.07615461200475693,"23":-0.12070214748382568,"24":0.019199660047888756,"25":-0.14022834599018097,"26":0.15415027737617493,"27":0.18443554639816284,"28":-0.15540482103824615,"29":0.3141603469848633,"30":-0.8861123919487,"31":-0.34770703315734863}},"18":{"bias":-0.06015142798423767,"weights":{"0":0.6916804909706116,"1":-1.6918214559555054,"2":-1.2046949863433838,"3":0.1624840348958969,"4":0.2075938880443573,"5":0.011998592875897884,"6":0.12343919277191162,"7":-0.33063653111457825,"8":0.02206203155219555,"9":-1.390177845954895,"10":0.7188954949378967,"11":0.12451203912496567,"12":0.4676572382450104,"13":-0.5691916346549988,"14":-0.2916572391986847,"15":-1.7950918674468994,"16":0.1510610729455948,"17":0.316243052482605,"18":-0.6827415227890015,"19":0.22801128029823303,"20":-0.47684013843536377,"21":-0.6634705662727356,"22":0.12216299027204514,"23":0.1593136191368103,"24":0.04274478182196617,"25":-0.4051740765571594,"26":0.4812716543674469,"27":0.04405377805233002,"28":0.04476582631468773,"29":0.6283407211303711,"30":-1.2145990133285522,"31":-0.37608394026756287}},"19":{"bias":-0.08007075637578964,"weights":{"0":0.71772301197052,"1":-1.0044190883636475,"2":-1.25454843044281,"3":0.09177456796169281,"4":0.01945974864065647,"5":0.12974394857883453,"6":-0.024028126150369644,"7":-0.4572441875934601,"8":0.10468637943267822,"9":-1.2213996648788452,"10":0.6209121942520142,"11":-0.030963148921728134,"12":0.19254353642463684,"13":-0.6118618249893188,"14":-0.19328375160694122,"15":-0.8543132543563843,"16":-0.07958626747131348,"17":0.25020650029182434,"18":-0.7498390674591064,"19":-0.09813368320465088,"20":-0.3545175790786743,"21":-0.6359155774116516,"22":0.09578707814216614,"23":-0.050015080720186234,"24":-0.11087317019701004,"25":-0.249288409948349,"26":0.4320598542690277,"27":0.026316242292523384,"28":0.18643629550933838,"29":0.6245160102844238,"30":-0.6640024781227112,"31":-0.43396198749542236}},"20":{"bias":0.018443642184138298,"weights":{"0":0.2769438326358795,"1":-0.9584238529205322,"2":-0.4401696026325226,"3":0.040910594165325165,"4":-0.04504392668604851,"5":0.1321748048067093,"6":-0.14907334744930267,"7":-0.2590310871601105,"8":0.006668566260486841,"9":-0.6981454491615295,"10":0.22066156566143036,"11":-0.07853469252586365,"12":-0.1254224330186844,"13":-0.3913179934024811,"14":-0.18419907987117767,"15":-0.9078537821769714,"16":0.1400391310453415,"17":0.13921315968036652,"18":-0.23233839869499207,"19":-0.24220527708530426,"20":-0.17143213748931885,"21":-0.17602507770061493,"22":-0.14401212334632874,"23":0.13586270809173584,"24":-0.05852699279785156,"25":-0.34153515100479126,"26":0.09994205832481384,"27":0.09212491661310196,"28":0.15420494973659515,"29":0.10402156412601471,"30":-0.6890642642974854,"31":-0.3484131097793579}},"21":{"bias":-0.4133884310722351,"weights":{"0":-0.5278511047363281,"1":0.5523324012756348,"2":-0.17145246267318726,"3":-0.25465890765190125,"4":-0.47844398021698,"5":-0.5349752902984619,"6":-0.5930104851722717,"7":0.21496719121932983,"8":-0.4391080141067505,"9":1.0313177108764648,"10":-0.2737713158130646,"11":-0.6601183414459229,"12":-0.5696126818656921,"13":0.35605043172836304,"14":-0.21552766859531403,"15":-0.1665937900543213,"16":-0.5272920727729797,"17":-0.4251234531402588,"18":0.2463541477918625,"19":-0.513110876083374,"20":0.26584678888320923,"21":0.223906010389328,"22":-0.35744622349739075,"23":-0.3944382965564728,"24":-0.33353933691978455,"25":0.31585991382598877,"26":-0.24892038106918335,"27":-0.5944835543632507,"28":-0.5862364768981934,"29":-0.26248085498809814,"30":0.15265369415283203,"31":0.15579034388065338}},"22":{"bias":-0.30590125918388367,"weights":{"0":0.3309703469276428,"1":-1.044907569885254,"2":-0.43070071935653687,"3":0.2048226147890091,"4":-0.10187609493732452,"5":0.09163257479667664,"6":0.09577196091413498,"7":-0.1868603229522705,"8":0.038728728890419006,"9":-0.8654144406318665,"10":0.3710312843322754,"11":-0.006463191471993923,"12":0.16987645626068115,"13":-0.27158552408218384,"14":-0.28434357047080994,"15":-1.024684190750122,"16":-0.16809311509132385,"17":0.030793357640504837,"18":-0.5920935273170471,"19":0.17215707898139954,"20":-0.18043296039104462,"21":-0.18850044906139374,"22":0.05799030885100365,"23":-0.11635812371969223,"24":-0.1103648915886879,"25":-0.3778540790081024,"26":0.2950541079044342,"27":0.03471452370285988,"28":0.0699610710144043,"29":0.16892923414707184,"30":-0.8715811371803284,"31":-0.40335407853126526}},"23":{"bias":-1.3264731168746948,"weights":{"0":0.24168944358825684,"1":2.674751043319702,"2":-1.2656162977218628,"3":-0.19674967229366302,"4":0.10359922796487808,"5":0.05956071615219116,"6":0.4061190187931061,"7":-0.25345364212989807,"8":0.09760075062513351,"9":1.0032670497894287,"10":0.21503157913684845,"11":-0.1460394710302353,"12":0.7010491490364075,"13":0.29104605317115784,"14":-0.0774962529540062,"15":4.8394036293029785,"16":0.24102723598480225,"17":0.8430061936378479,"18":0.30727556347846985,"19":0.24116328358650208,"20":0.6325451731681824,"21":-1.4621232748031616,"22":-0.23750248551368713,"23":0.19110220670700073,"24":0.10087915509939194,"25":-0.1276140958070755,"26":0.4302278757095337,"27":-0.14553692936897278,"28":-0.012279888615012169,"29":0.48605361580848694,"30":3.6424412727355957,"31":-0.28027424216270447}},"24":{"bias":-0.38336920738220215,"weights":{"0":-0.24614359438419342,"1":-0.3551126718521118,"2":-0.254958838224411,"3":-0.052268579602241516,"4":-0.19040167331695557,"5":-0.12554334104061127,"6":-0.310834676027298,"7":-0.23808538913726807,"8":-0.24578727781772614,"9":-0.42740532755851746,"10":0.128449484705925,"11":0.011183854192495346,"12":0.047037940472364426,"13":-0.25864529609680176,"14":-0.2008957713842392,"15":-0.22763241827487946,"16":-0.11633889377117157,"17":-0.169300377368927,"18":0.05151922628283501,"19":-0.3149738609790802,"20":-0.23820433020591736,"21":-0.23712538182735443,"22":0.010634075850248337,"23":0.09589680284261703,"24":0.051230959594249725,"25":-0.06460456550121307,"26":-0.2581566274166107,"27":-0.22661137580871582,"28":-0.06893780082464218,"29":-0.16152724623680115,"30":-0.3343625068664551,"31":-0.21196764707565308}},"25":{"bias":-0.2818209230899811,"weights":{"0":-0.22068922221660614,"1":-0.24654313921928406,"2":-0.05365287512540817,"3":-0.05737588554620743,"4":-0.11774399876594543,"5":-0.06987136602401733,"6":-0.19293740391731262,"7":0.08539967983961105,"8":-0.1067640483379364,"9":-0.050511013716459274,"10":-0.2724511921405792,"11":-0.05298687145113945,"12":-0.1571747213602066,"13":0.009566287510097027,"14":-0.3552659749984741,"15":-0.6715749502182007,"16":-0.1527169644832611,"17":0.026942137628793716,"18":-0.2793600261211395,"19":-0.07452186942100525,"20":-0.2605755925178528,"21":-0.22244374454021454,"22":-0.2202308624982834,"23":0.06732989847660065,"24":-0.2521195411682129,"25":0.0688716396689415,"26":-0.24174948036670685,"27":-0.007802790030837059,"28":-0.29340091347694397,"29":0.07739496231079102,"30":-0.1746198683977127,"31":-0.21345455944538116}},"26":{"bias":-0.7251378297805786,"weights":{"0":0.055209070444107056,"1":-0.9597288370132446,"2":0.04835217073559761,"3":-0.12876677513122559,"4":-0.35685834288597107,"5":-0.006601209286600351,"6":-0.47341856360435486,"7":0.41335541009902954,"8":-0.12589670717716217,"9":2.5573923587799072,"10":-0.03995540738105774,"11":-0.11144948750734329,"12":-0.7560138702392578,"13":1.3452519178390503,"14":0.40617647767066956,"15":-0.19059216976165771,"16":-0.3354993462562561,"17":-0.45753318071365356,"18":1.3221906423568726,"19":-0.4429081678390503,"20":1.9596810340881348,"21":0.15163779258728027,"22":-0.04634722322225571,"23":-0.05393340811133385,"24":0.0616532526910305,"25":0.8836566805839539,"26":-0.044778693467378616,"27":-0.10756754875183105,"28":-0.10115069895982742,"29":-0.08306083083152771,"30":-0.7456246614456177,"31":0.6447499990463257}},"27":{"bias":-0.15510293841362,"weights":{"0":0.35935869812965393,"1":-0.3516249358654022,"2":-0.6259510517120361,"3":-0.11279730498790741,"4":0.04112877696752548,"5":-0.021224739030003548,"6":-0.07191817462444305,"7":-0.34026533365249634,"8":-0.011008411645889282,"9":-0.6967827081680298,"10":0.06626931577920914,"11":0.20734092593193054,"12":-0.044640447944402695,"13":-0.14386285841464996,"14":-0.20139437913894653,"15":-0.4024406373500824,"16":-0.09796759486198425,"17":0.0077234902419149876,"18":-0.47729751467704773,"19":0.015455113723874092,"20":-0.1368250846862793,"21":-0.283908873796463,"22":-0.16999591886997223,"23":-0.13074183464050293,"24":-0.1582784801721573,"25":-0.1633789986371994,"26":0.25788024067878723,"27":0.1521904468536377,"28":-0.18682393431663513,"29":0.014174088835716248,"30":-0.5353810787200928,"31":-0.3029002845287323}},"28":{"bias":-0.05363333597779274,"weights":{"0":-0.2121904045343399,"1":-0.362956702709198,"2":-0.2287312150001526,"3":-0.13453362882137299,"4":-0.23352664709091187,"5":0.07093069702386856,"6":-0.0322100929915905,"7":-0.2275354564189911,"8":-0.12213759869337082,"9":-0.20962892472743988,"10":-0.01995503529906273,"11":-0.2472011148929596,"12":-0.13365046679973602,"13":-0.18083682656288147,"14":-0.3022223114967346,"15":-0.6367617845535278,"16":-0.29716405272483826,"17":0.022948231548070908,"18":-0.05248052254319191,"19":-0.11854810267686844,"20":-0.2683781087398529,"21":-0.08253392577171326,"22":-0.02267974428832531,"23":-0.16001443564891815,"24":-0.09231032431125641,"25":0.06712331622838974,"26":-0.10203070938587189,"27":-0.06109604611992836,"28":-0.01860233210027218,"29":-0.0561286024749279,"30":-0.3640076518058777,"31":0.0658586397767067}},"29":{"bias":-0.1656872183084488,"weights":{"0":0.2482183426618576,"1":-1.3774629831314087,"2":-0.9551358819007874,"3":0.006951341405510902,"4":0.04234116151928902,"5":-0.1336984783411026,"6":0.10822395235300064,"7":-0.10839841514825821,"8":0.014847098849713802,"9":-0.884965181350708,"10":0.3080613315105438,"11":0.06745932251214981,"12":0.256040096282959,"13":-0.4315873980522156,"14":-0.04172804206609726,"15":-1.4752330780029297,"16":0.10857822000980377,"17":0.39324766397476196,"18":-0.5947706699371338,"19":0.1747826188802719,"20":-0.37693455815315247,"21":-0.5295931696891785,"22":0.012540232390165329,"23":0.1121542751789093,"24":-0.20246726274490356,"25":-0.1767769157886505,"26":0.40814846754074097,"27":0.002810987876728177,"28":0.048538051545619965,"29":0.4910893440246582,"30":-0.8791336417198181,"31":-0.12198086827993393}},"30":{"bias":-0.2970341444015503,"weights":{"0":-0.31762534379959106,"1":-0.06167863681912422,"2":-0.1702037751674652,"3":-0.19966444373130798,"4":-0.18290384113788605,"5":-0.08150333911180496,"6":-0.09438174962997437,"7":-0.09580641984939575,"8":-0.131046324968338,"9":-0.031849946826696396,"10":-0.2072569727897644,"11":-0.21512402594089508,"12":-0.1888677477836609,"13":-0.03612818196415901,"14":-0.38041892647743225,"15":-0.30961379408836365,"16":-0.09431710094213486,"17":-0.2140258103609085,"18":-0.22674377262592316,"19":-0.4261862337589264,"20":0.060764946043491364,"21":0.03685164824128151,"22":-0.019693544134497643,"23":-0.19189049303531647,"24":-0.16794589161872864,"25":-0.06213757023215294,"26":-0.22365239262580872,"27":-0.27629780769348145,"28":-0.08508343994617462,"29":-0.34438440203666687,"30":-0.13950549066066742,"31":-0.11039449274539948}},"31":{"bias":-0.480777770280838,"weights":{"0":-1.149824619293213,"1":4.232848644256592,"2":1.743889570236206,"3":-0.1775445193052292,"4":-0.2916904389858246,"5":-0.024978401139378548,"6":-0.5822041034698486,"7":0.8292823433876038,"8":-0.21876351535320282,"9":1.5273067951202393,"10":-1.0235276222229004,"11":0.17655321955680847,"12":-0.8454946875572205,"13":1.1788982152938843,"14":0.4338020980358124,"15":3.5058021545410156,"16":-0.7359684705734253,"17":-0.7998660802841187,"18":1.2447664737701416,"19":-0.7264308929443359,"20":1.0340653657913208,"21":1.4864106178283691,"22":-0.08692135661840439,"23":-0.4222749173641205,"24":0.13132146000862122,"25":0.6812601089477539,"26":-0.932735025882721,"27":-0.5668439865112305,"28":-0.4963330030441284,"29":-0.9797903299331665,"30":2.5162150859832764,"31":0.621273934841156}}},{"0":{"bias":-0.5483835935592651,"weights":{"0":0.27401798963546753,"1":0.20964153110980988,"2":0.14816103875637054,"3":-0.20077794790267944,"4":0.551611602306366,"5":0.05494954064488411,"6":-0.6007948517799377,"7":0.35353609919548035,"8":-0.47981441020965576,"9":0.008954237215220928,"10":-0.13170446455478668,"11":0.14231182634830475,"12":0.3219439387321472,"13":0.04310206323862076,"14":-0.14912165701389313,"15":-0.3178095519542694,"16":-0.3947048485279083,"17":0.3416939675807953,"18":0.359876424074173,"19":0.39597752690315247,"20":0.17171768844127655,"21":-0.26504549384117126,"22":0.278792142868042,"23":-0.8543084859848022,"24":-0.011548270471394062,"25":0.11355126649141312,"26":-0.5357345938682556,"27":0.01783343032002449,"28":-0.0915939137339592,"29":0.33426663279533386,"30":-0.20311878621578217,"31":-1.4139161109924316}},"1":{"bias":-0.42699146270751953,"weights":{"0":0.4980592131614685,"1":0.07086939364671707,"2":0.25920170545578003,"3":-0.04812444746494293,"4":0.1981765180826187,"5":0.11297725886106491,"6":-0.5674970746040344,"7":0.2701937258243561,"8":-0.5516213178634644,"9":-0.047125618904829025,"10":-0.01607678085565567,"11":0.27504098415374756,"12":0.0914444625377655,"13":0.04622019827365875,"14":0.14762555062770844,"15":-0.13510406017303467,"16":-0.3664139211177826,"17":0.047582563012838364,"18":0.5535364747047424,"19":0.38641196489334106,"20":0.0677085742354393,"21":-0.3008769452571869,"22":0.20655937492847443,"23":-1.0774424076080322,"24":0.05160943418741226,"25":-0.027413764968514442,"26":-0.44557589292526245,"27":0.19624006748199463,"28":-0.1213868111371994,"29":0.4315006732940674,"30":-0.07648584246635437,"31":-1.2558435201644897}},"2":{"bias":-0.4511036276817322,"weights":{"0":-0.226622074842453,"1":-0.1811048537492752,"2":-0.35923948884010315,"3":-0.36196067929267883,"4":-0.3029520511627197,"5":-0.17319421470165253,"6":-0.3628075420856476,"7":-0.039627522230148315,"8":-0.4099646806716919,"9":-0.3355291187763214,"10":-0.45996662974357605,"11":-0.08787301182746887,"12":-0.08766621351242065,"13":-0.34694722294807434,"14":-0.19000791013240814,"15":-0.3104342222213745,"16":-0.5107269883155823,"17":-0.2584463953971863,"18":-0.36729586124420166,"19":-0.19742001593112946,"20":-0.1145503968000412,"21":-0.33203187584877014,"22":-0.022161807864904404,"23":-0.41387197375297546,"24":-0.05368123948574066,"25":-0.05277414992451668,"26":-0.41710609197616577,"27":-0.04249751567840576,"28":-0.20636197924613953,"29":-0.23463357985019684,"30":-0.3157503604888916,"31":-0.12257948517799377}},"3":{"bias":-0.4365469515323639,"weights":{"0":0.09101228415966034,"1":-0.13734163343906403,"2":0.0792534202337265,"3":-0.3910163938999176,"4":-0.0682903379201889,"5":-0.013231854885816574,"6":-0.6801706552505493,"7":0.3281213045120239,"8":-0.7060902118682861,"9":-0.28173011541366577,"10":-0.43957436084747314,"11":-0.10310354828834534,"12":-0.18687988817691803,"13":-0.2485402375459671,"14":-0.2076222151517868,"15":-0.5848872065544128,"16":-0.36132675409317017,"17":0.07748334109783173,"18":0.2449219524860382,"19":-0.05950703099370003,"20":0.045850902795791626,"21":-0.3649276793003082,"22":0.10487586259841919,"23":-0.3563697636127472,"24":-0.2565664052963257,"25":-0.31293153762817383,"26":-0.5435684323310852,"27":-0.2174486517906189,"28":-0.20513343811035156,"29":0.20975035429000854,"30":-0.15507112443447113,"31":-0.3843590021133423}},"4":{"bias":-0.18418392539024353,"weights":{"0":-0.0661521777510643,"1":0.11030738800764084,"2":-0.06879065930843353,"3":0.11318512260913849,"4":0.16087140142917633,"5":-0.006123647093772888,"6":-0.6735413670539856,"7":0.37649300694465637,"8":-0.6709890365600586,"9":-0.028202887624502182,"10":-0.22336097061634064,"11":-0.15230533480644226,"12":0.019505416974425316,"13":-0.025484176352620125,"14":-0.08492204546928406,"15":-0.23135842382907867,"16":-0.5585519671440125,"17":0.005264439154416323,"18":0.0006403283914551139,"19":0.10661482065916061,"20":-0.14603398740291595,"21":-0.4558331072330475,"22":0.15773750841617584,"23":-0.849632978439331,"24":-0.16737650334835052,"25":-0.038100022822618484,"26":-0.7300000190734863,"27":0.08905613422393799,"28":-0.10425674915313721,"29":-0.025690605863928795,"30":-0.02674509957432747,"31":-0.6746670007705688}},"5":{"bias":-0.6377843022346497,"weights":{"0":0.09821686148643494,"1":0.0399465449154377,"2":0.10038097947835922,"3":0.017129546031355858,"4":-0.05737750604748726,"5":0.06779655814170837,"6":-0.7890713810920715,"7":0.15099436044692993,"8":-0.5902668833732605,"9":-0.1653781682252884,"10":-0.057575758546590805,"11":-0.2101813107728958,"12":-0.1116112768650055,"13":-0.09223177284002304,"14":0.10250511765480042,"15":-0.5188669562339783,"16":-0.3344193994998932,"17":-0.07408444583415985,"18":0.10164990276098251,"19":0.28861764073371887,"20":0.06912104040384293,"21":-0.37042251229286194,"22":0.11984129250049591,"23":-0.593407154083252,"24":0.11898738890886307,"25":0.03523147106170654,"26":-0.6240324974060059,"27":0.10326744616031647,"28":-0.16499994695186615,"29":0.21392154693603516,"30":-0.07997874915599823,"31":-0.5429440140724182}},"6":{"bias":-0.32085347175598145,"weights":{"0":0.34167513251304626,"1":-0.07963520288467407,"2":-0.0049147941172122955,"3":0.08562950044870377,"4":0.12225499749183655,"5":0.059233326464891434,"6":-0.5945099592208862,"7":0.21492315828800201,"8":-0.5217762589454651,"9":0.06780185550451279,"10":-0.2576639950275421,"11":0.17855945229530334,"12":-0.014409615658223629,"13":0.08556710928678513,"14":-0.14351995289325714,"15":-0.5182169675827026,"16":-0.501964271068573,"17":0.03433231636881828,"18":0.11746694892644882,"19":0.35116589069366455,"20":0.15202182531356812,"21":-0.2591341435909271,"22":0.03221110254526138,"23":-0.9424136281013489,"24":-0.18036793172359467,"25":-0.0768941193819046,"26":-0.45382535457611084,"27":0.21495690941810608,"28":-0.012346887029707432,"29":0.33282336592674255,"30":0.03320063650608063,"31":-0.8867685198783875}},"7":{"bias":-0.10888314247131348,"weights":{"0":-0.37000125646591187,"1":-0.43562135100364685,"2":-0.3190588057041168,"3":-0.376935213804245,"4":-0.13915133476257324,"5":-0.1748608499765396,"6":-0.7358132600784302,"7":-0.0666416734457016,"8":-0.717287003993988,"9":-0.41616618633270264,"10":-0.663712739944458,"11":-0.2546166479587555,"12":-0.26255667209625244,"13":-0.4172510802745819,"14":-0.4064314663410187,"15":-0.5127264261245728,"16":-0.2032037377357483,"17":-0.5671958327293396,"18":-0.28833073377609253,"19":-0.3390554189682007,"20":-0.5806884765625,"21":-0.32769739627838135,"22":-0.49490058422088623,"23":0.08901562541723251,"24":-0.07645140588283539,"25":-0.23711702227592468,"26":-0.7562636137008667,"27":-0.2691284716129303,"28":-0.3185250163078308,"29":-0.2754877209663391,"30":-0.43076175451278687,"31":0.2637718915939331}},"8":{"bias":-0.5201999545097351,"weights":{"0":0.4981164038181305,"1":0.04841506481170654,"2":0.23143771290779114,"3":0.1244090124964714,"4":0.38454779982566833,"5":0.01491162646561861,"6":-0.6926681995391846,"7":0.5135446786880493,"8":-0.4089715778827667,"9":0.0463731549680233,"10":-0.2548995614051819,"11":-0.09483461827039719,"12":0.15549276769161224,"13":-0.15458808839321136,"14":0.117856465280056,"15":-0.4757930338382721,"16":-0.2509278953075409,"17":0.1964247226715088,"18":0.5568021535873413,"19":0.4194081127643585,"20":0.17720986902713776,"21":-0.25648587942123413,"22":0.3427404463291168,"23":-1.0418381690979004,"24":-0.11148083955049515,"25":-0.2264034003019333,"26":-0.3630334138870239,"27":0.04255528002977371,"28":0.09239960461854935,"29":0.2761237621307373,"30":-0.07644794881343842,"31":-1.178713083267212}},"9":{"bias":-0.4320293068885803,"weights":{"0":0.09423770010471344,"1":-0.08525417000055313,"2":0.07554049044847488,"3":-0.13041163980960846,"4":0.04874720051884651,"5":0.1944943070411682,"6":-0.6669349670410156,"7":0.1923544853925705,"8":-0.6793860197067261,"9":-0.27344024181365967,"10":-0.20930935442447662,"11":-0.041074685752391815,"12":-0.018217552453279495,"13":0.0072353677824139595,"14":0.030027233064174652,"15":-0.3224436938762665,"16":-0.30035677552223206,"17":-0.08375373482704163,"18":0.2799256443977356,"19":0.27823731303215027,"20":0.15416327118873596,"21":-0.13253521919250488,"22":-0.01601063646376133,"23":-0.8023645877838135,"24":0.17617180943489075,"25":-0.02726804092526436,"26":-0.7004292607307434,"27":-0.07446878403425217,"28":-0.031095024198293686,"29":0.3829770088195801,"30":0.07167419791221619,"31":-0.7061859965324402}},"10":{"bias":-0.3743385076522827,"weights":{"0":0.22142939269542694,"1":-0.08381820470094681,"2":-0.05554313585162163,"3":-0.18985503911972046,"4":0.11524764448404312,"5":0.0062427525408566,"6":-0.7904989719390869,"7":0.2682539224624634,"8":-0.4986300468444824,"9":-0.37610945105552673,"10":-0.037597235292196274,"11":0.12874454259872437,"12":0.17034783959388733,"13":-0.010110494680702686,"14":0.02638704515993595,"15":-0.5055391192436218,"16":-0.4978814423084259,"17":-0.11580421775579453,"18":0.16967886686325073,"19":-0.029458753764629364,"20":0.07725702226161957,"21":-0.2648845613002777,"22":0.23507431149482727,"23":-0.5635638236999512,"24":-0.13006652891635895,"25":-0.11679353564977646,"26":-0.6074948906898499,"27":0.06872609257698059,"28":-0.2925430238246918,"29":0.1264888346195221,"30":-0.2080448567867279,"31":-0.7747893333435059}},"11":{"bias":-0.6101606488227844,"weights":{"0":0.4157639443874359,"1":0.07470066100358963,"2":0.2841931879520416,"3":0.011709430254995823,"4":0.38282686471939087,"5":-0.010509815067052841,"6":-0.4522470533847809,"7":0.44847288727760315,"8":-0.6936973929405212,"9":-0.2022482305765152,"10":0.1385619193315506,"11":0.05926244333386421,"12":0.2519559860229492,"13":0.012337081134319305,"14":0.11892454326152802,"15":-0.4209689795970917,"16":-0.2659664750099182,"17":0.08517744392156601,"18":0.5183737277984619,"19":0.33716529607772827,"20":0.14038896560668945,"21":-0.39007568359375,"22":0.02963942475616932,"23":-1.0955241918563843,"24":0.03763696923851967,"25":-0.11878696829080582,"26":-0.24493230879306793,"27":0.005001439247280359,"28":-0.1628536880016327,"29":0.258317232131958,"30":0.03030398301780224,"31":-0.9729514718055725}},"12":{"bias":-0.5255109071731567,"weights":{"0":0.05025142803788185,"1":0.03756825625896454,"2":-0.02810616046190262,"3":-0.07229958474636078,"4":0.2606604993343353,"5":0.02853321097791195,"6":-0.6563077569007874,"7":0.1687258780002594,"8":-0.7850577235221863,"9":-0.09354377537965775,"10":-0.37404486536979675,"11":0.08610717952251434,"12":0.07866780459880829,"13":-0.14247764647006989,"14":-0.011841932311654091,"15":-0.3819049000740051,"16":-0.5345944762229919,"17":0.13207365572452545,"18":0.28374025225639343,"19":-0.008395844139158726,"20":-0.147175133228302,"21":-0.2968476116657257,"22":-0.006609921809285879,"23":-0.5226604342460632,"24":-0.07705076038837433,"25":-0.017033297568559647,"26":-0.6995444297790527,"27":-0.06475372612476349,"28":-0.30272454023361206,"29":0.2337380200624466,"30":-0.04970605671405792,"31":-0.5751363039016724}},"13":{"bias":-0.34224170446395874,"weights":{"0":0.08805887401103973,"1":-0.2828626334667206,"2":0.13735204935073853,"3":0.005895507987588644,"4":-0.015741437673568726,"5":-0.09303095191717148,"6":-0.7754991054534912,"7":0.3798453211784363,"8":-0.7197550535202026,"9":-0.26177436113357544,"10":-0.15428423881530762,"11":0.11354595422744751,"12":-0.1458648443222046,"13":0.035832569003105164,"14":-0.23947691917419434,"15":-0.3432099521160126,"16":-0.49174413084983826,"17":-0.000670264067593962,"18":0.22241511940956116,"19":0.03473993018269539,"20":-0.19542071223258972,"21":-0.4392443895339966,"22":0.0897657498717308,"23":-0.6214485764503479,"24":-0.07332928478717804,"25":-0.029507817700505257,"26":-0.7276219129562378,"27":0.05867057293653488,"28":0.017551589757204056,"29":-0.06709060817956924,"30":0.02108585834503174,"31":-0.5203492641448975}},"14":{"bias":-0.5732811689376831,"weights":{"0":0.3862749934196472,"1":-0.16655239462852478,"2":0.18290972709655762,"3":-0.3096350133419037,"4":0.3299877643585205,"5":0.10490493476390839,"6":-0.7862116694450378,"7":0.29529428482055664,"8":-0.7235686779022217,"9":-0.2647598087787628,"10":-0.0871947705745697,"11":-0.017495783045887947,"12":-0.03400283306837082,"13":0.11801909655332565,"14":0.06812732666730881,"15":-0.17571978271007538,"16":-0.3945651054382324,"17":-0.12562312185764313,"18":0.4182323217391968,"19":0.28114020824432373,"20":0.17225132882595062,"21":-0.23904134333133698,"22":-0.08604957163333893,"23":-0.6277197003364563,"24":0.02618178352713585,"25":-0.3295515775680542,"26":-0.6680067777633667,"27":0.07448120415210724,"28":-0.011932695284485817,"29":0.23670780658721924,"30":-0.20905715227127075,"31":-0.7261092662811279}},"15":{"bias":-0.5596523284912109,"weights":{"0":0.24682195484638214,"1":0.013063998892903328,"2":-0.026729227975010872,"3":-0.2269754409790039,"4":0.005676251836121082,"5":-0.00003273514084867202,"6":-0.7429063320159912,"7":0.3699568510055542,"8":-0.6664658784866333,"9":-0.0575123056769371,"10":-0.045022908598184586,"11":0.13790792226791382,"12":0.033096279948949814,"13":0.1655745655298233,"14":-0.2000512033700943,"15":-0.2756071090698242,"16":-0.39365968108177185,"17":-0.11655297130346298,"18":0.18486514687538147,"19":0.07138293981552124,"20":-0.02635062485933304,"21":-0.4522322714328766,"22":-0.005931712221354246,"23":-0.8301084637641907,"24":0.17006292939186096,"25":0.09105093032121658,"26":-0.3768109083175659,"27":0.1785825788974762,"28":0.09503444284200668,"29":0.13702288269996643,"30":0.08565547317266464,"31":-0.7162854075431824}},"16":{"bias":-0.5293117165565491,"weights":{"0":0.2180037945508957,"1":0.001988063333556056,"2":0.03955512493848801,"3":0.08362830430269241,"4":0.14689218997955322,"5":0.07030154019594193,"6":-0.519107460975647,"7":0.4796402156352997,"8":-0.719316840171814,"9":-0.017464380711317062,"10":0.09116671234369278,"11":0.0756160169839859,"12":0.046659309417009354,"13":-0.04690618813037872,"14":-0.15369758009910583,"15":-0.14483368396759033,"16":-0.22151868045330048,"17":0.08903586119413376,"18":0.348604291677475,"19":0.3702891170978546,"20":-0.07154816389083862,"21":-0.261540949344635,"22":0.21905477344989777,"23":-0.9030002355575562,"24":0.07030865550041199,"25":-0.22818776965141296,"26":-0.5609596371650696,"27":-0.05289444327354431,"28":-0.0003428044728934765,"29":0.1820381134748459,"30":-0.10991335660219193,"31":-0.8920201063156128}},"17":{"bias":-0.3355594873428345,"weights":{"0":0.14428532123565674,"1":-0.08092040568590164,"2":0.0972183421254158,"3":0.06469462811946869,"4":0.3068493604660034,"5":-0.05189573019742966,"6":-0.5017111897468567,"7":0.40984344482421875,"8":-0.6156591176986694,"9":-0.24880433082580566,"10":-0.06831932812929153,"11":0.24036714434623718,"12":-0.07726220786571503,"13":-0.021661171689629555,"14":-0.18262912333011627,"15":-0.21766798198223114,"16":-0.403156578540802,"17":0.2610900402069092,"18":0.24660268425941467,"19":0.2939402759075165,"20":-0.12324581295251846,"21":-0.21220512688159943,"22":0.22516250610351562,"23":-0.9709259867668152,"24":0.12878476083278656,"25":0.02015943080186844,"26":-0.5847129225730896,"27":-0.048624034970998764,"28":-0.15610530972480774,"29":0.27581533789634705,"30":0.03145763650536537,"31":-0.8860709071159363}},"18":{"bias":-0.4032023847103119,"weights":{"0":-0.004278420936316252,"1":0.1675434410572052,"2":-0.0528901107609272,"3":-0.1517905592918396,"4":0.05157814547419548,"5":0.13046124577522278,"6":-0.5323491096496582,"7":0.19343799352645874,"8":-0.7460041642189026,"9":-0.18532416224479675,"10":-0.23521724343299866,"11":0.15891775488853455,"12":0.24766843020915985,"13":0.03735527768731117,"14":-0.03882912918925285,"15":-0.3743274509906769,"16":-0.4802102744579315,"17":0.1236712634563446,"18":0.235196053981781,"19":0.27664148807525635,"20":-0.08235392719507217,"21":-0.296779990196228,"22":0.1236284151673317,"23":-0.770382285118103,"24":-0.09725940972566605,"25":-0.004082782194018364,"26":-0.5318557024002075,"27":0.03558839112520218,"28":0.009884275496006012,"29":0.3633814752101898,"30":-0.018905336037278175,"31":-0.9341117143630981}},"19":{"bias":-0.4266091287136078,"weights":{"0":1.646604299545288,"1":0.5953900814056396,"2":0.631011962890625,"3":0.537422239780426,"4":1.333997368812561,"5":0.4193410873413086,"6":-0.329624742269516,"7":1.3084522485733032,"8":-0.4569246470928192,"9":-0.05636270344257355,"10":0.4051869809627533,"11":0.6020180583000183,"12":1.003976583480835,"13":0.06406822800636292,"14":0.24994613230228424,"15":-0.3552073836326599,"16":-0.3742158114910126,"17":1.0485272407531738,"18":1.8796014785766602,"19":1.105987787246704,"20":0.9011895656585693,"21":-0.3168821930885315,"22":1.0373480319976807,"23":-1.782400369644165,"24":0.06200854107737541,"25":0.3685353398323059,"26":-0.09923587739467621,"27":0.6222196817398071,"28":0.23820407688617706,"29":1.343658447265625,"30":-0.09968853741884232,"31":-3.1892738342285156}},"20":{"bias":-0.4088539779186249,"weights":{"0":0.13282424211502075,"1":-0.09671488404273987,"2":0.13095979392528534,"3":-0.07021797448396683,"4":-0.07224391400814056,"5":0.11412128806114197,"6":-0.7080911993980408,"7":0.26779332756996155,"8":-0.8794583678245544,"9":-0.32304489612579346,"10":-0.07026182115077972,"11":-0.03605848550796509,"12":-0.10448809713125229,"13":0.01870444044470787,"14":0.08587685227394104,"15":-0.43584370613098145,"16":-0.4896318316459656,"17":0.10726305842399597,"18":-0.04552373290061951,"19":0.20709431171417236,"20":0.06924694031476974,"21":-0.27822989225387573,"22":-0.11263864487409592,"23":-0.661988377571106,"24":0.039897385984659195,"25":-0.046002112329006195,"26":-0.5833335518836975,"27":-0.16206449270248413,"28":-0.15638910233974457,"29":0.1938965916633606,"30":-0.09456810355186462,"31":-0.5456274747848511}},"21":{"bias":-0.7713159322738647,"weights":{"0":0.9189856052398682,"1":0.2675186097621918,"2":0.3041200339794159,"3":0.15151230990886688,"4":0.713169515132904,"5":0.3098710775375366,"6":-0.7103710770606995,"7":0.5494735240936279,"8":-0.3500317335128784,"9":-0.06626563519239426,"10":-0.23516912758350372,"11":0.24108706414699554,"12":0.5038704872131348,"13":-0.04289986938238144,"14":0.28938087821006775,"15":-0.16408465802669525,"16":-0.43223661184310913,"17":0.45696964859962463,"18":0.9523797631263733,"19":0.7582072615623474,"20":0.3675187826156616,"21":-0.10632911324501038,"22":0.41020697355270386,"23":-1.2614063024520874,"24":-0.1428060233592987,"25":0.1011129841208458,"26":-0.3118407130241394,"27":-0.024167098104953766,"28":-0.03008083626627922,"29":0.5579421520233154,"30":-0.11435414850711823,"31":-1.6653029918670654}},"22":{"bias":-0.20616285502910614,"weights":{"0":-0.027644824236631393,"1":-0.34149324893951416,"2":-0.2742387354373932,"3":-0.4444786608219147,"4":-0.05871979147195816,"5":-0.07600279152393341,"6":-0.8412657976150513,"7":0.14132127165794373,"8":-0.7764745354652405,"9":-0.4293123185634613,"10":-0.5410144925117493,"11":-0.21026641130447388,"12":-0.33432257175445557,"13":0.056465860456228256,"14":0.02342756651341915,"15":-0.5259949564933777,"16":-0.2478886991739273,"17":-0.16565166413784027,"18":-0.17918844521045685,"19":0.13053420186042786,"20":-0.0700153186917305,"21":-0.44386211037635803,"22":-0.11019697040319443,"23":-0.40635988116264343,"24":0.0035911023151129484,"25":-0.10154448449611664,"26":-0.7333032488822937,"27":0.04335777461528778,"28":-0.3064521253108978,"29":-0.3042741119861603,"30":-0.26530447602272034,"31":-0.018790671601891518}},"23":{"bias":-0.7027922868728638,"weights":{"0":0.7737033367156982,"1":0.11028240621089935,"2":0.00865261536091566,"3":0.07140159606933594,"4":0.5630325675010681,"5":0.27516523003578186,"6":-0.6966915130615234,"7":0.5535545349121094,"8":-0.6467488408088684,"9":-0.04593898355960846,"10":0.14552955329418182,"11":0.23268570005893707,"12":0.31767213344573975,"13":0.17788395285606384,"14":0.0995025485754013,"15":-0.0940396711230278,"16":-0.2994200587272644,"17":0.33090412616729736,"18":0.8093228340148926,"19":0.6564587354660034,"20":0.11252033710479736,"21":-0.21098165214061737,"22":0.2679595649242401,"23":-1.1394131183624268,"24":-0.004916233476251364,"25":-0.0002994778042193502,"26":-0.2832202613353729,"27":0.2807101011276245,"28":0.14021970331668854,"29":0.4517395794391632,"30":0.07743294537067413,"31":-1.70823073387146}},"24":{"bias":-0.3594478666782379,"weights":{"0":-0.12781046330928802,"1":-0.3005116879940033,"2":-0.13599275052547455,"3":-0.2998032867908478,"4":-0.28366178274154663,"5":-0.3966616988182068,"6":-0.5586891174316406,"7":-0.1392824798822403,"8":-0.6141632795333862,"9":-0.15384690463542938,"10":-0.41756564378738403,"11":-0.13892550766468048,"12":-0.171208918094635,"13":-0.07495132833719254,"14":-0.33452263474464417,"15":-0.6875758171081543,"16":-0.2809663414955139,"17":-0.35205787420272827,"18":-0.00233605713583529,"19":-0.08161371201276779,"20":-0.0764084905385971,"21":-0.4352639317512512,"22":-0.2877340614795685,"23":-0.10040491819381714,"24":-0.028193935751914978,"25":-0.4572240710258484,"26":-0.6287158727645874,"27":-0.14291135966777802,"28":-0.14481735229492188,"29":-0.03665868937969208,"30":-0.3501565158367157,"31":-0.04478714242577553}},"25":{"bias":-0.36187535524368286,"weights":{"0":0.4048447906970978,"1":0.02086373046040535,"2":-0.012204091995954514,"3":0.040271177887916565,"4":0.330063134431839,"5":0.1605789214372635,"6":-0.7033017873764038,"7":0.3733970522880554,"8":-0.6934702396392822,"9":-0.3309330642223358,"10":-0.1695360392332077,"11":0.05479035899043083,"12":0.22271586954593658,"13":-0.07338298857212067,"14":0.13672059774398804,"15":-0.3263836205005646,"16":-0.2466883659362793,"17":-0.08493136614561081,"18":0.4343494772911072,"19":0.40622812509536743,"20":0.24324625730514526,"21":-0.19357523322105408,"22":-0.07302442193031311,"23":-0.9536609649658203,"24":-0.2403113842010498,"25":-0.15294376015663147,"26":-0.48072198033332825,"27":0.08563734591007233,"28":0.10587677359580994,"29":0.11513622105121613,"30":-0.23304545879364014,"31":-0.9607081413269043}},"26":{"bias":-0.6581071615219116,"weights":{"0":0.23072214424610138,"1":0.30956441164016724,"2":0.10170929878950119,"3":0.2109595388174057,"4":0.5669212341308594,"5":0.02627328783273697,"6":-0.5310435891151428,"7":0.5745718479156494,"8":-0.33264851570129395,"9":-0.18168045580387115,"10":-0.1935451775789261,"11":0.1461218148469925,"12":0.37037214636802673,"13":0.030433379113674164,"14":-0.08379663527011871,"15":-0.29866352677345276,"16":-0.19257064163684845,"17":0.21802787482738495,"18":0.6456058025360107,"19":0.2724156677722931,"20":0.2446865439414978,"21":-0.33282139897346497,"22":0.40486136078834534,"23":-0.994957447052002,"24":-0.09398598223924637,"25":-0.21439510583877563,"26":-0.5238333344459534,"27":0.08560926467180252,"28":0.10017836093902588,"29":0.5461240410804749,"30":-0.2586144804954529,"31":-1.3660221099853516}},"27":{"bias":-0.46582040190696716,"weights":{"0":0.45788729190826416,"1":-0.06072762981057167,"2":0.08944793045520782,"3":0.08274438977241516,"4":0.3863706886768341,"5":-0.03454885259270668,"6":-0.45847249031066895,"7":0.4273628294467926,"8":-0.7181018590927124,"9":-0.043332476168870926,"10":0.022623073309659958,"11":0.13943138718605042,"12":0.12983430922031403,"13":-0.11908504366874695,"14":-0.05652313679456711,"15":-0.20363187789916992,"16":-0.3995116949081421,"17":0.3225427269935608,"18":0.5881795883178711,"19":0.4390102028846741,"20":0.1931421160697937,"21":-0.09687093645334244,"22":0.24299655854701996,"23":-1.1305652856826782,"24":0.07380971312522888,"25":-0.1973647177219391,"26":-0.5068454146385193,"27":0.2131759077310562,"28":0.12256193906068802,"29":0.11279363930225372,"30":-0.18439720571041107,"31":-1.1187129020690918}},"28":{"bias":-0.33241400122642517,"weights":{"0":0.18927957117557526,"1":0.03200773149728775,"2":0.14533762633800507,"3":-0.18527457118034363,"4":0.22047732770442963,"5":0.1312575489282608,"6":-0.4848211705684662,"7":0.46280044317245483,"8":-0.6829310059547424,"9":-0.03817768767476082,"10":-0.04925817251205444,"11":-0.0030026438180357218,"12":-0.014880887232720852,"13":-0.1547832041978836,"14":0.11080783605575562,"15":-0.2570455074310303,"16":-0.35337501764297485,"17":0.2240620106458664,"18":0.1615392118692398,"19":0.1120205745100975,"20":-0.016665345057845116,"21":-0.4800819158554077,"22":0.21701572835445404,"23":-1.0355764627456665,"24":0.052101749926805496,"25":-0.1504662036895752,"26":-0.5048198699951172,"27":0.12132186442613602,"28":0.031604163348674774,"29":0.16480422019958496,"30":-0.19103336334228516,"31":-0.7815520763397217}},"29":{"bias":-0.02895212545990944,"weights":{"0":-0.034628719091415405,"1":-0.32314327359199524,"2":-0.04718109965324402,"3":-0.30465757846832275,"4":-0.021486487239599228,"5":-0.17108359932899475,"6":-0.7584003806114197,"7":0.09982718527317047,"8":-0.7804644703865051,"9":-0.45893457531929016,"10":-0.4169330298900604,"11":-0.2531227767467499,"12":-0.3457539975643158,"13":-0.09826124459505081,"14":0.019073741510510445,"15":-0.6985843181610107,"16":-0.46515601873397827,"17":-0.28798121213912964,"18":-0.11460428684949875,"19":0.1376701295375824,"20":-0.30032938718795776,"21":-0.40205585956573486,"22":-0.09541524946689606,"23":-0.3317517042160034,"24":0.032755378633737564,"25":-0.3715115785598755,"26":-0.8648765087127686,"27":-0.06891117990016937,"28":-0.05528586357831955,"29":-0.1442023664712906,"30":-0.004672148264944553,"31":-0.1260143518447876}},"30":{"bias":-0.4884415566921234,"weights":{"0":0.1456044465303421,"1":0.03303615376353264,"2":0.056008800864219666,"3":-0.024348381906747818,"4":0.14453308284282684,"5":-0.215009868144989,"6":-0.8250072598457336,"7":0.2407945692539215,"8":-0.8071494102478027,"9":-0.10340280085802078,"10":-0.1636311560869217,"11":-0.14428912103176117,"12":-0.12050407379865646,"13":-0.23118115961551666,"14":-0.17094723880290985,"15":-0.2648092806339264,"16":-0.38668206334114075,"17":0.07428110390901566,"18":0.04001506790518761,"19":0.20047645270824432,"20":-0.19882409274578094,"21":-0.30963242053985596,"22":-0.008999614045023918,"23":-0.48131588101387024,"24":-0.218719020485878,"25":-0.004298368934541941,"26":-0.5687160491943359,"27":0.11716195195913315,"28":-0.09699592739343643,"29":-0.014155077748000622,"30":-0.08567571640014648,"31":-0.6616082787513733}},"31":{"bias":-0.49447327852249146,"weights":{"0":0.2627812325954437,"1":0.06792004406452179,"2":0.09407669305801392,"3":-0.061135195195674896,"4":0.18370409309864044,"5":0.15157635509967804,"6":-0.4984111487865448,"7":0.47908303141593933,"8":-0.739649772644043,"9":0.018769333139061928,"10":-0.2856011986732483,"11":-0.09703774750232697,"12":0.13257090747356415,"13":0.14511489868164062,"14":-0.10062988847494125,"15":-0.4487297534942627,"16":-0.319436252117157,"17":-0.016272082924842834,"18":0.42616137862205505,"19":0.38472670316696167,"20":0.08823967725038528,"21":-0.2318190634250641,"22":0.15265445411205292,"23":-0.7606270909309387,"24":0.06852398812770844,"25":-0.12875674664974213,"26":-0.6634113788604736,"27":-0.06480204313993454,"28":-0.2693459093570709,"29":0.21608594059944153,"30":-0.03540083020925522,"31":-0.9602280855178833}}},{"0":{"bias":-0.6199659705162048,"weights":{"0":-0.3851223886013031,"1":-0.2913239300251007,"2":-0.12191137671470642,"3":-0.17046448588371277,"4":-0.3511718511581421,"5":-0.1796029657125473,"6":-0.45534297823905945,"7":-0.23020246624946594,"8":-0.3947376310825348,"9":-0.4442092478275299,"10":-0.41992565989494324,"11":-0.3396061956882477,"12":-0.23945263028144836,"13":-0.2862473428249359,"14":-0.46204814314842224,"15":-0.3384411036968231,"16":-0.2252742052078247,"17":-0.5279334783554077,"18":-0.34587135910987854,"19":-0.7190224528312683,"20":-0.4828341603279114,"21":-0.5213583707809448,"22":-0.379475474357605,"23":-0.5916485786437988,"24":-0.4130845069885254,"25":-0.4649929702281952,"26":-0.4935190975666046,"27":-0.1990395486354828,"28":-0.45444536209106445,"29":-0.25379419326782227,"30":-0.31452667713165283,"31":-0.21285822987556458}},"1":{"bias":-0.7256500124931335,"weights":{"0":-0.28547096252441406,"1":-0.27319788932800293,"2":-0.2436482459306717,"3":-0.3229060471057892,"4":-0.26244786381721497,"5":-0.5444822907447815,"6":-0.18168938159942627,"7":-0.37689852714538574,"8":-0.47103288769721985,"9":-0.40628671646118164,"10":-0.4676259756088257,"11":-0.4460350275039673,"12":-0.19336263835430145,"13":-0.42087194323539734,"14":-0.1032031774520874,"15":-0.3273226022720337,"16":-0.3393550515174866,"17":-0.33859512209892273,"18":-0.19053782522678375,"19":-0.8397152423858643,"20":-0.4638805091381073,"21":-0.3618399500846863,"22":-0.37912240624427795,"23":-0.554501473903656,"24":-0.316030353307724,"25":-0.28344565629959106,"26":-0.2507200837135315,"27":-0.325801819562912,"28":-0.36408448219299316,"29":-0.4858982563018799,"30":-0.2188943475484848,"31":-0.3479868769645691}},"2":{"bias":-0.7963947057723999,"weights":{"0":-0.5153419971466064,"1":-0.487404465675354,"2":-0.08340444415807724,"3":-0.47898373007774353,"4":-0.3599191904067993,"5":-0.367024689912796,"6":-0.356496125459671,"7":-0.320173442363739,"8":-0.5681503415107727,"9":-0.2676910161972046,"10":-0.34016820788383484,"11":-0.3452071249485016,"12":-0.3341520130634308,"13":-0.08808574080467224,"14":-0.3036578893661499,"15":-0.13979053497314453,"16":-0.30557093024253845,"17":-0.28064870834350586,"18":-0.21824152767658234,"19":-0.7572311162948608,"20":-0.24201974272727966,"21":-0.6782035231590271,"22":-0.15055148303508759,"23":-0.5500079393386841,"24":-0.21879084408283234,"25":-0.27562057971954346,"26":-0.41468775272369385,"27":-0.35324129462242126,"28":-0.23757293820381165,"29":-0.17363440990447998,"30":-0.17467892169952393,"31":-0.12438785284757614}},"3":{"bias":-0.6148419380187988,"weights":{"0":-0.4306000769138336,"1":-0.17701683938503265,"2":-0.3583824336528778,"3":-0.18675380945205688,"4":-0.3025222718715668,"5":-0.040125973522663116,"6":-0.2756255567073822,"7":-0.3447902798652649,"8":-0.25908899307250977,"9":-0.2875543534755707,"10":-0.18517769873142242,"11":-0.4086970090866089,"12":-0.4481601417064667,"13":-0.14519143104553223,"14":-0.17662715911865234,"15":-0.41847458481788635,"16":-0.35829368233680725,"17":-0.2496475726366043,"18":-0.35995933413505554,"19":-1.1525325775146484,"20":-0.40371203422546387,"21":-0.5504795908927917,"22":-0.3492439389228821,"23":-0.6006219983100891,"24":-0.25847387313842773,"25":-0.3514776825904846,"26":-0.38120144605636597,"27":-0.22429631650447845,"28":-0.2837005853652954,"29":-0.2449834793806076,"30":-0.18759159743785858,"31":-0.4317091703414917}},"4":{"bias":-0.8317031860351562,"weights":{"0":-0.23888765275478363,"1":-0.10542245209217072,"2":-0.22646833956241608,"3":-0.14196255803108215,"4":-0.4324954152107239,"5":-0.46365445852279663,"6":-0.2669418454170227,"7":-0.3391902446746826,"8":-0.3843958377838135,"9":-0.357225239276886,"10":-0.2676182687282562,"11":-0.37367579340934753,"12":-0.20301899313926697,"13":-0.35276123881340027,"14":-0.29340335726737976,"15":-0.07937581092119217,"16":-0.4776553213596344,"17":-0.16050338745117188,"18":-0.21890971064567566,"19":-1.0098514556884766,"20":-0.4359299838542938,"21":-0.5846096277236938,"22":-0.21315689384937286,"23":-0.43183884024620056,"24":-0.21399876475334167,"25":-0.26516789197921753,"26":-0.3978937566280365,"27":-0.3034093976020813,"28":-0.38527777791023254,"29":-0.47742027044296265,"30":-0.1597953587770462,"31":-0.09893879294395447}},"5":{"bias":-0.7362062335014343,"weights":{"0":-0.29959407448768616,"1":-0.46046963334083557,"2":-0.057452112436294556,"3":-0.16727447509765625,"4":-0.047788165509700775,"5":-0.08207063376903534,"6":-0.38524630665779114,"7":-0.28763800859451294,"8":-0.5059627294540405,"9":0.03300845995545387,"10":-0.2650308907032013,"11":-0.21856708824634552,"12":-0.13814443349838257,"13":-0.1311028152704239,"14":-0.40671277046203613,"15":-0.31080251932144165,"16":-0.3649585545063019,"17":-0.25505581498146057,"18":-0.4179222285747528,"19":-1.2003990411758423,"20":-0.14512193202972412,"21":-0.6446107625961304,"22":-0.4525817930698395,"23":-0.4338288903236389,"24":-0.19840310513973236,"25":-0.40076375007629395,"26":-0.2559104263782501,"27":-0.3578944504261017,"28":-0.08946149796247482,"29":-0.19543269276618958,"30":-0.18339276313781738,"31":-0.4112852215766907}},"6":{"bias":-0.6865374445915222,"weights":{"0":-0.38067689538002014,"1":-0.23586015403270721,"2":-0.5426055788993835,"3":-0.1930609941482544,"4":-0.38040104508399963,"5":-0.35394808650016785,"6":-0.20299403369426727,"7":-0.5209975838661194,"8":-0.3856354057788849,"9":-0.4400155544281006,"10":-0.21165718138217926,"11":-0.1769903004169464,"12":-0.43175971508026123,"13":-0.18661831319332123,"14":-0.25379297137260437,"15":-0.28034088015556335,"16":-0.2937347888946533,"17":-0.19842267036437988,"18":-0.2991027534008026,"19":-0.8858809471130371,"20":-0.19331249594688416,"21":-0.6706340909004211,"22":-0.5216403007507324,"23":-0.3242405652999878,"24":-0.32858017086982727,"25":-0.4934179484844208,"26":-0.5225997567176819,"27":-0.37928903102874756,"28":-0.11261642724275589,"29":-0.44129493832588196,"30":-0.34019923210144043,"31":-0.225809246301651}},"7":{"bias":-0.7122706770896912,"weights":{"0":-0.4402918517589569,"1":-0.4308792054653168,"2":-0.43068379163742065,"3":-0.25230851769447327,"4":-0.3628440499305725,"5":-0.3706350028514862,"6":-0.385710209608078,"7":-0.4903146028518677,"8":-0.20074571669101715,"9":-0.34149178862571716,"10":-0.3919711410999298,"11":-0.17101721465587616,"12":-0.41927385330200195,"13":-0.21342748403549194,"14":-0.3293289244174957,"15":-0.30531248450279236,"16":-0.1160842552781105,"17":-0.3007878363132477,"18":-0.27722784876823425,"19":-0.6574580669403076,"20":-0.4044894874095917,"21":-0.5766936540603638,"22":-0.284445583820343,"23":-0.44871392846107483,"24":-0.36949649453163147,"25":-0.37297695875167847,"26":-0.5128878951072693,"27":-0.44728875160217285,"28":-0.451099693775177,"29":-0.3106071949005127,"30":-0.3367103040218353,"31":-0.2965395152568817}},"8":{"bias":-0.7381266355514526,"weights":{"0":-0.3742070496082306,"1":-0.2592307925224304,"2":-0.44263923168182373,"3":-0.2832193672657013,"4":-0.2513549029827118,"5":-0.24203705787658691,"6":-0.2587639391422272,"7":-0.7076545357704163,"8":-0.5039528608322144,"9":-0.4382401406764984,"10":-0.23272362351417542,"11":-0.3439998924732208,"12":-0.41209715604782104,"13":-0.47476711869239807,"14":-0.08563975989818573,"15":-0.24857226014137268,"16":-0.1438930779695511,"17":-0.19748051464557648,"18":-0.2875823974609375,"19":-0.9602683782577515,"20":-0.2564547657966614,"21":-0.4373699724674225,"22":-0.29911214113235474,"23":-0.38906386494636536,"24":-0.48190030455589294,"25":-0.23543789982795715,"26":-0.24117526412010193,"27":-0.37372857332229614,"28":-0.20589829981327057,"29":-0.5382605791091919,"30":-0.20401880145072937,"31":-0.2128235548734665}},"9":{"bias":-0.4976235032081604,"weights":{"0":-0.39261797070503235,"1":-0.516584038734436,"2":-0.1274925321340561,"3":-0.3475620448589325,"4":-0.36127111315727234,"5":-0.13480450212955475,"6":-0.40280258655548096,"7":-0.6051329970359802,"8":-0.27124086022377014,"9":-0.24894694983959198,"10":-0.36762088537216187,"11":-0.3491154909133911,"12":-0.4314049780368805,"13":-0.371416836977005,"14":-0.3723357021808624,"15":-0.31721994280815125,"16":-0.24653491377830505,"17":-0.3969205915927887,"18":-0.3467106819152832,"19":-0.9010904431343079,"20":-0.23934419453144073,"21":-0.5190971493721008,"22":-0.270967036485672,"23":-0.6231563091278076,"24":-0.404629111289978,"25":-0.2712005078792572,"26":-0.28682661056518555,"27":-0.34082290530204773,"28":-0.38821738958358765,"29":-0.4494071900844574,"30":-0.29444044828414917,"31":-0.5060673356056213}},"10":{"bias":-0.5271402597427368,"weights":{"0":-0.3302135169506073,"1":-0.4834347665309906,"2":-0.01291134674102068,"3":-0.3878614604473114,"4":-0.05929441377520561,"5":-0.10376694053411484,"6":-0.11935209482908249,"7":-0.30541807413101196,"8":-0.2626267373561859,"9":-0.2083979696035385,"10":-0.02400404028594494,"11":-0.4179312288761139,"12":-0.09647548943758011,"13":-0.23330363631248474,"14":-0.20804214477539062,"15":0.0007833482814021409,"16":-0.3735513687133789,"17":-0.2899344861507416,"18":-0.08938316255807877,"19":-1.2738173007965088,"20":-0.04145023599267006,"21":-0.8227530121803284,"22":-0.1412164717912674,"23":-0.7148783206939697,"24":-0.051186468452215195,"25":-0.43589407205581665,"26":-0.5646921396255493,"27":-0.42926573753356934,"28":-0.1707219034433365,"29":-0.07546743750572205,"30":-0.36241984367370605,"31":-0.45653268694877625}},"11":{"bias":-0.6530195474624634,"weights":{"0":-0.36660268902778625,"1":-0.20472927391529083,"2":-0.42458733916282654,"3":-0.40344807505607605,"4":-0.38003405928611755,"5":-0.3190263509750366,"6":-0.3841898739337921,"7":-0.3422732353210449,"8":-0.4173559248447418,"9":-0.127926304936409,"10":-0.1859407126903534,"11":-0.2999190390110016,"12":-0.2939265966415405,"13":-0.48938608169555664,"14":-0.20713581144809723,"15":-0.37408363819122314,"16":-0.14856933057308197,"17":-0.14741331338882446,"18":-0.3476572632789612,"19":-1.0198886394500732,"20":-0.2878011465072632,"21":-0.5879955291748047,"22":-0.5154351592063904,"23":-0.49091723561286926,"24":-0.6488868594169617,"25":-0.09104350209236145,"26":-0.22024650871753693,"27":-0.21359597146511078,"28":-0.1970786601305008,"29":-0.6352050304412842,"30":-0.2962819039821625,"31":-0.3952025771141052}},"12":{"bias":-0.49966904520988464,"weights":{"0":-0.42832401394844055,"1":-0.38002607226371765,"2":-0.11401645094156265,"3":-0.3106500804424286,"4":-0.156683087348938,"5":-0.03798392042517662,"6":-0.03804115578532219,"7":-0.1805431991815567,"8":-0.2274247258901596,"9":-0.24979232251644135,"10":-0.30273768305778503,"11":-0.4463314712047577,"12":-0.21065840125083923,"13":-0.09505988657474518,"14":-0.4902796447277069,"15":-0.3721930682659149,"16":-0.27927809953689575,"17":-0.3290606141090393,"18":-0.4387165904045105,"19":-1.242566704750061,"20":-0.27292948961257935,"21":-0.4591909945011139,"22":-0.1864735633134842,"23":-0.6054061651229858,"24":-0.111973337829113,"25":-0.3532629609107971,"26":-0.4316807985305786,"27":-0.5625273585319519,"28":-0.34525948762893677,"29":-0.16742707788944244,"30":-0.24011152982711792,"31":-0.25556203722953796}},"13":{"bias":-0.6554901599884033,"weights":{"0":-0.33262765407562256,"1":-0.4399121403694153,"2":-0.3689699172973633,"3":-0.27578413486480713,"4":-0.41463518142700195,"5":-0.3973754644393921,"6":-0.48466405272483826,"7":-0.38958650827407837,"8":-0.3895625174045563,"9":-0.3406089246273041,"10":-0.23234742879867554,"11":-0.16767670214176178,"12":-0.17579719424247742,"13":-0.5077728033065796,"14":-0.44227883219718933,"15":-0.5047791600227356,"16":-0.36721715331077576,"17":-0.3810481131076813,"18":-0.251817911863327,"19":-0.8374282717704773,"20":-0.3170332610607147,"21":-0.5223178863525391,"22":-0.2784940302371979,"23":-0.278739869594574,"24":-0.3621308207511902,"25":-0.128382608294487,"26":-0.27586042881011963,"27":-0.451032817363739,"28":-0.14886753261089325,"29":-0.42011576890945435,"30":-0.3917330205440521,"31":-0.44770708680152893}},"14":{"bias":-0.5609025359153748,"weights":{"0":-0.3002977967262268,"1":-0.3413850963115692,"2":-0.2663026452064514,"3":-0.41248831152915955,"4":-0.42261868715286255,"5":-0.43564242124557495,"6":-0.3227492570877075,"7":-0.30184727907180786,"8":-0.2790735363960266,"9":-0.4103330373764038,"10":-0.4444032609462738,"11":-0.4542449414730072,"12":-0.1600654274225235,"13":-0.3647926449775696,"14":-0.4159352481365204,"15":-0.1296735405921936,"16":-0.1616203933954239,"17":-0.24705073237419128,"18":-0.3457275927066803,"19":-1.0045548677444458,"20":-0.30542701482772827,"21":-0.4983724355697632,"22":-0.49314001202583313,"23":-0.369306355714798,"24":-0.3643094003200531,"25":-0.37937793135643005,"26":-0.3980836868286133,"27":-0.32224351167678833,"28":-0.4087761342525482,"29":-0.18515652418136597,"30":-0.2853597402572632,"31":-0.45687970519065857}},"15":{"bias":-0.6309881806373596,"weights":{"0":-0.47152453660964966,"1":-0.4627232551574707,"2":-0.13012714684009552,"3":-0.41627568006515503,"4":-0.2214708924293518,"5":-0.2820335626602173,"6":-0.12626613676548004,"7":-0.2707030177116394,"8":-0.2414887547492981,"9":-0.07765655964612961,"10":-0.18935967981815338,"11":-0.125780388712883,"12":-0.4211300015449524,"13":-0.39299607276916504,"14":-0.25163060426712036,"15":-0.2804426848888397,"16":-0.28989946842193604,"17":-0.3464565873146057,"18":-0.15592361986637115,"19":-0.9470760226249695,"20":-0.10492230951786041,"21":-0.6840648055076599,"22":-0.49132028222084045,"23":-0.665241003036499,"24":-0.14761313796043396,"25":-0.2888002395629883,"26":-0.5218879580497742,"27":-0.4920186400413513,"28":-0.4482327401638031,"29":-0.4594214856624603,"30":-0.4729790985584259,"31":-0.15582649409770966}}},{"0":{"bias":-4.758514881134033,"weights":{"0":1.8201512098312378,"1":1.8814948797225952,"2":1.7461427450180054,"3":1.8160648345947266,"4":1.822401762008667,"5":1.750409483909607,"6":1.8989660739898682,"7":1.8665611743927002,"8":1.926540732383728,"9":1.9018043279647827,"10":1.6674925088882446,"11":1.944784164428711,"12":1.705863118171692,"13":1.8748714923858643,"14":1.8678768873214722,"15":1.8174012899398804}},"1":{"bias":-5.734931468963623,"weights":{"0":0.8154301643371582,"1":-0.012693817727267742,"2":0.6091773509979248,"3":0.6916399002075195,"4":0.10598565638065338,"5":0.7988059520721436,"6":0.11521200835704803,"7":0.09974447637796402,"8":-0.41013211011886597,"9":0.8022356629371643,"10":1.400499939918518,"11":-0.11529272794723511,"12":1.3349902629852295,"13":0.21763896942138672,"14":0.699222981929779,"15":0.8312631845474243}}}],"outputLookup":true,"inputLookup":true,"activation":"sigmoid","trainOpts":{"iterations":10000,"errorThresh":0.0002,"log":true,"logPeriod":100,"learningRate":0.3,"momentum":0.1,"callbackPeriod":10,"beta1":0.9,"beta2":0.999,"epsilon":1e-8}}';
// with +408 failure cases (5.75%)
//jnn = '{"sizes":[4,32,32,32,16,2],"layers":[{"0":{},"1":{},"2":{},"3":{}},{"0":{"bias":-0.31359055638313293,"weights":{"0":1.9534419775009155,"1":-4.83401346206665,"2":-0.004616163205355406,"3":-3.1772499084472656}},"1":{"bias":-0.4679338037967682,"weights":{"0":0.05411651358008385,"1":-2.6244215965270996,"2":-0.5875300765037537,"3":-1.5984091758728027}},"2":{"bias":-2.890580177307129,"weights":{"0":-0.4631475508213043,"1":-3.872267007827759,"2":1.494604229927063,"3":3.6058502197265625}},"3":{"bias":-0.38808462023735046,"weights":{"0":-1.076766848564148,"1":-1.3441139459609985,"2":0.4754507541656494,"3":0.8148797750473022}},"4":{"bias":-0.3010323643684387,"weights":{"0":-0.30862635374069214,"1":-1.6428064107894897,"2":-0.47808027267456055,"3":-0.6137042045593262}},"5":{"bias":0.1769174337387085,"weights":{"0":-2.0315630435943604,"1":-1.4957525730133057,"2":-0.7697298526763916,"3":0.029786672443151474}},"6":{"bias":0.02966218627989292,"weights":{"0":-0.4983033239841461,"1":-1.727391242980957,"2":-0.5316540002822876,"3":-0.1755373626947403}},"7":{"bias":0.07253598421812057,"weights":{"0":-1.23323655128479,"1":-1.6501256227493286,"2":-0.7112630009651184,"3":-0.24281050264835358}},"8":{"bias":-0.3898378014564514,"weights":{"0":-0.722161054611206,"1":-1.4516733884811401,"2":0.4756040573120117,"3":0.5449034571647644}},"9":{"bias":0.0736067071557045,"weights":{"0":0.22326666116714478,"1":-1.9146733283996582,"2":0.1799621880054474,"3":-0.07120777666568756}},"10":{"bias":-0.41171377897262573,"weights":{"0":-0.7079049944877625,"1":-1.0967302322387695,"2":-0.3938056528568268,"3":-0.15189296007156372}},"11":{"bias":0.16741743683815002,"weights":{"0":-0.1828472912311554,"1":-1.9089763164520264,"2":-0.024899043142795563,"3":-0.06441708654165268}},"12":{"bias":-1.1376163959503174,"weights":{"0":0.8314840793609619,"1":-8.586943626403809,"2":0.31223076581954956,"3":7.828889846801758}},"13":{"bias":-1.0145821571350098,"weights":{"0":-0.8274664878845215,"1":-1.7304903268814087,"2":0.8915398716926575,"3":1.4211106300354004}},"14":{"bias":-0.35278087854385376,"weights":{"0":-1.2145130634307861,"1":-1.0260523557662964,"2":-0.457894504070282,"3":-0.03945852443575859}},"15":{"bias":-0.31078970432281494,"weights":{"0":-2.30352520942688,"1":-0.8583279252052307,"2":-0.497770756483078,"3":0.22179177403450012}},"16":{"bias":-0.23290599882602692,"weights":{"0":-1.3868895769119263,"1":-1.0808284282684326,"2":-0.5419986248016357,"3":-0.0033472063951194286}},"17":{"bias":0.13388702273368835,"weights":{"0":-0.09919349104166031,"1":-1.8568283319473267,"2":0.47081252932548523,"3":0.06393102556467056}},"18":{"bias":-0.10699049383401871,"weights":{"0":-0.08977919816970825,"1":6.888909339904785,"2":-0.9095147252082825,"3":-7.4150495529174805}},"19":{"bias":-1.2207216024398804,"weights":{"0":4.479072570800781,"1":-1.6701217889785767,"2":-0.13369688391685486,"3":0.009901766665279865}},"20":{"bias":-6.040791988372803,"weights":{"0":7.425746917724609,"1":-2.5082108974456787,"2":2.478926658630371,"3":2.52107572555542}},"21":{"bias":0.07282102853059769,"weights":{"0":-0.999555230140686,"1":-1.7850388288497925,"2":-0.6815117001533508,"3":-0.2707338333129883}},"22":{"bias":0.0019525907700881362,"weights":{"0":0.3217308521270752,"1":-2.6598756313323975,"2":1.1606111526489258,"3":0.3998214602470398}},"23":{"bias":-0.21661730110645294,"weights":{"0":-0.8747938275337219,"1":-1.3805731534957886,"2":-0.35797548294067383,"3":-0.1495097130537033}},"24":{"bias":-0.1611170917749405,"weights":{"0":-1.1894171237945557,"1":-1.061471939086914,"2":-0.7234469056129456,"3":-0.025620007887482643}},"25":{"bias":-0.1115201860666275,"weights":{"0":0.7482289671897888,"1":-2.321135997772217,"2":0.6306266784667969,"3":0.04179299622774124}},"26":{"bias":-0.6259444952011108,"weights":{"0":1.3329583406448364,"1":-2.5726733207702637,"2":0.6531093716621399,"3":0.0756811872124672}},"27":{"bias":-0.5498688220977783,"weights":{"0":-0.5499230027198792,"1":-0.720658540725708,"2":-0.1173686608672142,"3":0.3293432891368866}},"28":{"bias":-0.05106169357895851,"weights":{"0":-0.30129432678222656,"1":3.3550143241882324,"2":0.8491591811180115,"3":3.74084210395813}},"29":{"bias":-1.5119258165359497,"weights":{"0":0.7825250625610352,"1":-4.9480133056640625,"2":-1.8635361194610596,"3":4.29439640045166}},"30":{"bias":-0.8918620944023132,"weights":{"0":-0.44041678309440613,"1":-1.1335210800170898,"2":-0.03191397711634636,"3":1.2979753017425537}},"31":{"bias":-0.4862329065799713,"weights":{"0":-0.4326975345611572,"1":-0.9476262331008911,"2":0.708271324634552,"3":0.4272027015686035}}},{"0":{"bias":-0.09783300757408142,"weights":{"0":0.16436782479286194,"1":0.17287103831768036,"2":-0.09422929584980011,"3":-0.4443718194961548,"4":0.0703507587313652,"5":-0.07532084733247757,"6":-0.011901344172656536,"7":-0.0648602619767189,"8":-0.1585739552974701,"9":-0.019157975912094116,"10":0.055397264659404755,"11":-0.10390225797891617,"12":-0.3147086203098297,"13":-0.18055225908756256,"14":-0.17562445998191833,"15":-0.07955095916986465,"16":-0.15983270108699799,"17":-0.2069908231496811,"18":-0.8126803040504456,"19":-0.304398775100708,"20":-0.19278983771800995,"21":-0.04617099091410637,"22":-0.010195288807153702,"23":-0.31159815192222595,"24":0.009589393623173237,"25":0.013336794450879097,"26":-0.18050257861614227,"27":-0.22498975694179535,"28":-0.40293464064598083,"29":-0.3937430679798126,"30":-0.10899835079908371,"31":-0.3367931544780731}},"1":{"bias":-0.03337064012885094,"weights":{"0":-0.2397039234638214,"1":-0.07434280216693878,"2":-0.0357758030295372,"3":-0.13746006786823273,"4":0.02300739474594593,"5":-0.33630672097206116,"6":-0.05936737358570099,"7":-0.3256799876689911,"8":-0.2248949110507965,"9":0.02108445018529892,"10":-0.12132075428962708,"11":-0.1586773842573166,"12":-0.13085655868053436,"13":-0.1887950897216797,"14":-0.13359612226486206,"15":-0.26464852690696716,"16":-0.29215335845947266,"17":-0.35916703939437866,"18":-0.17546449601650238,"19":-0.4824182689189911,"20":0.21331952512264252,"21":-0.04050173982977867,"22":-0.32395365834236145,"23":-0.09396253526210785,"24":-0.3020824193954468,"25":-0.32017752528190613,"26":-0.20466795563697815,"27":-0.23464837670326233,"28":-0.21519482135772705,"29":0.22565239667892456,"30":-0.08188728243112564,"31":-0.14052602648735046}},"2":{"bias":-0.4201871454715729,"weights":{"0":-0.11355212330818176,"1":-0.3050606846809387,"2":-0.03782852366566658,"3":-0.14512211084365845,"4":-0.2628171741962433,"5":-0.11326981335878372,"6":-0.003886918304488063,"7":-0.26707056164741516,"8":0.009729922749102116,"9":-0.09565216302871704,"10":-0.14741137623786926,"11":-0.15856318175792694,"12":-0.045147236436605453,"13":0.01193575281649828,"14":-0.17207512259483337,"15":-0.2606408894062042,"16":-0.193374902009964,"17":-0.08885707706212997,"18":-0.2818429172039032,"19":-0.17118427157402039,"20":-0.01577289216220379,"21":-0.15586093068122864,"22":-0.09692772477865219,"23":-0.30405572056770325,"24":-0.23233525454998016,"25":-0.24401848018169403,"26":-0.3038335144519806,"27":-0.03505760803818703,"28":-0.2578144073486328,"29":0.09019085019826889,"30":-0.20298442244529724,"31":-0.10280855745077133}},"3":{"bias":-0.12505920231342316,"weights":{"0":-0.08069052547216415,"1":0.01043443288654089,"2":-0.16009916365146637,"3":-0.125442773103714,"4":-0.011786016635596752,"5":-0.4068019390106201,"6":0.010056257247924805,"7":-0.027518516406416893,"8":-0.30066972970962524,"9":0.020732557401061058,"10":-0.19487391412258148,"11":-0.2122073620557785,"12":0.05424293130636215,"13":-0.2638227045536041,"14":-0.008740672841668129,"15":-0.2142820805311203,"16":-0.07642834633588791,"17":-0.13865089416503906,"18":-0.24195615947246552,"19":-0.17202258110046387,"20":-0.19594384729862213,"21":-0.24374788999557495,"22":-0.16271622478961945,"23":0.004496427718549967,"24":-0.3592464029788971,"25":-0.06903824210166931,"26":-0.41143423318862915,"27":-0.056732796132564545,"28":-0.3869972229003906,"29":-0.07653263956308365,"30":-0.3085509240627289,"31":-0.3430655002593994}},"4":{"bias":0.08567961305379868,"weights":{"0":-0.4437783658504486,"1":-0.2612611651420593,"2":1.397111415863037,"3":0.0778580978512764,"4":-0.46794939041137695,"5":-0.7547065615653992,"6":-0.31478291749954224,"7":-0.39643561840057373,"8":0.09161695092916489,"9":-0.6135711073875427,"10":-0.19099804759025574,"11":-0.49036645889282227,"12":0.2906000316143036,"13":0.42071405053138733,"14":-0.4322234094142914,"15":-0.46227359771728516,"16":-0.37323418259620667,"17":-0.4944753646850586,"18":-0.18187905848026276,"19":-0.7717083096504211,"20":1.3171221017837524,"21":-0.49843090772628784,"22":-0.7799235582351685,"23":-0.30024245381355286,"24":-0.42048534750938416,"25":-0.782906174659729,"26":-0.7523170113563538,"27":0.008321579545736313,"28":0.11929365247488022,"29":0.9936264753341675,"30":0.38719773292541504,"31":-0.2394479215145111}},"5":{"bias":0.047564830631017685,"weights":{"0":0.15845222771167755,"1":0.13367657363414764,"2":-0.42814069986343384,"3":-0.36710289120674133,"4":0.014586983248591423,"5":-0.07564990967512131,"6":-0.007401857525110245,"7":0.08732443302869797,"8":-0.05665892735123634,"9":0.05768783763051033,"10":-0.05488824099302292,"11":-0.11835752427577972,"12":-0.833092212677002,"13":-0.3814290165901184,"14":-0.17811748385429382,"15":-0.10411286354064941,"16":0.08302009105682373,"17":-0.02388186939060688,"18":-1.382551908493042,"19":-0.03863103687763214,"20":-0.3424037992954254,"21":0.06336987763643265,"22":-0.2525365650653839,"23":-0.005929200444370508,"24":-0.21688838303089142,"25":0.09054552763700485,"26":0.0652993693947792,"27":-0.02495696023106575,"28":-0.17260603606700897,"29":-0.3248547911643982,"30":-0.029883606359362602,"31":-0.2655087113380432}},"6":{"bias":-0.3105826675891876,"weights":{"0":1.1718896627426147,"1":0.6422697901725769,"2":-0.8109291195869446,"3":-0.2587684392929077,"4":0.4755879342556,"5":0.11674564331769943,"6":0.09641676396131516,"7":0.25722822546958923,"8":-0.08328922837972641,"9":0.08746196329593658,"10":-0.05136197432875633,"11":0.255026638507843,"12":-1.2275334596633911,"13":-0.47410380840301514,"14":0.003261108882725239,"15":-0.3250657618045807,"16":0.12850213050842285,"17":0.005478987004607916,"18":-1.9630403518676758,"19":0.24550342559814453,"20":-0.7877079844474792,"21":0.25285273790359497,"22":0.0905032753944397,"23":0.10250062495470047,"24":0.05600930377840996,"25":0.1270933449268341,"26":0.1491808295249939,"27":-0.21274398267269135,"28":-1.2669459581375122,"29":-0.8529378771781921,"30":-0.413968563079834,"31":-0.0953546017408371}},"7":{"bias":-0.2895491123199463,"weights":{"0":2.2253618240356445,"1":1.1903972625732422,"2":-0.9597305655479431,"3":-0.6200636625289917,"4":0.4951748251914978,"5":0.04536134749650955,"6":0.354085773229599,"7":0.19175320863723755,"8":-0.4774032235145569,"9":0.47957855463027954,"10":0.09134604781866074,"11":0.22195950150489807,"12":-1.7487848997116089,"13":-0.7031489014625549,"14":-0.0402759425342083,"15":-0.26398003101348877,"16":-0.1973782628774643,"17":0.07803341001272202,"18":-3.2492897510528564,"19":0.9285910129547119,"20":-1.1581157445907593,"21":0.5578027367591858,"22":0.39410173892974854,"23":0.1659761220216751,"24":-0.15152417123317719,"25":0.5635688304901123,"26":0.49261292815208435,"27":-0.45791196823120117,"28":-2.21586275100708,"29":-1.458208441734314,"30":-0.6883694529533386,"31":-0.41755449771881104}},"8":{"bias":-0.3587965667247772,"weights":{"0":0.7927005290985107,"1":0.4089904725551605,"2":-0.5941340923309326,"3":-0.2720020115375519,"4":0.06777028739452362,"5":-0.15971247851848602,"6":0.2079542875289917,"7":0.23140089213848114,"8":-0.14711077511310577,"9":0.16848154366016388,"10":-0.05633135512471199,"11":-0.21873807907104492,"12":-0.9371203780174255,"13":-0.24867567420005798,"14":-0.059812385588884354,"15":-0.07537472248077393,"16":-0.22279611229896545,"17":-0.07650982588529587,"18":-1.139501690864563,"19":0.28039121627807617,"20":-0.9184413552284241,"21":0.26280906796455383,"22":-0.15806172788143158,"23":0.019659722223877907,"24":0.04627734050154686,"25":0.14639462530612946,"26":0.18104784190654755,"27":-0.19274689257144928,"28":-1.0115370750427246,"29":-0.6634153723716736,"30":-0.2511654198169708,"31":-0.3517420291900635}},"9":{"bias":-0.5654479265213013,"weights":{"0":1.0797268152236938,"1":0.4657500088214874,"2":-0.6637126207351685,"3":-0.1517905741930008,"4":0.011681411415338516,"5":-0.0633186474442482,"6":0.10367657244205475,"7":0.22657066583633423,"8":-0.2907041907310486,"9":0.15515340864658356,"10":-0.0970798060297966,"11":0.032553885132074356,"12":-0.8654554486274719,"13":-0.47899970412254333,"14":-0.2670286297798157,"15":-0.3650887608528137,"16":-0.08302915096282959,"17":-0.07163888961076736,"18":-1.6255054473876953,"19":0.3726225197315216,"20":-0.6996073722839355,"21":0.0834689661860466,"22":0.12574553489685059,"23":-0.1587822139263153,"24":0.07327373325824738,"25":0.27805864810943604,"26":0.23926876485347748,"27":-0.3387751579284668,"28":-1.2392988204956055,"29":-0.5779019594192505,"30":-0.42637085914611816,"31":-0.16283448040485382}},"10":{"bias":-0.34890106320381165,"weights":{"0":1.5565667152404785,"1":0.8888089656829834,"2":-0.7722022533416748,"3":-0.46729546785354614,"4":0.5370523929595947,"5":0.12141873687505722,"6":0.2280794233083725,"7":0.34623342752456665,"8":-0.19790682196617126,"9":0.30070629715919495,"10":0.11440020799636841,"11":0.024962661787867546,"12":-1.35129976272583,"13":-0.4188566207885742,"14":-0.12915676832199097,"15":-0.30188846588134766,"16":-0.2529670000076294,"17":0.14002329111099243,"18":-1.9905387163162231,"19":0.7913117408752441,"20":-1.0043989419937134,"21":0.3006587326526642,"22":0.2757101356983185,"23":-0.09410738199949265,"24":0.056110680103302,"25":0.07865829765796661,"26":0.2982337474822998,"27":-0.2548823058605194,"28":-1.4652690887451172,"29":-1.0929069519042969,"30":-0.4728892147541046,"31":-0.34111785888671875}},"11":{"bias":-0.38465285301208496,"weights":{"0":-1.258119821548462,"1":-0.3131009340286255,"2":1.0437297821044922,"3":0.44646143913269043,"4":0.010071714408695698,"5":-0.16900421679019928,"6":-0.21949800848960876,"7":-0.35227006673812866,"8":0.2825874984264374,"9":-0.15575332939624786,"10":-0.18575404584407806,"11":-0.0857110545039177,"12":2.944814443588257,"13":0.42195063829421997,"14":0.047079142183065414,"15":-0.12949293851852417,"16":-0.05406561493873596,"17":0.1964019387960434,"18":3.389373540878296,"19":-0.9965598583221436,"20":0.948706865310669,"21":0.04610782861709595,"22":0.19524243474006653,"23":-0.15451554954051971,"24":-0.05174336954951286,"25":-0.16564345359802246,"26":-0.2525779902935028,"27":-0.18873509764671326,"28":0.4101124703884125,"29":1.4596261978149414,"30":0.23441578447818756,"31":-0.026254847645759583}},"12":{"bias":0.051115091890096664,"weights":{"0":-0.13886739313602448,"1":-0.2972713112831116,"2":0.5586664080619812,"3":-0.06772264838218689,"4":-0.15482555329799652,"5":-0.710934579372406,"6":-0.3968535363674164,"7":-0.41053855419158936,"8":-0.3292176127433777,"9":-0.5719435811042786,"10":-0.4323059618473053,"11":-0.30817654728889465,"12":0.6360382437705994,"13":-0.2932424545288086,"14":-0.19443032145500183,"15":-0.26521584391593933,"16":-0.3685730993747711,"17":-0.6098790168762207,"18":0.4062807559967041,"19":-0.7956744432449341,"20":0.7293399572372437,"21":-0.4991300106048584,"22":-0.7000440955162048,"23":-0.3300102651119232,"24":-0.28989824652671814,"25":-0.6807077527046204,"26":-0.6529169678688049,"27":-0.2148292064666748,"28":0.12585139274597168,"29":0.72214674949646,"30":0.15025994181632996,"31":-0.45821765065193176}},"13":{"bias":-0.39008480310440063,"weights":{"0":-0.24485205113887787,"1":-0.06055254116654396,"2":-0.03258392959833145,"3":-0.3664325773715973,"4":0.017107009887695312,"5":-0.4619407653808594,"6":-0.18686896562576294,"7":-0.20627471804618835,"8":-0.3344402313232422,"9":-0.15727663040161133,"10":-0.1121179461479187,"11":-0.26815709471702576,"12":0.2574024200439453,"13":-0.2999439835548401,"14":-0.17985886335372925,"15":-0.3163679242134094,"16":-0.14899708330631256,"17":-0.342580109834671,"18":0.28175947070121765,"19":-0.4923000931739807,"20":0.1544581949710846,"21":-0.32096970081329346,"22":-0.2644951045513153,"23":-0.3323598802089691,"24":-0.08210412412881851,"25":-0.18498152494430542,"26":-0.29008936882019043,"27":-0.21401281654834747,"28":-0.330606609582901,"29":0.10182636231184006,"30":-0.15864959359169006,"31":-0.21174465119838715}},"14":{"bias":-0.32909807562828064,"weights":{"0":0.04220016673207283,"1":-0.12363023310899734,"2":0.06663782894611359,"3":-0.4128430187702179,"4":0.040198683738708496,"5":-0.21788255870342255,"6":-0.3486258387565613,"7":-0.20353125035762787,"8":-0.12045268714427948,"9":-0.14046834409236908,"10":-0.06523542106151581,"11":-0.17493797838687897,"12":0.010329116135835648,"13":-0.2504309415817261,"14":-0.23657964169979095,"15":-0.3365281820297241,"16":-0.19984957575798035,"17":-0.26911860704421997,"18":0.20201019942760468,"19":-0.40172332525253296,"20":0.3500978350639343,"21":-0.07011239975690842,"22":-0.2485891729593277,"23":-0.037864744663238525,"24":-0.2750967741012573,"25":-0.19767755270004272,"26":-0.2218213826417923,"27":-0.11694976687431335,"28":-0.4752366542816162,"29":0.029028182849287987,"30":-0.22110576927661896,"31":-0.38096722960472107}},"15":{"bias":0.03053371049463749,"weights":{"0":0.14578332006931305,"1":0.0734715461730957,"2":-0.17581325769424438,"3":-0.41018515825271606,"4":-0.011549623683094978,"5":-0.29693520069122314,"6":0.16653047502040863,"7":0.03927301615476608,"8":-0.2559729218482971,"9":-0.06836193054914474,"10":-0.13626466691493988,"11":0.11040069907903671,"12":-0.428207665681839,"13":-0.42977654933929443,"14":0.05857355520129204,"15":-0.24863947927951813,"16":-0.12728911638259888,"17":0.05931021273136139,"18":-1.3715813159942627,"19":-0.09883975982666016,"20":-0.6194294691085815,"21":0.1815343052148819,"22":-0.3570321202278137,"23":0.11700794845819473,"24":0.09746947139501572,"25":-0.10134574770927429,"26":0.07072701305150986,"27":0.05367512255907059,"28":-0.10150497406721115,"29":0.21041826903820038,"30":0.07789596170186996,"31":-0.028741294518113136}},"16":{"bias":-0.45083630084991455,"weights":{"0":-0.3951493203639984,"1":-0.5971460342407227,"2":0.5535256862640381,"3":-0.18940414488315582,"4":-0.4103744924068451,"5":-0.7689164280891418,"6":-0.6661838889122009,"7":-0.7902738451957703,"8":-0.6303673982620239,"9":-0.824944019317627,"10":-0.3621775209903717,"11":-0.7514513731002808,"12":0.8697907328605652,"13":-0.2791026532649994,"14":-0.5294665694236755,"15":-0.4848706126213074,"16":-0.4355301558971405,"17":-0.8862543106079102,"18":1.5066746473312378,"19":-0.9279834032058716,"20":0.46178072690963745,"21":-0.7968829274177551,"22":-1.0500068664550781,"23":-0.4936302602291107,"24":-0.5308030247688293,"25":-0.8356536030769348,"26":-0.8843637704849243,"27":-0.34622347354888916,"28":-0.10489571839570999,"29":0.661663830280304,"30":-0.3144661486148834,"31":-0.37290042638778687}},"17":{"bias":-0.13207025825977325,"weights":{"0":-0.7243378162384033,"1":-0.2863335907459259,"2":0.6272857189178467,"3":-0.11042656004428864,"4":-0.18607212603092194,"5":-0.6998750567436218,"6":0.022829629480838776,"7":-0.4503858685493469,"8":0.003229040652513504,"9":0.030530385673046112,"10":-0.37460702657699585,"11":-0.016833938658237457,"12":2.1163437366485596,"13":0.20262262225151062,"14":-0.3553568124771118,"15":-0.470172256231308,"16":-0.37415793538093567,"17":-0.14979484677314758,"18":1.998890995979309,"19":-0.21435312926769257,"20":0.8344655632972717,"21":-0.11515843868255615,"22":0.12080898135900497,"23":-0.08549276739358902,"24":-0.4249379634857178,"25":0.3057915270328522,"26":0.16378161311149597,"27":-0.2501871883869171,"28":0.2620850205421448,"29":1.2185914516448975,"30":-0.11425084620714188,"31":-0.14634937047958374}},"18":{"bias":-0.17711450159549713,"weights":{"0":0.7010615468025208,"1":0.3551155626773834,"2":-0.32836517691612244,"3":-0.3572886288166046,"4":0.12178774178028107,"5":-0.19486740231513977,"6":0.09107044339179993,"7":0.1818990409374237,"8":-0.3153664469718933,"9":-0.00921818520873785,"10":-0.11968402564525604,"11":0.10207051038742065,"12":-0.9985519647598267,"13":-0.34413936734199524,"14":-0.16527268290519714,"15":-0.13081589341163635,"16":-0.1030341386795044,"17":0.017110133543610573,"18":-1.4697818756103516,"19":0.2491234391927719,"20":-0.694083034992218,"21":0.13829845190048218,"22":0.053635258227586746,"23":0.0781259685754776,"24":0.08420738577842712,"25":-0.10429931432008743,"26":0.1620100885629654,"27":-0.24889163672924042,"28":-0.20009306073188782,"29":-0.3850097060203552,"30":-0.3526970148086548,"31":-0.020070446655154228}},"19":{"bias":-0.2760278880596161,"weights":{"0":0.08832685649394989,"1":0.24911589920520782,"2":-0.07902208715677261,"3":-0.3118395507335663,"4":0.11211951822042465,"5":-0.2949718236923218,"6":-0.1124403178691864,"7":-0.22032159566879272,"8":-0.007535024546086788,"9":0.020307552069425583,"10":-0.07297568768262863,"11":0.008800667710602283,"12":-0.41070106625556946,"13":-0.354143887758255,"14":-0.12389856576919556,"15":-0.26289740204811096,"16":-0.06257136166095734,"17":0.02185409516096115,"18":-0.7354978322982788,"19":-0.04222966358065605,"20":-0.2549137771129608,"21":-0.13861076533794403,"22":-0.049368832260370255,"23":0.08935835212469101,"24":-0.1991189420223236,"25":-0.02428148314356804,"26":0.021404625847935677,"27":-0.18136589229106903,"28":-0.47146669030189514,"29":-0.12777866423130035,"30":-0.2177431285381317,"31":-0.2780323326587677}},"20":{"bias":-0.13355478644371033,"weights":{"0":-0.7354143261909485,"1":-0.17177991569042206,"2":1.9778088331222534,"3":0.17652036249637604,"4":-0.3586236536502838,"5":-0.6821199059486389,"6":-0.40247491002082825,"7":-0.4857434034347534,"8":0.14731906354427338,"9":-0.3786190152168274,"10":-0.37837162613868713,"11":-0.5271998047828674,"12":-0.0084950877353549,"13":0.7532104849815369,"14":-0.2777922451496124,"15":-0.7440104484558105,"16":-0.47795215249061584,"17":-0.4030495584011078,"18":-0.5682154297828674,"19":-1.7036230564117432,"20":-0.32009899616241455,"21":-0.6225776076316833,"22":-0.5162028670310974,"23":-0.38216477632522583,"24":-0.32993435859680176,"25":-0.329892635345459,"26":-0.7226578593254089,"27":0.11513857543468475,"28":0.18182073533535004,"29":1.8005738258361816,"30":0.22909502685070038,"31":0.2240193784236908}},"21":{"bias":-0.0297970250248909,"weights":{"0":1.5352295637130737,"1":0.6714832186698914,"2":-0.8096833825111389,"3":-0.3241826891899109,"4":0.4580407738685608,"5":0.18436862528324127,"6":0.34183767437934875,"7":0.11332236230373383,"8":-0.38973188400268555,"9":0.32414311170578003,"10":0.09709012508392334,"11":0.19559428095817566,"12":-1.887824535369873,"13":-0.8062432408332825,"14":0.11377818882465363,"15":-0.027976257726550102,"16":-0.014216810464859009,"17":-0.1423090696334839,"18":-2.650017023086548,"19":0.7057573795318604,"20":-1.012126088142395,"21":0.1792093962430954,"22":0.18071027100086212,"23":-0.16423067450523376,"24":0.14107012748718262,"25":0.37965261936187744,"26":0.22926634550094604,"27":-0.00387805444188416,"28":-1.3085576295852661,"29":-1.3815621137619019,"30":-0.4459734857082367,"31":-0.41842302680015564}},"22":{"bias":-0.1304367631673813,"weights":{"0":0.1620045304298401,"1":0.2493552565574646,"2":-0.18721753358840942,"3":-0.332986444234848,"4":0.08368989825248718,"5":-0.006601348519325256,"6":-0.16565875709056854,"7":0.10281050950288773,"8":-0.19114574790000916,"9":0.14158569276332855,"10":0.0643826276063919,"11":-0.06383354216814041,"12":-0.252027690410614,"13":-0.46836960315704346,"14":-0.029156645759940147,"15":-0.2679971754550934,"16":-0.07714053243398666,"17":-0.1679079681634903,"18":-0.7839301824569702,"19":-0.27994903922080994,"20":-0.3815220594406128,"21":-0.22205610573291779,"22":-0.1271691620349884,"23":0.031524982303380966,"24":-0.20583851635456085,"25":-0.02063937485218048,"26":-0.16488483548164368,"27":0.005077824927866459,"28":-0.3117905855178833,"29":0.0019175909692421556,"30":-0.03744703531265259,"31":-0.2066478580236435}},"23":{"bias":-0.09908020496368408,"weights":{"0":-0.016626974567770958,"1":0.00012562889605760574,"2":0.3051390051841736,"3":-0.04568062350153923,"4":-0.20670154690742493,"5":-0.3501615822315216,"6":-0.32770952582359314,"7":-0.38049983978271484,"8":-0.3785170316696167,"9":-0.21305999159812927,"10":-0.23630695044994354,"11":-0.4174743592739105,"12":0.27072590589523315,"13":-0.28664207458496094,"14":-0.31776130199432373,"15":-0.546307384967804,"16":-0.13694027066230774,"17":-0.47969695925712585,"18":0.6848613619804382,"19":-0.6513524651527405,"20":0.9817553162574768,"21":-0.36266422271728516,